{"layers":[{"learningRate":0.8,"weights":{"rows":200,"cols":784,"data":[[0.829622948355957,0.404749336170362,0.001586163227604409,-0.8974725614437267,0.561164210521778,-0.8363838510317976,-0.31804501597341517,-0.17141791273830398,-0.42780984521529275,0.5900716564650974,0.7930449016596213,-0.102034005374398,0.9392319762063299,-0.001549969408233487,-0.16737725082624832,-0.8916253815354098,0.6030635037360113,-0.4723671643039591,0.663343752095495,0.2486932358749261,-0.10834998533779006,0.717738678831934,-0.7051681165973522,-0.813030502245232,0.506882178313532,0.6945376544387272,-0.8673076546000993,-0.9450757958796658,-0.18624627606620647,-0.4945797476703051,-0.8440131587558919,-0.49081133080543315,-0.5461720444241966,0.41161365768466807,0.8795791847460741,-0.472318643439296,-0.14058602049821134,-0.3647078844098362,0.9222378597333832,-0.5398250234178844,0.18857746639311015,0.7428100634907313,-0.06635445558137346,0.6306442647779801,-0.1512533422010519,-0.8931760853305717,0.9885419943697373,0.5007695123693604,0.09370470236332953,-0.7754236312913665,0.23158605597797782,-0.528804683040808,-0.6039792118967187,-0.17197456302815972,0.06970377604130729,0.3761471074152407,-0.9889332711349366,-0.28914358122626105,-0.0316483672753205,0.24449843006750083,-0.8385603061734958,0.8047541560778251,0.7695850806537369,-0.008353325574157645,-0.9712874436865349,-0.10888335659155955,-0.4353725445862568,-0.551333106129997,0.19145888595452606,-0.0634576341555643,-0.791323665018195,-0.04024993761895923,-0.06001284994960533,-0.783808269324289,-0.841854395896634,0.2571901044869603,0.8809466404776438,-0.009883864836038984,-0.37100844228011304,0.8505867659345098,-0.8151990672293193,-0.764153028382101,-0.2719673322018683,-0.37734006652537877,0.05740227350728988,0.8109477005450745,0.7655068649101793,-0.5448383721969208,-0.6090997766884355,-0.4087032662763235,0.6957994992638556,-0.5109831483811373,0.9037065594038276,0.9446824264204923,0.5757508969433649,-0.7678954968256503,0.5098196743102977,0.914072767269851,-0.6698019498262627,-0.5769273441213124,0.7946760192238536,0.883612592931274,0.10177025621810172,0.15078527970985786,0.4324509219179758,-0.7716729594611291,0.9759241293391357,-0.47306530713354444,0.6305392531894606,-0.08961275038457739,-0.3738839724018108,0.6401550670399772,-0.33840374138015594,-0.6574474139807815,-0.27773162441518195,0.6623070708041197,0.31421016435536364,-0.24239668764806135,-0.8105775201900113,0.4774783964341468,0.16334449462657716,0.7963158568666991,-0.1917707546146102,0.6626479183220062,-0.031667789854765906,0.3061527668622865,0.3835409667014694,0.2689445022774745,0.5687945630149013,-0.8718055108842939,-0.3365724844407774,0.16781308084130253,0.288728656861594,-0.17899559351124517,-0.2744271627923788,0.03194765413848435,-0.23574516913095386,0.48472709079181264,-0.4230956531410624,-0.3873174843902927,-0.6999735517188155,-0.42381068896970264,0.587528093311868,0.8720574554262202,0.0008344214493379357,0.08055299929250859,0.17840428692890187,-0.862005991263563,0.7555282994891973,-0.12076391075648417,-0.34851507464941955,0.4846675253876035,0.09312989193299205,-0.7627929252807828,-0.6724300140196497,0.018939240640129903,-0.5717954113246839,-0.7640153318880969,-0.033271279946601985,-0.71058388265875,-0.591835374791357,-0.05402172552172648,-0.2260840807929477,-0.40084891898086844,0.444894755002705,-0.472236931104739,0.7599143446527857,-0.03774592275186752,0.8997300652577338,0.46780281132420765,-0.6747674446434839,0.22608660757931784,0.24329832509124424,0.10307831349575218,0.9647663705182786,0.3397957711749567,-0.04062620907175872,0.2676904249925744,-0.06266271629317496,0.24043282872035016,-0.49699772676229187,0.6137115291431097,0.3400972732262521,0.37465677709221584,-0.02153555375462072,0.675156056979611,-0.9167738640429256,0.4214293085153783,0.40097083294115327,-0.27022906654812007,-0.004653214812856428,0.9130279227616025,0.8369150697066132,0.3330311605632942,0.25557236636285796,0.8580314838434504,0.7608300812891,-0.4427144944954034,0.6993672548188176,-0.535912349346208,0.379623456216823,-0.33168827925236516,-0.14365947904229645,-0.470668937557953,0.9796571137115488,-0.9223304921766534,0.16318827446721365,0.8246019590837258,-0.5559740303157463,-0.2892316317905763,0.515234044785164,0.6539597266971848,-0.6342310089233257,0.40715585384935116,0.2871786451575485,-0.8324579659057142,0.029151110732532307,0.07287180019827441,0.6605282887381868,0.3625236504381069,-0.5863982733547548,-0.4557581563643395,0.31481836112147277,0.6127119524960457,-0.10398269185216996,-0.7495910845085502,0.2742035137775465,0.038140419031901816,0.7918517020745481,-0.39856321048701027,0.8806695099557634,0.9614312634030188,-0.6383409038143384,0.11091121315836751,-0.8014898362515075,0.24738378440384898,-0.3609375542827674,-0.7438232925745372,-0.36666032730961884,-0.9244478385530589,-0.5841949615783363,-0.024257443793376264,-0.9301612083978307,0.9126284506258808,0.5089116652688783,0.41269656908766866,0.7760272280058373,0.8694915676128462,-0.5151078534808954,-0.6085519333193464,0.6950853618823882,0.5380866463671885,0.5890209249427278,-0.6448549632619359,0.6398236706102034,0.4323373732485116,0.03355166304154793,0.802755275571253,-0.4590817348131674,-0.2024640064290396,0.19817834511159338,0.8828676693116244,-0.9162843272487127,0.6369504268376222,-0.3163201145010254,-0.9520063898202026,-0.22442159389909278,0.17041721964629905,0.7457076106204675,-0.6965258925520272,0.5712194823599744,-0.0871492455508905,-0.8883763671220727,-0.6729799094160226,0.5710506981499837,-0.3899280847095383,0.7640863472449909,0.8685000454691749,-0.4935486224611953,-0.4286245537346825,0.07292854845830288,0.937478099037004,-0.06288993677726748,0.280165117524112,-0.5036787065123615,0.2177130157350059,0.1996307354498077,0.8934578642415576,-0.04658290879449473,0.11978282784113937,-1.0309925014232257,-0.016221786153970325,0.2975983108496795,0.6311682123823827,0.8497642540138142,-0.07399171494796243,-0.13938572739190702,0.4123154022687895,0.3185188393080378,-0.5372738188596121,-0.6072248971697052,-0.11903937278674348,-0.04675646483220032,-0.6442811356908241,0.32113723962068347,0.10453976725005276,0.3562215984499612,-0.06305614360472121,0.47902784445853497,0.3237422538548856,-0.3302006891846498,-0.22886052489580572,0.2271845279484868,-0.1535935486440586,-0.956586183690395,0.9021405216419269,0.6918983486220537,-0.020387337058227768,-0.2021030113808786,-1.044580872417394,0.8629085368125797,-0.3517372694908359,0.5986041213413364,-0.05530622208141135,0.15844531126780953,0.18487287472971958,0.1571270797906995,0.2526063900166589,-0.8682008108984074,0.48931166994835273,0.7251546261901554,-0.21655327034753724,0.30892923469482014,-0.7602871056349678,0.5139702652989698,-0.4560591755452463,0.17019535742164482,-0.6339998851637799,0.726494333324109,-0.8066373281259461,0.13105497715165945,0.8930649233629663,0.9704758504212723,-0.81615142266939,0.05735706813103816,0.4179055935753017,-0.6462415336271384,-0.11788693114641363,0.21131514473413038,0.824603113817073,-0.8254143146542369,-0.7313792551953993,-0.6691719003653508,-0.5009914059245977,0.9634237454976244,1.0761326535649411,0.13305003274576024,-0.0005438066828429451,0.7884063321685788,-0.6712741302323949,0.6102349939789328,-0.08199308178399137,0.1061014896030446,0.3700577655591161,-0.8719496255191661,-0.2949231801570344,-0.10863522046013926,0.229484812090593,-0.1538478919960294,0.06667837928665296,0.6727859745369408,0.5558540647417757,-0.3115535058915905,-0.4899027516528369,-0.6044460728796581,-0.9566365495865324,0.45672927749557696,-0.006110503063425815,-0.2556997905121463,-0.44059480082494,-0.7346499596132497,-0.4503926949756554,-0.9090375184682619,0.5315787189393375,0.7565255772311645,0.664495840551785,0.8750644565581795,0.040441213479500325,-0.8300300060867006,-0.6309905208597237,-0.9176853117454064,0.3630284182645305,-0.9366412936824355,-0.4024146049611219,0.08035672210565556,-0.7669043928127278,0.7964442950667254,-0.05314321294786082,-0.033933014723424186,0.6198387258030071,-0.6929889959890668,-0.1983878993993965,-0.6141154919663431,-0.6027926362254209,0.7272729446950719,0.08542446152722978,0.004700907738363963,-0.1222714448655568,-0.8109199638465494,0.7615088087686163,-0.7565126690000952,-0.8458625616142768,0.3919782067697453,0.3512149957554053,-0.37633061476001073,-0.14758482666664516,-0.9413917173092053,-0.41201947504919134,-0.3713963654919233,0.9568049618465135,0.1710651516780315,0.46148722043068163,-0.0106003879614494,0.6238916780425139,-0.8150476770772513,-0.23300434173246418,0.6707834837181218,0.289302284016864,0.3144040348449822,-0.6489825089728265,0.5763607623428385,-0.49316849821504427,0.8596427153731451,0.5012101760108962,0.20895654186279056,-0.6069280316288685,0.14965076731495627,0.11706379442039869,-0.5952839312944483,1.0794595752417127,0.8597782367981855,0.20256863321255572,-0.2118385076953328,0.0089254104781113,-0.3696226617920864,0.5429296781980645,0.24267791019641166,-0.6828702679568187,-0.23174247342740006,-0.527977931216893,0.5059674179631873,0.6950829580816903,0.37501185168761536,-0.8120560188076232,0.3024929070957495,0.433640733170671,0.2677676623936697,0.7599068116797177,0.8142840877889277,-0.718901775957663,0.8920853219086957,-0.1064300523089239,0.5398477357265544,-0.046696102737873064,-0.9414561082656125,-0.5077592633973559,0.7718301266671237,0.3235031254492199,0.570718877981451,-0.618811747085291,0.4200914784651877,0.371860173569582,-0.3232476178022408,-0.6970543508651934,0.13608753012695377,-0.9091475385716092,-0.7804449734366741,-0.726106947380999,0.8457883724783914,-0.766998550757859,0.9502220935273368,-0.11386130177465498,0.6108391135836824,-0.8320145759756444,0.9391204582323993,-0.7563561021833561,-0.20485232807456658,0.5959610762410276,-0.7168819334284048,0.0669056071636468,0.030827778132404546,0.9600260280148555,0.38392125480283285,-0.8905762513218775,-0.007482762392205355,0.6739111447220488,-0.5957733888630921,0.39932974133865184,0.42084812212019107,-0.26927738491004,0.652133852008253,-0.6150621995844162,-0.3989468936233266,0.5191676254085826,-0.628151505010575,0.9890155122952584,-0.5358964966519514,0.9735071707765522,-0.5873585518874905,-0.4154052255762372,0.264257416450123,-0.3453584546018371,0.6046059291762631,0.816870850577852,-0.6076940979461031,0.4543287542524926,-0.3482966946053288,-0.6493048017816915,-0.048672208716824816,0.4717597659259692,-0.058670506060125936,0.926885429866381,-0.09659646126568361,0.2264663241425504,-0.9274204952264165,0.0800914123895896,0.3820199709228094,0.6610090663647219,0.1555667528644741,0.6545948120942361,-0.5222849004216404,0.9507957744030129,0.2987390482436245,0.5784005127456475,-0.9680528802602295,-0.30417581159380647,0.4931425121510968,0.5182996564237577,0.8953953381416829,0.6376975878780597,-0.14414490761684545,-0.5515455196241458,-0.38653880865018825,0.37519563473709655,0.993799811594651,0.2569089307956278,0.3423174399068107,-0.4710865237713943,0.8335892933133322,-0.2270773800614938,0.6304517324036206,0.9893668048387764,1.020276432807248,-0.63438601921621,-0.429112739136936,-0.7579375506636963,0.6592469977059119,0.35496308746757327,0.6086267728214655,-0.7670163443990604,0.30343495946362165,-0.5004194057730473,0.0560768913246332,0.41185724804167445,0.6077266585631862,-0.21113451591140858,-0.8107190885290705,-0.7103125516743998,0.9154627149964819,0.053396845355413725,-0.06936147515199294,0.3671818020955162,-0.642285208425442,0.8262267354708002,0.4576713828611773,-0.3858493867792164,-0.3437464341533018,-0.898143005187623,0.8418614313323582,-0.4290033646101441,-0.6776631454667646,0.17850404022012664,-0.015395851286127134,-0.928034869995777,-0.6725724545102963,0.10598821819298579,0.6020709355944319,-0.23814566238240015,-0.34619212229885665,-0.9179009427368068,0.41869338040633874,-0.4110572758179436,0.48311762534241276,-0.5503901077465075,-0.03996356839051064,0.5512587250296632,-0.5732382077181287,-0.08675923390445928,0.4168824800711876,-0.7188014350699301,0.4933613914629776,0.6450004184527445,-0.6215669302187431,0.6414805260645348,0.9655812099789601,0.19352238696891055,-0.1970865176601195,0.4180601569413224,-0.5962769338858651,0.9224321746506619,0.4434219630754255,0.19928693257410535,-0.8045981068111913,0.3395105972769819,-0.17104622890811252,0.6485352684742236,0.5446916787627432,0.9481425135452413,0.49568474107420657,-0.25312719157701197,-0.4518340011266025,-0.01379847857895236,0.7047414089454738,-0.1290502027821858,0.9721310847721134,0.23311404774002634,0.5724074186926454,-0.8124559009096811,-0.7207473971129993,-0.1899219195501169,0.8345234615464571,0.6173749695312577,0.9717573987598245,0.5436524903639349,0.18011877638278148,0.5837586334514839,-0.37170536332555626,0.9559184271464801,-0.21565209444175862,0.2515267590177122,0.6816623509891525,0.6824722346133592,0.3273213805153353,-0.7831770430892542,-0.2509100607071373,-0.6426013916573972,-0.4309621737399917,0.4139917553555556,0.8539939591273832,0.3716005163118886,-0.24721830663288763,0.2917965703532982,0.37295892969894473,0.1730007951419689,-0.08939172110393297,-0.15055925047270613,0.265386773317645,-0.4434821894402441,0.3769197091879327,0.5005077862747609,-0.46073123632970703,0.19546323405678126,0.8928389112878764,-0.11582655356654277,-0.10043031389526723,-0.44430757475404276,0.6704111894378759,0.24916851295786505,0.6568997031703072,0.2954599057810574,-0.1416387861412465,-0.33966026029061736,0.39431656443111684,0.0646182137859288,0.38247121384966754,-0.31704079401210544,0.7680930718503161,0.6280226869166551,-0.7812603619491215,0.3989810619304568,0.24050216180711617,-0.2973078698477815,0.7257966048382837,-0.17968584631877682,0.8598032510496053,0.17690340241026634,0.7711826748558691,0.387571982218185,0.4645966830780131,0.1355152002231829,0.8516765624981552,0.7374945324195319,0.29700344108261195,0.3049417452994143,-0.3222454969716887,0.9528449980196787,-0.41700230795545373,0.1553067693157688,-0.10347159624103108,0.2630477554209989,0.957133570605238,0.5264417159288866,0.40537513234589095,-0.19783905072898247,-0.027346262779097744,-0.09559426598809567,0.10492277272298041,0.4211063742288951,-0.5430313112205272,0.8647518094379658,0.41653023834286995,-0.9889449592060903,0.17576010188813893,-0.5148238301757834,0.594620371298666,0.7077239448055268,0.04289712575971696,0.6836668645092177,-0.7869518011672906,0.8260909589412502,-0.4465986852994087,0.11033121065378895,-0.7752032618257211,-0.42997145165824036,-0.1011932273857623,0.45541012311502804,0.014680691673182089,-0.6225166209239541,-0.26370216947100955,0.8851748994902637,-0.7357708079489886,0.24147194317784856,0.011854598916838387,0.9371026959166388,0.45294541171603214,-0.06673862107951574,-0.02209226286914045,0.3985314582642278,0.997263898872607,-0.20055374222106964,-0.9552839811658629,-0.08882861020684067,-0.07233811805876786,0.14746551942868444,0.8233274819425369,0.2119494017269145,0.2612364417779073,-0.595107269206097,0.1378280110737281,0.7705938187609029,-0.17973777485279893,-0.12196695443484638,-0.442781358997661,-0.04759447379552384,0.7311188906307766,0.8360362793257505,-0.08640211596985159,-0.22939467680220105,0.2325784075905708,0.5432677817866964,0.39009425941314113,0.8317193508676604,0.21544544080665848,0.9348401075381987,-0.743666161230817,0.718747804724781,0.5828880501751135,-0.7569001096562357,0.08391599975120975,0.19517574935527754,0.7561568646347987,-0.8532691340637227,-0.14003379820986636,0.7660497695014055,-0.6235514558767323,-0.08745996767858467,0.11773697626980204,-0.9098027811725262,-0.47247794663626025,-0.16755291583427523,0.4294199049301768,0.42393026708188186,-0.6525556623912827,0.8820835154693794],[-0.5062356259337659,-0.6583316583415635,0.00583066438922808,0.07371857987548935,0.9707839391856266,0.5082372912471613,-0.9881684213873654,0.1979084851742794,0.9207733693075446,0.27852173071132613,-0.3767239807827085,-0.6060960609098034,-0.3234104707710088,-0.8519138190703841,0.5264202422099444,0.9383702664969928,0.5462248312235989,-0.6279873676532013,-0.22998773215255186,-0.2725519984487974,0.5986144422121957,0.16883945848759963,-0.6089288191383333,0.8101099134798289,-0.2069254664377551,0.2776499108606547,-0.8696246531571941,0.6255193680243378,-0.10337288454351201,0.8279500707857927,-0.7937489735457559,-0.6440277415815974,0.8201582124928981,0.44770896075502886,0.7530960308547039,-0.20559341116578486,-0.3573595992508684,0.40627466794134875,0.6475705617915736,-0.600212387537295,0.6551215726070038,-0.20329049764517446,-0.608636028270568,0.07757425096279706,0.3699523742306274,0.6009747782045399,0.5020001985555542,-0.5716515921608297,0.917851213159156,0.18444132178901312,-0.36245502328280105,-0.8223993583518633,0.6318224891988602,-0.6066095938479865,-0.4835785323540054,0.6244975921552776,-0.8078893223909653,0.18132311133898904,0.36936977589096065,0.48261702591986255,-0.8138068950222467,0.7994855240024236,0.06560315519061095,0.33197626817609666,0.42889000789063797,0.6129865905121933,0.6175691077319786,-0.4327196186108384,0.16390886548220585,0.7057045158427852,-0.2805162977334782,0.09470987474498928,0.2501957432974764,-0.21124361463059665,0.2899213340207177,-0.21985417290283943,-0.7950071580005041,-0.5797580753456046,0.15469730052704295,-0.4558350208336816,-0.06425663515855447,0.0626479931392061,-0.8915457854635904,0.5248857203777804,-0.6265073111267729,0.6854820804309334,-0.19641217714183057,0.9904633309990838,0.6416874349240042,0.19884978609918677,0.0798341294407276,-0.8637137970780142,0.9735411775132684,0.07057457870709731,-0.21793588041040537,0.04069733807377516,-0.275355021419139,0.3061233158359804,0.16137102443392398,0.49038614149827897,-0.5538218821404239,-0.50513104341709,-0.18250940404348429,0.9323054853788901,0.35528077158674115,0.6814392120881142,0.14899161172607905,-0.5668751851202548,-0.6815783921795671,0.4553791632545079,0.3190622871149098,0.8002717391994123,-0.9610103171020019,0.7230997135534505,0.5818073917610467,-0.8133288928197603,-0.30752623270760654,0.43849119081537385,-0.39040227948650064,0.48150624695219135,0.2679926004828184,-0.5901142410017894,0.6127477601205233,0.5531761744200329,-0.37733150298737245,0.7073881624687725,0.3831727691449441,-0.4233982307527338,-0.27463861624929087,0.12773626489140225,0.023606725335544625,-0.5775255960213079,-0.48252500592677283,0.6813963221180126,-0.5518753736133467,0.2249778546614568,0.4552766597639454,-0.05133347755365037,-0.06529651198868622,-0.7077753139817191,-0.8104097149081504,-0.32868947758654343,0.013649233796312521,0.3799185333594621,-0.7516843609235198,-0.4433214686261469,-0.779889451297153,0.012678435804350071,0.08221748717665588,0.4668287632819423,0.054663975323025964,-0.8243035593163128,0.9936920275868082,0.7315513816749993,-0.015410429682341065,-0.2542756459172621,0.3886153170631658,0.410551623123718,0.3374162172251116,-0.22401714565282155,-0.7697912593582761,0.3097746186922485,0.8240257051762154,-0.7406494880109492,0.4449211499435476,-0.341632407152557,-0.6336618857044731,0.3987391200335131,0.4886002862656147,0.03749693307028901,0.39153764524142154,-0.4290498955769476,-0.13424953516461707,0.3171368086632283,-0.6519787848915622,-0.1638546115781888,0.1757133422831993,0.7398062648400017,-0.09890705765092617,0.5382671538120648,0.571166391211818,0.2952861015367788,0.9700126221727325,0.9592680468397807,-0.24526239367390795,0.11643995285276197,-0.017846864204763873,0.7945247651005513,0.4503541855334029,0.6688791502442484,0.8003757962811059,-0.16905329488757243,0.4516535195495384,0.12847732975077134,-0.42170196935024656,-0.8708690211475612,0.017611232439928026,0.025540764110031214,-0.872998115928899,0.82858964319909,-0.9648548013338545,-0.7889533109636634,0.7531712227875925,-0.35769298182388587,0.9637261810139903,0.2443497810152227,-0.8022310430823382,0.01629923137568024,0.028850109525625747,-0.15098036914548302,0.7188992921055848,-0.4650952839991498,-0.6546392141909837,0.04172926108659296,0.38658486646846946,0.0872140200004891,-0.05513918365650226,0.9166497360726784,0.4223564809282124,-0.9606200729511001,-0.5279828844107014,-0.33905915756270905,0.2584240673947651,-0.6796272789871121,0.3173494826465941,-0.8895944365356235,-0.8537821130197198,0.303996291421691,0.2463353883909074,0.8521835703092645,0.3766273700256215,0.7708061842465256,-0.2501256470836937,-0.5766586469197915,-0.985336803097733,0.6103503942953288,0.23966895326600385,-0.9294422877715697,-0.34563990159252583,0.7555572826992609,-0.2769648337103178,0.39360157920576716,0.3266126013138276,0.9969257372163444,0.9536010091441834,0.9700767259767338,0.5673627891122659,-0.6484762420367369,-0.3701973873502411,-0.0448843029346248,0.6431103266953316,-0.21703336447450447,0.7572956919127071,-0.3509943815787335,-0.5021062254245832,0.9563176547106848,0.8944215422494426,0.4481350547940489,-0.7467863558287448,0.05684866748220912,-0.33385781717923807,0.7236225271660414,0.6008149306879086,-0.3402592872514391,0.5126971588292148,-0.6793826994689383,0.19119933935934885,-0.08169505617132727,-0.5373803575826837,0.9650462560706788,0.12184157087977235,0.40816634686678,-0.39783554475092275,-0.09406123995587926,0.050181513419019524,-0.6975446882450841,-0.8729478006607377,0.08534507316015146,-0.9500345474842303,0.5948568761358385,-0.3405796002175254,-0.8326299229019369,-0.1886789720500577,-0.7668272926186632,0.4927152026528042,-0.6707783961451758,0.7848167453286828,-0.7355106324850915,0.1158621554901344,0.7020496609340802,-1.0498677975932726,-0.6904115793829381,-0.387177334651075,0.8248980376136323,-0.4041349360227242,-0.07248902627110017,-0.5207644938401704,-0.5038398698242073,0.11648739782012277,-0.7930617765942972,0.6554909760106992,0.5782686268238986,0.15796968602926342,0.42335339130243516,0.5917284960950612,0.1824307742624259,0.27454739182443577,0.0889806215254002,-0.42708602449522104,0.153882446935919,0.5635270666613911,-0.8496105085761807,-0.24480666458399292,0.5887193721911527,0.1836402492579503,-0.917175068547368,0.4106521457474185,-1.1109108398437022,0.878264622020931,-0.23207231443034376,0.6396948386523338,0.08259426425231414,-0.0817616821703646,0.2612935347664701,-0.4514689113528076,0.36356890856834984,-0.3877551220119899,-0.39598503058532236,-0.6057251195244716,0.8732973673072367,-0.9363510818370183,0.3628740026937465,0.4963306897981055,-0.04054148455193177,0.7333812014606754,0.06859304817167987,-0.49715183052271206,0.8687803074266367,-0.11791482450020206,-0.621940453095897,0.8899610116473774,0.5315012773294143,-0.8373168380386053,-0.042968602794230794,-0.46267488290127917,-0.9459490891546094,0.492612756164708,-0.9602242977308615,0.7082267184230697,0.41832538072228226,-0.43564609545967153,-0.9694188487810445,0.8155948163678648,-0.8517139568255674,-0.12135006524631216,-0.5009785574857274,-0.6616404672604341,0.5564422045058489,-0.44279154414016064,0.8973098094488191,0.8103121336785694,0.669620435986913,-0.2569579349831066,0.5887235938265716,0.8257781246605971,0.3381543362960681,-0.7610178526205721,0.6194469789394634,-0.30226267263846857,-0.9066078732347691,0.36930500292386714,0.8748526775162632,0.533208649440932,-0.6525647855748906,0.6044164168000341,0.670463837134206,-0.3218617908310878,0.5962842500526774,-0.8876796689757458,0.9067218919069666,-0.12385899272281359,0.4717922498816153,0.5391234538550392,-0.6715480695861281,0.5296480482389447,0.9108670691955023,-0.39204445366186513,0.3655679442364395,0.16583370804643288,-0.6447173720232967,0.8755060700580997,-0.14008719866707242,-0.7188730854718761,-0.638658282806987,0.12851960763566256,0.04582618090193422,-0.8234492178623097,0.8799435622782529,0.48582127733881925,0.1340175976493836,-0.9484331808829121,0.26874548158785544,0.6318477715684883,-0.8202492384963167,-0.09569622010308974,-0.30713760710841015,-0.6201690767005212,0.08950084164012391,-0.834376527552409,-0.472045319862757,-1.0107762691863778,-0.2649737635278527,-1.0129791522923732,-0.7044713253235156,0.7418029324797383,0.5155402043594784,0.3609599154725328,0.3711407774673732,-0.1393884452083404,0.8548484266433403,0.27460888063256084,-0.49313491815132016,0.03495256587530275,0.16079855317439443,-0.7927458221333914,-0.5693980236261288,-0.8871570815465321,0.3436519916258937,-0.02060815572448907,0.621245121979156,0.6527025691399392,-0.8047257494672876,0.2820609043454135,0.0072873481629632895,0.7754978658663705,-0.3122603974311784,-0.43690798618125987,0.2196609502184321,0.7789571910342621,0.5454336017302138,-0.9677620676256466,0.008906235915641497,-0.4722313908856157,0.47475826933517185,0.8599820587540496,0.8917856583158005,0.2847693009383209,0.9605552410759879,0.9795619582579604,-0.12217422449814609,-0.3540658185143229,0.021030392774348167,-0.7864760811670473,-0.7411533027234609,0.738448221940282,-0.8135745708223818,-0.5477756335255947,-0.011105895704498752,-0.706040065676137,0.8388935412353162,0.1686320534689176,-0.34325717990824184,-0.4734561808924173,-0.1181387184448046,-0.1450023649099512,-0.8694569375744967,-0.8999008151625074,0.3165624945859492,-0.5742795877080432,0.14178098721345442,0.5903348772995587,0.9440142536706654,-0.12528511488891445,0.43824693162431977,-0.2965286413825714,0.16394841525702608,-0.8103955189134959,0.6962068577462199,-0.9348858148974388,-0.3961892665593785,-0.3053891992590148,-0.2414209761547593,-0.3540582404876571,-0.585096563610941,-0.12944522052650706,-0.9321478938612465,0.35312404593305835,0.47316980037815015,0.034696178292642564,-0.7807339249962273,0.8048823602229064,-0.7814100227693964,0.3179301661452374,0.8828658432589607,-0.40582526125396384,0.24843593959786792,-0.6576520804200761,0.008391576329228564,0.14441711408647323,-0.888957497394996,-0.21905833626105167,-0.7249868840438034,-0.9167775009150283,-0.29715946626763273,0.5539351897449865,-0.9036432305085164,0.7216210207043171,0.463663250844037,-0.8935516368303864,1.0337613290536987,0.11106701817782023,0.8399564026469346,-0.49299928372621254,0.714801237122376,-0.47113736812705054,-0.009537049412642511,-0.6274626079537052,-0.8103619037907211,-0.6906520725675788,0.12563064354890982,0.3674566719925087,-0.8748720289341035,-0.2761340381345508,0.3517025245054118,-0.4950747227883667,0.8746597904379926,-0.11409927278173701,1.0120880961279066,-0.2294958212155853,0.11449926964030008,-0.8298434182707022,-0.3030514977328353,-0.36824938984880706,0.33658233563511564,0.9891715147283954,-0.33493039535296754,0.3477819083262137,-0.11077390527325492,-0.39542228400096074,0.8630391895036704,0.7239966697339472,0.4412777008787099,0.6640347631668658,0.7758400991843949,0.6454439449564976,0.7695822768320592,0.3736042777143921,-0.8047698136711305,-0.7681142051773279,0.06449228542965173,0.2825713636421842,-0.6029745016947966,0.7677849889266196,0.5413929890152653,-0.8779877219413399,-0.8479827200990101,-0.9392880219431411,-0.804432512116317,0.7451158072369981,-0.014869156338580342,0.09033705617041399,0.2852528272615886,0.5512206364212356,-0.41837512492526524,0.49437092595558585,-0.7115562111140531,0.6704938541195655,0.8777693927207291,0.790943385140682,-0.8032481163350295,0.5299289997075708,0.9724472583590759,-0.7434876904628246,-0.8542531232079843,0.8687212245590905,0.9436042587808218,-0.052264167309393164,-0.8636645214824307,0.11242310751180201,0.6053509022244845,0.5855360164844642,-0.37272782266114773,-0.23948702018703824,0.895463551673159,0.7885008117924504,0.9891139966269016,-0.9757833185493793,0.4604235251344167,-0.05833536306543596,0.3733443367312731,0.9155674831754336,-0.35243528036420546,0.21471113135745468,0.04031031158251228,-0.50861216999599,0.8370747776170472,-0.6197802560924085,-0.2586667843398033,-0.5877387248314861,-0.27095255362195064,-0.8952008404303898,-0.9435778034597209,0.7640889139911174,-0.37318645161039615,-0.6703382128971572,-0.04384922706753666,0.05075681640528835,-0.0572074411322727,-0.3056814778107171,-0.9215194241031966,0.1483927195703727,-0.03990124230590509,0.37847439957749507,0.4882758375180872,-0.459461411381678,-0.03570067551096656,0.3106261731543003,-0.4359744595235018,0.12973688574469247,-0.6848427421915262,0.029163366400041576,-0.7513457927023363,-0.8200951489970992,-0.29395302731986134,0.8226391783434799,-0.3374633029925361,-0.7559066924498234,-0.7199430672700738,-0.8391569446598011,0.16252072486093486,0.07867128698065463,-0.20819199376088743,0.46055460054470504,-0.16063030614303367,0.19502171352601871,0.13807646901442577,0.24020426849065749,0.9307832459737556,-0.8428889925489343,-0.9453408716660606,0.6620259793030009,-0.9830400706070328,-0.9694502510948019,0.9135174666430554,-0.3467272178489704,-0.7813637884818769,0.028149361121077594,0.19706274072717672,-0.5627841551570676,-0.11921555141886185,-0.6621992074247839,0.616886494493593,0.9712571683513959,-0.21942295301866258,-0.43522842675415124,-0.49024893747329695,0.49322443864705295,-0.319040138335049,-0.7655740709761049,0.3590657756554759,-0.018537117938395895,0.1621618653848596,0.4114297220251074,0.3640699732259356,0.3226967691055225,0.8827432985441248,0.9723462841103753,-0.39437498740398685,-0.9710091573976328,-0.12735931971593772,0.6470989613591556,0.5135582655472501,0.8949832635940389,-0.6054794776238368,-0.026328388309412087,-0.046064464344921466,0.27053972504999746,-0.5931154144232553,-0.7598030034252685,-0.27519365398856815,-0.41055631076804155,-0.37706592681612855,-0.10590389338342757,0.3659364157073667,0.8797775980707091,-0.38761694794422136,0.6905040009348656,-0.5166272881958117,0.08661741922984538,-0.8377946035593938,-0.974725465735577,-0.17150300842408694,0.8604457307001112,-0.21873889029067056,-0.9007905221255706,-0.2389950172584834,0.8705281216226685,-0.5949724607030316,-0.6245696724457739,-0.6726824843918413,-0.7447912159798165,0.07625162653035789,-0.08668497431826916,0.3014437596216949,-0.05627236846623763,0.8712356299694283,0.0696276693795531,0.27137431906267234,0.41829750719535275,0.6478298000979544,0.5794615267888619,-0.15034483718205124,0.040076325907384386,-0.990762548516365,-0.6385443083365804,0.9328242809143396,0.26653491878980884,0.6701571232940333,0.928946217165398,-0.23784592619710734,-0.9047985232998615,-0.6718031398492795,-0.04088809101029518,-0.7966211548516181,-0.5737749304555805,-0.45043363163406047,-0.6288074559223742,-0.45218606314306253,0.5976831066552313,-0.39415078696731776,0.45563393400107266,-0.38949817758276045,-0.628472237929567,0.9918414036980155,-0.7026598168187231,-0.15184388683290004,-0.14079355760704887,-0.8937847287484373,-0.47254383189160337,-0.10005865917107054,-0.45127356926373585,-0.6162990172849874,-0.025834318356367673,-0.08747431642688033,-0.4672763680701311,0.6560125396163118,-0.44336407532561856,0.4995106878743679,-0.3691202302842589,-0.17116773338777566,-0.9221833230606475,0.9741666805526369,0.824869297240197,0.7604068331408609,0.8845963421995906,-0.7549910403793492,-0.26829893532678684,0.06404514124218252,-0.08981355922027001,-0.0041853154362803124,-0.7446291042947744,-0.22643298574947665,0.3750020275783475,0.6785991405772623,0.03555193866028279,-0.3848611731197204,-0.22769978215106565,0.7200309641144726,-0.7601967007473002,-0.9381742625396996,0.48634905740302503,0.8921686689465202,0.14045539465452556,0.8715784394075582,-0.09361782459351717,-0.7848790811452194,0.8443469929658766,-0.2818456037133964,-0.7298092978309222,-0.5808679342613869,-0.39917150526905854,0.529377634183986,-0.38421279008960774,0.5173147461887444],[0.43149810644651376,0.456817104906063,0.4861742737461441,-0.8356561499705775,-0.6072500707005886,0.2807956978125459,-0.66071182969154,-0.631140075935499,-0.6405264936902557,0.3536171135152246,-0.28699568657769436,0.3652549616535521,0.056569683128188775,0.921249117783776,0.7011317418956557,0.6971516510585487,-0.7618763158380526,-0.8549712096910889,-0.46754687204541145,0.8095304231746221,-0.36191297873537653,-0.5291169784328162,0.7925943216350375,-0.9158692770180181,-0.8479764491693436,0.624615868794296,-0.5059800411306998,-0.27240832342563204,0.5965723230109581,0.8791652638099987,-0.08619182543879811,0.4262152192592916,-0.4334762683973312,0.9039666151645389,-0.5356591936681996,-0.10134077017571003,-0.5090757556351806,0.49986734785501397,0.6125571643682084,0.10332907750268694,-0.9681535663849203,-0.6572647159486629,0.8048052749262019,-0.9260676856788825,-0.8776749314714075,0.1639938350839755,-0.12192147626178709,-0.9210878141981396,0.7303200916037914,0.7144133272449764,0.8063909338010361,0.6274651030384127,-0.8980762414283578,-0.15319068624531829,0.5376943701301533,-0.9451955112578347,-0.6414339708066716,0.878985846779504,0.5815322613641283,0.3616384460148643,-0.8381556680463543,0.15599435530618144,-0.4977162058693254,0.7318845502022245,0.5879734569340817,-0.7757608137676276,0.522575466235603,-0.8207336746378633,-0.677251487252512,-0.8468045167688992,0.41000702366771047,-0.5316469824451487,-0.330806123507673,0.4868904033542389,-0.7008012402011317,-0.22183786394513968,0.37080296545610186,-0.5159350188361196,-0.10062345161758003,0.8291518239221111,0.478392935987333,0.008544406087695133,0.1319441020589598,-0.9705993959537689,-0.13381958194675203,0.7893418148906952,0.8392835564235663,0.5578145468714877,-0.3266626620763246,-0.003024143811822353,0.4174359701150472,0.8394652232546878,-0.8154777070714271,-0.4729062903976788,-0.782286300837636,-0.2328336178377587,-0.3356785059381887,0.3437196252811307,-0.2561139792417826,0.9067611086539269,-0.7389990638694511,0.24264839205165772,0.9603095536990564,-0.2868364559728056,0.21085911209513114,-0.3788664888795989,-0.6052993480135243,-0.9464629207733011,-0.6434164517870491,-0.4797965500212378,-0.9421893577354346,-0.8936321060863803,0.558876705772045,0.6441066492343452,0.9293789594038717,0.2294679318607271,-0.6678856892674714,-0.7309060083727064,-0.863313073061604,0.8144638477858888,0.8865502826777258,-0.23090401938629407,0.8103950404908169,-0.2608344295608762,0.9094295192339683,-0.22568924743780439,0.7460516995594386,0.23672783349107743,-0.6524271605715506,-0.03448070747265481,0.28310925889881694,0.03364166911107818,0.15879122138596605,-0.5785348865966321,0.7276572925958987,-0.40643098183628046,0.7920831056825846,-0.7108373719825389,0.8262613952678934,0.893196879457625,0.7190494012301984,-0.47747482662265117,-0.011086832045602074,-0.872334578928124,0.2677916349658184,-0.9295260296773625,0.47644807375863457,-1.036251943260934,0.832849853853373,0.20070585159195428,0.7220263908814472,0.8122530628301673,-0.9730145856246036,-0.913695037555102,-0.7694541602522673,0.38561974834050566,-0.4870927696075643,0.5875661649774155,0.9427851309315484,-0.05923114479616688,0.18377321678678327,-0.17087331445927778,0.7723609067254499,-0.02451733932469121,0.8426627767990933,-0.0517293644100837,-0.4941139426266867,0.1144886165600566,0.05411250196108952,-0.4312507505296499,-0.1256495847202449,0.06255578219037797,-0.7497704996164739,-0.7770919034482137,0.34485771049833747,-0.51332727004966,0.5698892208478574,0.07138192312480963,0.7877050892825154,0.013123194273248404,-0.4370634300271193,-0.568583016630787,0.6498642712222051,-0.37826318236084827,-0.7789091849671231,0.47059381324175353,0.7241380787923936,-0.13801469228908742,1.005950301899218,-0.7722390044545395,-0.362072100125796,0.5105261859623722,-0.2771065406570132,-0.8856123945506102,0.3032870734528628,-0.46165781597512984,-0.3185811120919424,0.3413590216364846,0.8785561182336808,0.048602322360161924,-0.2777927580930516,0.40393321729004666,0.8041769092463242,0.8714326018111613,-0.19410475285215367,0.22197675832644337,-0.6884215130953001,-0.16174350060858228,-0.8562609164539403,0.09886978271311232,-0.8524118538710191,-0.39884972718161255,0.4397071368578504,-0.35294172072440017,-0.23172923652448046,-0.7055460721289459,-0.6503652577961283,0.530685945353163,-0.9762309719016289,0.37008918800987234,-0.8640718484300544,0.044871160401948974,0.9432916358873773,-0.5573158492835377,0.5870514768619285,0.497112957564733,0.11397868957064385,-0.585967657705336,0.24191636292900007,0.06345425142986057,-0.1722562007052268,0.9146861135874357,0.04959979942062172,-0.11216871843823126,-0.05336646705234771,0.09339984742211667,0.18689731176777943,0.09520167476954366,0.7955574146044216,0.5978809721274703,0.8331090833162075,0.3331640333709744,-0.6370979549408883,-0.8071853024554093,-0.4130771692873143,-0.669821876870592,0.4809236123997463,0.37642306646902873,0.619958860791464,-0.2997666068592452,-0.8044721740172641,-0.9130415123319808,0.08861679284327437,0.24319792281107427,-0.21116836741662276,0.5917073605095349,0.432273522184858,0.18353719259170015,0.4784109640939812,0.6589377226175694,-0.898235023662686,0.4823393369472075,0.7636985990153597,-0.5391980885530292,0.4470919764597748,-0.4063052664492987,0.14293385319934332,0.4546743513985552,-0.568534371843125,-0.11831223828540834,0.49525165260032294,0.29332794943054,0.021607498180386236,-0.8947004463386755,0.5312696766733637,0.2803600361941025,-0.3779590350416238,0.24422190977402672,-0.01906619563553001,-0.6365986647791945,-0.2969765562906552,0.2550213452187384,0.43987596257143496,-0.8996599376566928,0.436831846523807,-0.6027482303721845,0.40081738060606803,-0.5901305046761259,0.6058143647479393,-0.7409991136005143,-0.7745405246516105,0.03709003178699781,0.1474583379024916,0.03447862955990253,0.8304595793481923,0.7958171533310332,-0.14655641263481867,0.1380101110050927,-0.06857268057231124,-0.11605769726405807,0.3695119794528232,-0.9605444694392924,-0.5589333825313929,0.11059165447114233,0.2719852544967245,0.44866324794065193,-0.048182973014682044,-0.7245853013648171,0.19015735653840382,0.921678441456463,0.06168726222637911,-0.27539564209220074,-0.3617119157974662,-0.9541308924094755,0.2691629778339591,0.6445549178292537,-0.06341539789575158,-0.12375348397103729,0.8883949929921745,0.2376182990252102,0.29969476650233584,-0.21141635949029933,-0.6360172244770779,-0.0656416475475429,-1.0103977741852075,0.6530816383166154,-0.18591684906664535,-0.531788890619346,0.3632579016516074,0.5695235388381005,-0.7501241647619206,0.7002987046570632,-0.4188830986637214,0.36403365062627085,-0.014618106668387133,0.5835860644299324,-0.28166700986184035,-0.799171718060976,-0.3221284121475321,-0.32684189642296235,-0.13149329612342348,-0.35707801852060356,0.620679540091828,-0.25198483722852716,0.5846550308059036,0.2617381004441842,-0.8331149397701075,-0.6695844467081651,0.7362610821282389,-0.7719848569232075,-0.5840613706147583,0.4039693278964702,0.8749798134290516,-0.6758692626075863,0.8942581844038253,-0.6778312116292305,0.6929975817895048,0.6653517564648146,0.8534821797269738,0.5475182488235047,-0.0608862594219989,0.14516301433166726,0.13299421012516366,0.6977794024900901,0.7405256243284328,0.24808060942414073,0.429966971878761,-0.284147001427974,0.31794135464197276,-0.016391490512223723,0.6710834495361537,-0.3005551956793066,0.7873868214999146,0.17615368905105946,-0.7101183344803977,-0.7463674770205722,-0.5969560122422108,0.2463243749852526,0.7785509408738691,0.20684039813407343,0.7006658327810025,0.02204902581183571,0.3872052408880598,0.07163274619152059,0.8729049480085923,0.8462837550707135,0.6199375190022914,0.3028440858844148,-0.3934529248504229,0.3356993112521232,-0.9964714854843494,0.17046219064116608,-0.750725378858387,-0.9292943274301043,-0.30708177964546607,-0.1814560074101855,-0.1006996438210563,0.5233511779240098,-0.02887962886976707,-0.042918294032747106,-0.606827210172079,-0.6905986066276546,-0.6977221352923543,-0.8171303863486193,-0.3061949151257147,-0.21031335865641024,-0.7940587518180273,0.18246384705813157,-0.8525405522069562,0.39278663223511057,-0.7890838125942019,-0.09708124032768928,0.681853780509994,0.6726787197182126,0.14684886666231328,-0.618722439020715,-0.6239298399495965,-0.183343228253655,0.9572531787008164,-0.1305375223272751,0.8526869946766529,0.33289664605843655,0.18421827481630812,0.10564821704417816,0.9232016623281072,-0.42327477013629344,-0.5587039901057107,-0.9310818072928256,-0.09296701282526608,0.6846881079134196,-0.426878451046636,0.4907199258872427,-0.4797295332104365,0.5162023543077282,0.4940777536351626,-0.8678110467759779,0.3194368635615655,-0.46786978274658186,0.9129349246831412,-0.2889974865352417,0.5282597389413828,0.8503694096701634,0.7236168381507464,-0.05278994853823805,0.729472488329202,-0.12442307061793421,-0.8291808375679638,-0.871956488599831,-0.1634844715166195,0.21889398989769698,0.4709838831428792,0.9442966130635205,-0.7486455848296089,0.42306747843252257,-0.3600723919768964,0.01722582156239051,0.33000348650268174,-0.9238407513155344,0.2603960517520626,-0.3699466486465872,0.4097813821250223,0.6703028851684468,0.7663846244016407,0.9512934965755238,-0.9102408768847847,0.9389221768159426,-0.6456657056873379,-0.34401363977787036,-0.29356332726000506,-0.8420094386572944,-0.9437297974893171,0.2565006815850975,0.5746281765486814,0.7244655281990693,-1.004591873458998,-0.9261262823364627,-0.28431527049475136,0.5208494671613753,0.7846808509846342,0.4840498341748141,0.9027803776721425,-0.5085186547616553,-0.8106957209170792,-0.4543615078085299,-0.31458298960724823,-0.8295398668778728,0.07751199085498843,0.14316248299263523,-0.6528400696864174,-0.9483894636580312,0.011935278805090483,0.8662679106302102,-0.2883729971463852,0.07267817865573542,0.4035649554688788,0.5998234373425242,-0.8350680690169686,-0.08873856695662233,0.26174284999775177,-0.6378106028378934,0.5546129181709484,0.9803304933491037,0.04329970177298693,0.7043017581702985,0.17675323310145963,-0.2966539551531426,-0.9936740471205254,0.6883559096209935,-0.856264272168542,-0.9863064770138228,-0.6051879286799504,-0.14475911997291485,-0.32617338398025797,0.6291514986559921,0.6705082574998449,0.7630620395451003,-0.7429654495729069,-0.40106310479215845,-0.9295582590283255,-0.36949804159127864,-0.5159816921349853,-0.041616294654520165,0.7808271542380704,-0.039018876586026034,0.648999057002041,-0.5577402163834426,0.6651415769440082,0.46077996883863503,-0.7585776172012058,0.8291272763946943,-0.40231585338834425,0.40108314756570496,-0.9540555532750115,0.08054238275600722,-0.6280162272257618,0.9972856286019869,-0.48856559040282344,-0.7902751871237955,-0.6751102747346948,-0.017123257817276593,-0.501293911426353,-0.06368153382561365,0.28731788874907194,0.2901088892427007,0.9928221959259307,-0.1864337735105537,-0.2977640742676295,-0.6852044551460009,0.22269313962831466,-0.27934454343035003,-0.8156209943957515,0.2816324710260713,-0.31115619624751384,-0.38748521600727287,-0.2279029826076522,-0.2690273204169758,0.9738073787699323,0.8689355833929704,0.21558386605878763,0.8079330607363227,0.4725512868909889,0.8333729662626139,-0.4281835797130601,-0.6171460163528182,-0.7561370716142685,-0.8090897988946782,0.4931190056916238,-0.12637354354106686,-0.5992041485425411,-0.48682208176464925,-0.3472345823459192,-0.20398941986382949,0.963956176315006,1.0542808977834168,-0.22873095528286078,-0.04738139845797476,0.4498263351819154,0.3796055961640487,0.9200226586621952,-0.973587740351205,-0.2812341952074499,0.36943719811579134,-0.4353645230764001,-0.35494627601391576,-0.6356565961565448,0.46739750791801654,0.3586916037027204,0.5954033264142908,0.5385951166903098,0.25457836420519653,0.5420813973655249,-0.1908560027466447,0.4609572323420857,0.16777752410719227,0.9542860537439247,-0.192842673445907,0.5003772570303607,-0.32006496858723676,0.6865563743106616,0.09557495786514295,0.6863386937435884,0.5635809758072499,0.5349946524446119,0.16486557012578573,0.21903230119647596,0.026182134251332853,-1.0066865555333941,-0.3125630600729246,-0.7292011441563467,-0.16305580476814385,0.23339954802560003,0.011855228299552495,-0.25403025956520486,0.730590233716522,0.3497595019180866,-0.8848370348169969,-0.22298318047455146,-0.5274628831946426,-0.05064023538083806,0.7308025672282888,-0.754072882550629,0.21800870862373697,0.3108673824856737,0.9415412664806344,0.661916879255085,-0.7804045258668608,0.4153469179731167,-0.5082089276599618,-0.4736493887611197,0.9107870815775485,-0.17974879992230283,-0.6393752491434912,0.530929739564768,-0.9865245411432735,-0.26306539792396316,-0.3837456729595147,0.013465706647752013,0.5825474522754961,0.6327564147124267,-0.5461752078512746,0.7182213279851813,0.748974175460591,0.8830940082992965,0.2220889452628696,0.9124251843109779,0.3970863469466783,0.19838130871511064,0.38636578119051357,-0.23935647604225516,0.02384531209158892,-0.8796531955139548,-0.6370876631865909,0.5596313669066842,-0.0635288906077497,0.6829777999963278,-0.4006688700700126,-0.4791011062731354,0.1193653305182816,-0.8598831360265865,0.05386826123654992,-0.6727207963943098,0.1375796133954328,-0.6336258526111085,0.5696403757938043,0.4861204313987359,0.4232871667986784,0.7535460527993423,-0.8049431288286693,-0.1305852850046647,-0.37567554138584075,-0.5646081243754056,-0.06080412826869308,-0.6702161760966816,-0.1834566972938747,0.6277224001649264,0.5371911094768164,0.3481377270508254,0.7170783674572172,-0.8299640577098415,-0.9089705694483301,0.85658812989665,-0.12766172451674465,0.43294686242362085,0.7295650475775789,-0.39947069561421106,0.9183386152376931,0.0023834171474552903,0.44899436631357675,-0.8269518281105241,-0.7535573847684881,-0.697919249954617,-0.221689648588007,0.10461176215778542,-0.35603824861901057,0.2225149748047806,0.5624619644358579,0.83883133803346,0.17502870152702535,-0.7931505670469443,0.24686052232657874,0.17845250964774229,-0.09473717718705021,0.8317585135784542,-0.650544440694284,-0.42174354398560604,0.43126938556302924,0.45642530084922095,-0.7701729185677653,-0.7955507868398083,-0.04744787308300205,0.7374290965441618,-0.2310169730819528,-0.7775549906388954,0.2591259277870684,0.9347990757787522,0.939980926742777,-0.9026576752305017,-0.5303698364373343,0.6957333017022695,0.26508796220198505,-0.19020109591222145,-0.03777907088750858,0.7407074604664177,0.9955184568175299,0.3261443218002473,0.12385984696278962,-0.24387353036622672,-0.41988977293985563,0.8376206771899755,0.02988937743452924,-0.8205453175027144,0.8979338338319189,-0.5735255912345586,0.6827190550225993,-0.484833316781287,0.8564994027247838,-0.09688266493966365,-0.4859810267905311,-0.17900641348044724,0.5858208862602716,0.1536421177684668,0.2664315378503995,0.03970515807175203,0.21342260658629866,0.08160184791499607,0.9025341577692457,-0.35582638280855333,0.6248621027659466,0.31432623379854946,-0.4408963880902158,-0.8290592105460245,-0.1380805073710261,0.9597655547346915,-0.2924545276021804,-0.8603475823431128,-0.5364204792774725,0.08280935900929709,-0.4962742461734635,0.31494197500812504,0.6051340451210381,-0.7500015545127092,-0.11931423518985575,0.07480056409432743,0.7445687835973576,-0.8770049508892162,-0.9199382601657958,-0.4816115979014442,0.5465410785103758,0.2305649256899589,-0.3082572203288882,-0.2094035327780848,0.3513261448449943,0.18915887678694204,0.05460195997498115,-0.7582514416491601,-0.33635361225210886,0.8223307181315161,0.29704811128680014,-0.16516234105045752,-0.25510130776102624,-0.8847085877656897,0.733957421425437,-0.7530982972471159,-0.7017739077417038],[0.7280611736031699,-0.9326675054490701,0.5929675384302975,0.6079392569683972,0.44381946229885383,0.15326402197379752,-0.21074192380442547,-0.579207000072536,-0.9829727830684498,-0.5824913955236917,0.126371301193704,0.507525538715655,0.05565949508136381,-0.889671972056588,-0.7253435457556789,0.16831892049100539,0.5981872645481552,0.5035293197442119,0.5904480884238925,0.9220566729986448,-0.5917768386769842,-0.4674745738268231,0.3299891597864435,0.6167319127334259,-0.7221438220112879,0.8560922154783901,0.15275916227754793,0.23985359134633644,-0.47235004724610485,-0.5073077956570549,0.47551220681331463,0.8938690290344966,0.851533564072998,-0.0151986176180392,0.3383482040235686,-0.4311254620485505,-0.07383226595783843,0.5159847928053916,-0.8994657784886195,-0.2036177280913943,0.8404095572369478,-0.23042356493250152,-0.7078975990842301,0.22101312597414768,-0.5788463224381245,-0.79551478051421,-0.9366444119948111,-0.2996033795154328,0.5995210500938402,-0.14932063844917062,0.774349712535876,-0.42413451557468757,-0.9717677447817565,-0.7962087837553695,0.8705718432543228,0.8501701593965545,0.8963868478323582,0.8140087038038528,-0.2024885447700977,0.3615062538306737,-0.48863643780475996,0.8631426371690558,0.7147045813342114,0.18440038637990872,0.8089407007909682,-0.032416427760923586,0.9047301132429806,-0.14482528323666263,-0.019932217217601834,-0.5726341177837049,-0.09202090143352379,0.6942219643835158,-0.27796863087037443,-0.4430846996370701,-0.3469776544786348,-0.6929125016786215,0.5665508630056841,0.6527992012403548,-0.8222329925941658,0.04616339606667875,-0.1142892848802156,-0.5819312676656656,0.9833268458087643,-0.3784240411431363,-0.27680756266769047,0.6104621563492136,-0.12456133706983818,-0.27089360030816056,0.4577113894714514,0.9615882948066297,0.5141033000137011,-0.6201800894668565,-0.921658818483167,0.40213549127223824,-0.1208815609493984,-0.6302129600434153,0.6679130083728209,-0.34462503101419006,0.05676407988092343,0.0063267928398064305,0.49390443650004046,-0.5352566985423111,-1.0224370430840946,0.5571961171309062,-0.866081458793727,0.15302782167515513,-0.6852776226844246,0.26166562186143116,0.0450570537108852,-0.8862917028723389,-0.6171580010833306,-0.5744452383750773,0.5336148172686608,-0.16495332788554817,0.2421417686324161,-0.36317986985667744,-0.2305881036087608,0.33610831283666276,-0.32979637609926,-0.9490682652450201,-0.24055613794244457,0.30396751232734054,-0.5446132262577713,-0.4379165170237446,0.28384237140426843,0.8102362057109429,-0.7283109693386322,0.5183945171254628,-0.22963946281704328,-0.49023739967602015,-0.2111635026810508,-0.017345607324656474,-0.6234243046600388,0.4171499608068649,0.42542349969757587,0.15888618119077758,0.05000331575228479,0.9074273652327307,-0.31464124103670554,0.18905430628314157,0.7457723775811185,0.2319817198082097,0.9281041939801403,-0.9466183562008568,0.03206557604768963,0.48734845763813045,-0.0653718514734456,0.4096279927448133,0.1943602051863641,-0.9528351891006572,0.5026375983625603,-0.02665420055326108,0.16919750754657695,-0.9436921742512326,-0.33848321234798345,-0.06271045374122572,0.11097908821868878,0.6217891668388994,0.4665973936029576,-0.21304338647487378,0.15156418728510554,0.636542962093412,-0.004050541115781973,0.6614880284321263,-0.6081205862553949,-0.42553808741260596,0.9092197097348617,0.2871225704651174,0.01247020184605363,-0.9292709416093392,0.3421134483974061,0.03849654256057613,-0.9601775964708112,-0.780413177721208,-0.24447525740856968,-0.974931125584684,-0.08801998496230262,0.5225052180631999,0.11177448489853546,0.18579746240068618,0.48833332555662784,0.43213032340849794,0.33412159045015516,-1.0539061426085152,-0.7334760313603087,-0.3840739843592457,0.6209807750289821,0.6737194003511842,0.7600270740059315,0.4114458665856166,0.3028146293832166,0.7383458573429965,0.5735291591000646,-0.27166982773428194,-0.7711270854649998,-0.10935526819782182,-0.6085033268007354,-0.9508059187788703,0.6517764627902686,0.8083086388858133,-0.9410936478256919,0.48695542840142625,0.6281856687838113,0.8798726635437993,0.75673210796111,-0.9697023658770253,0.3138059733509522,-0.7282976836898343,-0.7502639010902881,0.12500039397986412,-0.6674832685286989,0.46069690534996544,0.013465812292695471,0.5167300248695164,0.35614935768638994,0.308716270167813,0.9683829135719244,-0.6511416101765678,-0.05913296477887561,-0.3011944863904987,0.8595900688238001,-0.840250618458502,0.4692360946456235,0.4441266932959254,0.9757360863577736,-0.9038782217913842,-0.9388142318221592,-0.26540595148083773,0.9460041502786172,0.14369126866667342,-0.059817482916501255,0.526675335034893,0.9818956865416189,-0.5039151873147999,-0.048169773962925086,0.2525988937732243,-0.8041236437593842,0.3019722249723751,0.31776868905994987,0.005853658045870523,0.5202799744696478,0.8082698310798587,-0.6003316329221897,-0.3809694191969922,-0.13997640327797198,-0.42646452357900916,0.9372449675987311,0.9165541802699039,0.37990122355125905,0.4315066934521699,-0.5176522506147626,-0.4415313714925884,0.8350399412150348,-0.2341905756898627,0.1617168681199908,-0.8670709074100802,-0.21797073467946443,0.6977887612223601,0.6231893815696751,0.25426554849093413,-0.22942654017665368,-0.7584783154143534,-0.9775557133668898,-0.6532344360966866,-1.0333586876602918,-0.7314905573236228,0.0042952551166304,-0.89934928196033,0.9208181046229558,-0.16135698074292426,0.6512348858459446,-0.7607782189175853,-0.22100938265244358,-0.5269549998935891,-0.36844963521480645,0.28838788370176766,0.5530761499175878,0.42084499969909855,-0.9917198302572732,-0.02063734580606191,0.5963498801092459,-0.0001633639810055485,-0.859404268556333,-0.8628265984296414,-0.645360687533958,-0.391447331748824,0.2555109599676354,0.5730709682785337,0.2559234887404779,-0.5338726348051615,-0.9031434567279801,0.5572934849159371,0.30515777996877513,-0.9779788346218029,0.763188235980245,0.5196729968569902,-0.15354395211808408,-0.7416593974805683,-0.37599416939176183,0.34988591357546406,0.6429122340081601,0.36669309546372153,-0.5352454444320722,0.3571889279118523,0.4718818065581165,-0.09513608182194112,-0.8283297415248191,-0.5098072370755391,0.1977073420398736,0.5869212186700976,0.8348670218838726,-0.86273653730545,0.7885369461012657,-0.2958760351922773,0.20088011283467547,0.5009538620513411,-0.4009746828907681,-0.7737399224151823,0.7757938381720444,0.8858815344985925,-0.057338753526093196,0.9346320255072663,-0.4572904686545502,-0.5523950463649296,0.780691329831682,0.9250075974956415,-0.42371763557066805,0.3237464978313682,-1.102770295998445,-0.6824760007952437,-0.8888337286276037,-0.1361670365790634,0.5187286931454502,-0.34963702619967246,-0.7500503535174516,0.11695132054764783,-0.22619631412310381,-0.7722214949901633,-0.08598010984576683,-0.34414699526144926,0.39091585838231363,0.47183653915203816,0.21542846900003404,-0.39267734637600044,-0.7188328042411716,-0.7994755361741375,-0.4455037130077556,0.48282055480700414,-0.6450479273912337,0.5706626753374805,-0.5869159600920133,-0.5121795866306995,0.5688201540687844,-0.6563803410694626,0.04898173242127066,0.3698931449293474,-0.9104132333053064,0.32549794521608166,-0.5228362160759242,0.04725076961413696,-0.8222903081162776,0.22532944258555804,-0.8354996089409289,0.9325940155467571,0.793254144484405,-0.23267586581776992,-0.3450671270330737,-0.4759200973648063,0.1944533840787516,-0.6496723026443958,-0.33762637195909795,-0.2597008685316467,-0.8002390246770538,-0.05400929745917045,0.11100465773597643,-0.2589546611273561,0.06021238273388949,0.49139583472129655,-0.26172619120641455,-0.6677112717736451,-0.9576828599944217,-0.37328961391650745,0.7722575116805601,0.768100630821317,-0.8398164878936468,-0.6665401139572952,0.2212254249579855,-1.008028291218457,-0.6178873870953877,-0.4150669445390956,0.7827136971146953,0.10672429443198661,-0.717059063076519,0.3905167823670867,-0.5080289282681688,0.3081567057379475,0.22042235416344733,-0.19431116305159304,0.6199125845379536,0.17458318197214512,0.7824482805034384,-0.27249348167177107,-0.14164752682474946,0.10773003081702005,-0.0012780632446597942,-0.7537027346606648,-0.0860724037780614,0.34048717629970227,-0.7754856963051201,0.5452900379258331,-0.08536158180249491,-0.10378661248262142,-0.5809735849877153,-0.048383243675576594,0.4151604283458791,0.43167380284962587,0.35074115087918795,0.17887626889286093,-0.09682703413127867,-0.6260097516563938,-0.6909307280666632,-0.6579115058394853,0.7763292498691855,0.9835354555087026,0.37854613595549597,0.8502641942883757,0.7899335012186592,-0.9829338810116524,-0.20244102607759148,-0.30281689968495673,-0.9029791190429919,-0.04734180874971068,0.8756654598496848,0.22797141930015133,-0.41180811453380284,-0.7339681300716391,0.6926196525190187,-0.21957546960561355,0.8864087115669842,0.6513271400982187,0.8346872316307156,-0.16458899224731058,-0.062480948318040345,0.2572655477806707,0.15845413732754826,-0.43835397470006904,-0.5908835343094507,-0.7132828727158987,-0.6296529178196497,0.1952104916393761,-0.4992209067847264,0.6137164425018617,-0.4317086065890123,0.020548216948178127,0.9406558275926638,-0.29295231061683924,0.8534243436082233,-0.5668587863399636,-0.5351588044907283,-0.29221275926378976,0.009757353344756187,-0.08877714991826409,0.9519462706992543,-0.05961082606853837,0.6559873143543098,0.1449063286777908,0.7440920992067934,0.5753246958391073,-0.18310530912056153,0.07506965775808054,0.8936300204466076,-0.24162620276167895,-0.4288798430357636,-0.6578135322719235,0.7498364326048617,0.6228408914201712,0.8956422532423995,-0.7371974327133082,0.6980223223971911,-0.8783544071375134,0.6070749980087119,0.7564819666903231,-0.5922987353285951,0.4267645828290694,0.8703082501481478,0.00923105305423079,-0.561823924964066,0.08740551399341,0.9700145707106644,-0.4192432464393124,0.8888400043165486,0.8254273259931904,-0.6631344028022381,0.03703698790483961,-0.11806313814494271,0.17966112537235795,-0.24233570149584385,-0.8846109036402029,0.13049783637389306,-0.8934657142698822,-0.5235937170273869,0.8195346066650283,-0.5621299801775556,0.6828763269782243,0.22934233872941245,-0.7329993509271095,-0.7787703878880443,0.5306932956673559,0.08668902910126716,-0.5948587387944806,-0.06996950507823965,-0.38539045459498494,-0.04611909532325321,-0.0535517996917346,-0.11922559472945357,0.28721743001248584,0.5815198252508875,0.0308215255936176,0.27496430114106296,-0.1170724271284701,0.37278321650031576,0.5817833764577488,0.9334452765232258,-0.918909465621341,-0.6046402206819524,0.9768961874731965,-0.6433728995891113,-0.4422234565370956,0.707388067769313,0.21881050836629232,-0.8593158122314404,-0.86793549984002,0.3074442505939081,0.9572742704572628,0.5853042391868439,-0.7133912426924801,-0.7771449244210415,0.28882205635722,0.39367091593439096,0.7966232967369837,-0.22389480467214593,-0.4229813304189488,-0.8290142389298066,0.2794805910220221,0.8852633581084645,-0.1789377159842797,0.6691335735657523,0.6859837386290045,-0.35768572940672666,0.5914099405932072,0.7279749873964123,-0.01755323149993268,0.7734004289156421,0.5981831134272738,-0.2881417305733122,0.27555332824906364,0.4583767966406537,0.23145534670329618,-0.2268244923675428,-0.8878512362719266,0.5993439259039008,0.6142482944286216,0.9856851671643155,-0.4852361324921297,0.5141591571369525,-0.29800249204244633,-0.6604833018813664,0.9587597228489352,0.8998320213422586,-0.9614894290746799,-0.060298058921286424,-0.1177242310790164,-0.6560902585089006,-0.44183409927217066,0.31381806600218054,0.9499984261705186,0.3535103095054081,0.8814482682458565,0.20356342888287135,0.7873479356677693,0.22435746227219713,-0.20526088546406704,0.15501230375686215,-0.5803137779769095,0.17454045622010209,0.6577808632327982,-0.19809292683747143,0.6309922209869021,0.5787461963583245,0.9558761191088506,0.45574418338229306,-0.9285681186282697,0.41418964740377745,0.5450303532653568,0.7111332825228456,0.9309186195632669,0.40101677550740666,0.790058010376032,0.29391491523288193,-0.7506637334246581,-0.167187586858643,-0.629328118835325,0.6296817800927368,-0.6378659249827306,0.6801150889406447,0.504264250334038,-0.7710762955821236,0.4399736956933626,0.6410682530803063,-0.06319735902386399,-0.08333149977874495,-0.8777736892236649,-0.26858229135982264,0.16489377442695463,0.6165265661011791,-0.9536089021699334,0.7048335235536323,-0.6497147203715108,0.7281844114309454,0.18285605147982956,0.6167727975319327,0.09022548780160457,0.32915853715265003,-0.23841721017592707,0.4427049869053416,0.1485751143709919,-0.6028128934382606,0.40007541792062734,-0.8481480325001542,0.14303349849473115,0.16599646458797143,0.20080170696612093,-0.5783099508260087,0.8248518622222399,0.15734237598912051,0.9967272298457707,-0.027004969794488475,0.7409437050474607,0.9911205830986557,0.07167367894694315,-0.3238789012001728,-0.3296625081054942,-0.1890276949033456,0.20962707037031025,0.8141551213353329,0.7577921320785075,0.3159731731277701,-0.30920267958171554,-0.027416793735996717,-0.516896038839205,-0.7919768383408852,-0.23009339114119962,-0.6758465945358865,0.5916107835080157,-0.9467774725801013,-0.5974654375809964,-0.3432927302930879,0.8353207243812497,0.5371373334502509,-0.37413401990532963,-0.9478110673020936,-0.7279168564660361,-0.657967702958519,0.049302263964168834,-0.32689885723110357,-0.8184979276980836,-0.6617652708714433,-0.4713828599765986,0.4997684467978837,0.6740194137135436,0.9609238596492358,0.24549000321406478,0.027485823343104343,-0.12491764415545781,-0.49938065971162393,-0.7378204712989105,0.5267261514614164,-0.2976794964858429,-0.8520646079305106,-0.8142017106738918,0.43331903894625373,0.6253321308559923,-0.3164548869552288,-0.26933893856236707,-0.3389405816066113,0.4527456071286974,-0.41543277331364914,-0.5046983439655512,0.7920078456144589,0.8696663827349724,0.38998632908269054,0.08462719920300957,0.9828665474876279,-0.9869233313985658,0.22184679426732762,-0.2510327649132965,-0.5111152837951534,-0.42948819187452814,0.13704202140660993,-0.8626070533832375,0.466733272773725,0.0950444098626031,-0.3527361403173317,-0.5019202655300861,-0.6309161367393932,-0.009555030475757821,-0.3036866912913364,0.16664141638917446,-0.6750316364019531,-0.3465473534466533,-0.23617154134301818,-0.17189115304841218,-0.7142557509207595,-0.30298187123188813,-1.0329577628143736,-0.2932281961524989,-0.6091622914026075,0.3044079201152053,0.6377841399810799,-0.8654148034644097,0.9094618937652416,-0.4531414394027669,-0.8022898479675803,0.8878827084670534,-0.9090525092455827,0.7638240119275062,-0.7597315417142871,-0.7053864349709911,-0.8808550348448776,0.09971657973926407,-0.5356081193791669,-0.5140022307540674,-0.0603586160542316,-0.9448438074760598,-0.7190565883580908,-0.13820296803825183,-0.7594290876303884,-0.14231093229954253,0.35398266886011553,0.8976253148463836,0.7665905777662656,-0.14308723660429787,-0.2261759628038702,0.6251459615123298,-0.31558348894605776,-0.7982442143434587,0.47086163870713926,0.5440191906422729,-0.5412903149943955,-0.34517474299561834,-0.4749838103066544,0.15648722781663613,-0.5883519914845703,0.23961025296212135,0.7926181102510843,-0.550747809589045,-0.2241938712817122,-0.574768918910872,0.14359373529817798,0.43146516681982394,-0.3347641374078907,0.6295244524630295,-0.3881122617894724,-0.3610960414301122,0.027846087846549683,-0.7033428760414212,0.05502581177817511,-0.23822507023859676,0.1964247636578299,-0.28634263451319314,-0.29732919240885075,-0.34883512123530064,-0.8573344073520355,-0.4298182035877369,-0.9865589487922398,0.4274554940941456,0.4280068686344158,0.0758568703613534,0.7233729533417899,-0.48685095779856136,-0.9171179312892224,0.6494082437523852,0.13378102389103885,0.027158678952176274],[-0.7757135306538969,0.17853726453458174,-0.18596556562569777,0.4888914231979844,0.2493835178106374,-0.40320791573486314,-0.0380311825656352,-0.4625998851407642,-0.7703458941064687,0.01840087395273926,0.44225171920061257,-0.9712802829006542,0.34845712005610396,0.4890070125719572,0.07260813869206206,-0.7821490352566727,0.9913943822611042,-0.499346102523881,0.45535421811741994,0.2568596254454141,0.07145037087523853,-0.44571842326272515,-0.5728323520345109,0.6152822362435932,-0.6522875233300862,-0.5897117045082565,0.8218750815967142,0.3478351693586643,0.31702850492249235,0.7232985128820055,-0.5500950090675083,-0.12303219245406849,0.32315608909650706,0.6058497620443628,-0.0968923351886759,-0.11201052391445061,-0.3587092555178777,0.35998811816707643,0.3772736213458852,-0.573552804101586,0.3858435729306386,-0.8593225150723772,-0.04770300432282674,0.35586584013545974,-0.6955776506050837,0.02537404316243635,-0.650160248317254,0.7783303730712988,-0.630689284282582,0.4275228530036417,-0.7767831251130255,-0.21836756836304477,-0.38701266893843034,0.8697916913497368,-0.7668846277888095,0.36253961631210574,-0.002039242490359694,0.7078855142500764,0.0705187731664898,0.4794444877315196,-0.32831828978147126,0.885891687988879,0.9641006950321396,-0.8268798161439308,0.7541250193846718,0.6896228894434068,0.8801376493491762,0.07787774065940282,0.4616510578937592,0.8385390415403144,-0.8205175798545435,0.2869499745413605,-0.7238713702953964,-0.17272638281672612,0.3357271695687262,-0.5592348861812737,-0.04848553953811569,0.4953240455892025,0.8945792966198183,0.06597335324456531,0.7634232502852486,0.9154395134163926,0.269658019828527,0.8418626155879112,-0.5601321598089384,0.35115730714961524,-0.48131612794759704,0.8905046278777347,0.9802340552871192,0.6159062820386648,-0.41864260887140126,0.248240269946678,-0.8083172559181071,-0.05822838014886498,0.03593339399623625,-0.861069449798188,0.08408762054156652,-0.2577575054531377,0.5293477055580801,-0.9652182883291032,0.23509761011135225,-0.8580641582164499,0.9667349390774833,0.269169743958725,0.9222418781476612,-0.7812236122635442,-0.6446165690141308,0.0983202899028229,-0.9182062598623337,-0.342438025291691,0.5714730243769934,-0.8691397776830865,-0.2074628504061633,0.4964277243528725,0.4517925709335695,-0.9585050610876266,-0.6397698847105118,0.13672626860841527,0.3170730011762081,0.031914665241355215,0.6025012146121776,-0.8612443502699721,-0.7651273564090055,-0.1436925115085782,0.08997724180784299,0.5594019849381094,0.2882432181578265,-0.7708470001783576,-0.8696329946707162,-0.9574887032188631,-0.5178143806914097,0.8041344539321018,0.12813471800675286,0.7929805214210994,0.3461133761441356,-0.35423910543241854,0.24930846797031908,0.9207422223215225,0.9766990116472095,-0.6209105891070328,0.22938449761715107,-0.28546453389645965,-0.5473234472565407,0.8651054942901472,0.01549263072294911,-0.04858422277212917,-0.4735125437437119,-0.26844002230941816,-0.47744002547026787,0.6336648811601532,0.8260670421131252,0.42226006774349395,0.8444896513903243,0.2046336860115451,-0.05776379893842882,-0.052363671005540555,-0.3881085568492635,0.2859901030329862,-0.7668311515518188,-0.24356776122861326,-0.7335226556740366,0.2036860803865181,0.011673244604225612,0.7806559684726223,-0.8412383421387715,0.013467293718927947,-0.18337922640188203,-0.41063326399660643,0.6929237799167347,-0.8918312507710717,0.29258852694434906,0.27205105623280035,-0.28111916127365805,0.9637713746846469,-0.19393467865728636,-0.4478869711637759,-0.6518209529432372,-0.05504552556885707,-0.13977115727785192,-0.6520690879029278,0.5842132451096451,-0.3543928289734336,0.2919346026682988,0.7444087521696428,-0.48329540506741614,0.9366338904102786,0.09732998023138013,-0.2943561441544775,0.41792665482981073,-0.2862319638348391,-0.0683255067168086,-0.696879750844187,0.0044457728382213445,-0.5706258163725719,-0.14483667077120563,-0.5036091160700442,-0.3257560314911882,0.8409989450800597,0.700602507978114,0.16775407906306716,-0.18589089808613626,0.7200130518683601,0.7091647008221953,-0.8982216560096908,-0.49323413354530576,-0.05328535728928394,-0.050158819930716886,0.5601102792569085,0.431569090033924,-0.2696751708537146,0.6216231215041139,-0.12911602475845674,-0.4292873572783125,0.6134476142066293,-0.010222488039447319,0.10742699685420673,0.19114451877164074,0.35176401094847115,0.19615415923845764,-0.4155365274370883,0.08093257440008453,-0.9843432077792854,0.35978444864188025,0.3214861513238664,0.3919945598674879,0.43629372404169736,0.29330802164959785,-0.7410659984368096,-0.7551320666464191,0.7081457662790528,-0.3641147521915272,-0.23408868667082788,0.8870914880701514,0.8338445895519347,0.790964427427507,-0.3253852582043241,-0.9505270341712232,-0.5500188477798192,0.4803414967640878,-0.34389658749388097,0.9226094034018302,-0.6300404057792877,0.10741765117819538,0.5305854497929162,-0.4347081451037343,0.6009224916276197,-0.9947078003989986,-0.6298638417729282,-0.1113714300739287,0.49085479640998253,-0.6212133338308968,0.4794375468138014,-0.01646326932939423,-0.6585440960911111,0.49303593388230643,-0.974615976107278,0.30309870403361966,0.6615194183431717,-0.34925629370267974,-0.3309993058800928,0.3271595199325053,0.8598605495835889,-0.01026395342841286,-0.41322544138853357,0.19954824926454226,0.08066991406557147,0.978356735355733,-0.20989020209671838,0.31464822450121255,0.12139360369567939,0.13499857130301476,0.35555733058702793,-0.7629484077338047,0.4569788052149845,0.005757951825163774,-0.8613157787552228,-0.8123454780586835,0.6986876592515959,-0.8804668469606093,0.19872053052724267,-0.6322878066919588,-0.8774551650433888,-0.49322427771323746,0.9666317662986254,0.397777734456303,-0.28243578708029704,0.8497438375333064,0.6302709945897071,0.9562358378169381,0.4701781292584755,0.6844040111514771,-0.8746256496763979,-0.16686047122885148,-0.44453976621326946,-0.43849720474285697,-0.40032480526900743,-0.8537972555852986,-0.4452290587033316,0.6135017492413618,0.2729241274245347,0.7030292855470551,0.9399058394322005,0.23157951042179772,-0.25671090263842444,-0.8443629021088161,-0.30970213220755216,0.27051703451374165,-0.27521671427993644,-0.9446191849921726,0.27612482135824745,0.005713567041168636,-0.21106630675775234,-0.3913011540839764,0.5297314634896418,0.4624714736237214,0.5602610036588191,-0.48155074315520513,0.4883715767755434,0.34527737026541716,-1.0541779094612758,-0.964731042917787,0.7662879272176716,0.46072408643492263,0.8739325850796045,-0.1388337029279809,-0.10096469360686088,-0.18759712894348204,0.7354239985326169,0.5407390898116474,0.1535801395687466,-0.4049994456266794,-0.8459650509699731,-0.8405495139853901,-0.48374952307810853,0.7098544267328017,0.676208201330612,-0.9478595154385872,-0.29592837295603514,-0.5794623262627066,0.5597802273810593,0.7306291114009176,0.2924427806500002,0.8682638678555016,0.44950480892863426,-0.2890364528792784,0.35104632319965257,-0.20099412189286092,-0.3254851061624417,0.5367779917461287,-0.44394422763843444,0.7757354997741556,-0.8076639699005903,0.28413007331760703,-0.2313294336658338,-0.5240943110949299,-0.9614087625345565,0.34940798391466726,0.9040141975285548,-0.42676180843915096,-0.21764009102103485,0.4695412695635013,-0.8056786603647895,-0.44097797730432875,0.24941731242929582,-0.21143728817371077,-1.0005873442179833,0.5931881797324792,0.14006008564475486,-0.69068913500065,-0.7734363125877919,-0.45862972364458304,0.687187488184579,0.9816601351329527,0.4476330661680948,-0.39041340416476367,0.01629437896220312,-0.9148727689078845,-0.5453587804230337,0.7636294508853769,0.508999110676783,0.8826725055539522,-0.10221869522460923,0.8102068966656452,-1.0201376330234686,0.03283401467544979,-0.7331865789249599,-0.5831278574826784,0.5618198367860112,0.6135902726145602,-0.06055031534640188,0.15269192378229482,0.8599097776320135,0.738987359266587,0.9107216407436394,-0.7147274268521794,0.15572088806245055,-0.654761514350822,-0.5936476772623356,-0.35716023097842015,0.6824616316927226,0.6832443135122728,0.6539574701434112,-0.9151480069032093,0.6114330224822504,-0.625622123134692,-0.6175065942519351,0.775136601659798,0.1258774178316798,-0.1503322427918884,0.20606942593801622,-0.22297806438059853,-0.3458192273651413,0.4815905068777185,0.48917108764867784,0.10167146358207045,-0.1857649920811078,-0.8713180310625946,-0.017683159047804868,0.8965073741898926,-0.9691747314225272,-0.9522278389714911,-0.7916393080669303,0.8321122599712274,-0.8575153893476567,0.37817976831306016,-0.648865171587094,0.7769346494283811,-0.898933620564875,0.7072755931535739,-0.9810272411751911,0.1502132981083289,-0.4643072521905523,0.14718575935477665,-0.07155218797011412,-0.5429855470576318,-0.6728867631191681,0.19178006957090282,-0.45354985769637735,-0.8036476265121996,-0.44082257125115737,0.03861701696629867,-0.9468585051928222,-0.5011101344775418,0.23096516696819422,-0.7223805885919133,-0.7161681640473356,-0.8282747222725451,-0.9299323437435868,-0.8650911946801934,-0.888240098503459,0.9330714992703557,0.5349099856497609,-0.4782291972870999,-0.5339474730042018,-0.8142955034510344,0.9736375531286242,-0.41543007577013924,0.2577480736392691,-0.16887657865608985,-0.09902325315296935,-0.10447757609330849,-0.2050270638616858,0.8058145562937433,-0.8210853023470611,-0.5459906498261554,0.614556717216037,0.0041686898731810645,0.6046955363945561,0.5520595133688627,-0.30483248335894797,0.4979868156862703,-0.6116147140718229,-0.11939028573541614,0.17748697459707163,0.10221676298947024,-0.46282267086478984,-0.3073075854841343,0.1294873417428054,0.01890993100970641,0.11039887567615961,-0.9833170979581003,0.8587267915695305,0.4917513227099616,-0.20294901741887852,-0.23329264033105154,-0.9019899818245743,0.6222490883567264,0.5601988195409333,-0.20826466778175695,0.596697019060907,0.9182645135394769,-0.3287961732312121,-0.7693644283441062,0.9502500009399968,0.912723060088266,0.41644203395922585,0.5677375818638618,-0.36688634126089553,0.334813332894181,0.6936689858201929,0.1940580294427519,-0.3400584062649792,-0.05565944412749957,-0.19235279896568006,0.17728436861104058,-0.9421219906267684,0.36856227250833035,0.12581070206161274,-0.4293289259523521,0.8541009334011532,-0.16461016454467492,0.33291081900954683,-0.09824717850564334,-0.2753729393779476,-0.8468870517690031,0.6282680183523608,0.31963654566225636,-0.32700768498716326,-0.11235559849303633,-0.2065340647964024,0.32354584171201883,0.5814055920747696,0.6001935181062836,0.23985619341453396,-0.686802343254964,-0.10034288779270546,0.6764376575039011,0.5755485268422028,0.421310240555226,0.3885446116948798,0.5414739939634317,0.02803629164159732,-0.1111881220035218,-0.9476900204311485,0.476037511680533,0.5687060823983746,-0.07195928804776539,0.22962807748777797,0.39442422569761826,0.23330360293338967,0.7704482579659586,0.7140694420216646,-0.012544037954107225,-0.8065962211914799,-0.029819152602358234,-0.7579715212228972,0.1967858114992896,0.5622501326281151,-0.6419824828246091,0.8872834311127615,0.42113691383879465,0.07562422763277526,0.34578582619080395,0.13944782620538776,0.6923899533214479,-0.30559421282812904,0.7794418667529904,0.651735679540882,-0.2227757531479865,-0.17911279180341386,-0.03908814436853669,-0.6751023070809152,0.2709051183802635,-0.7358528791261011,-0.5118849448789484,0.15454980659047948,-0.8570382967050137,0.3693434062829369,-0.06460782488932737,0.9384703999256936,-0.45088541252957165,0.33396597116478066,0.34323147423797407,0.38438509915782954,0.2560925762420733,-0.5595462070727008,-0.6065767622479419,-0.6665185108296863,0.018281061130134658,0.5755984974685271,0.7272530079328023,0.20398508914254251,0.7093993896775082,0.46079520356317993,0.8541586411693844,-0.7193526934192362,0.8852523265238785,-0.877075499219462,0.22222480421436952,0.5486130471360796,-0.42368844845397763,-0.35983332425442277,0.6925622182574679,-0.4497579117560663,0.2424991901252573,-0.49337295270396087,-0.9536764303229294,-0.11458451469259805,0.059469022077198216,0.2495700086270742,0.909626690520695,0.5480845738155095,0.6454919732533773,-0.37098260487809037,-0.2848137699742167,-0.9238239700853257,-0.03287917898584795,0.1550994311879808,-0.018045104875890283,-0.2892950706711269,-0.3849535156024305,0.593415689209333,-0.6129724267111871,-0.1503055093460858,0.1947407964642237,0.11039244588906794,-0.07822289767277457,0.5134199209655845,-0.39205483967377175,-0.5395599113862929,0.8498545870695428,0.1910381837966716,0.38820479146719644,0.7315714112375765,0.7889970387386299,-0.8598868787855946,0.08580298276706914,-0.8682729127278382,0.6965207692762403,0.038298838152281384,-0.7788649581995339,0.31312262910472594,0.9091178067795217,0.07680204804661121,0.7045170467699913,0.15255979364776187,-0.15846189905161723,-0.9091869372100945,-0.6211486164294399,-0.7749839550940307,-0.8079890548924167,-0.4790317696038672,-0.5159511337395742,-0.24182841358274798,-0.5539695267542819,-0.5867637573082596,-0.25007874949486775,0.40009710020807654,-0.5530293408256833,0.3836923971104334,0.5828722932524947,-0.09638179739038061,0.8985702575026355,0.4344237276604931,0.4581987170703389,0.8072084067441685,0.287349138829553,0.43878534607526415,0.5361720101972205,-0.19382350476356675,0.8820855688861606,-0.7706336794546536,-0.33388386154622784,-0.6805230557269468,0.1455288286470346,-0.025033469590382194,0.5693907922463819,0.06911807251054111,0.8803365531366282,-0.42880347546226216,0.43729258889712636,0.019343253869916754,0.9346708675282613,0.11514019537682918,0.4472514988159353,0.6098828007541927,0.6081549643898989,0.6062994560721857,-0.1718462653892457,-0.6294216459087387,0.3173671358045091,0.03900289739606042,-0.33579603472411845,0.5471749255337366,-0.8130677322980014,0.4055012645927124,0.04310627317385055,0.650534370686147,0.5062133907021927,0.24071809930789306,0.20873422789014281,0.3203709982343301,0.3301704823255417,0.19826634345795635,0.5973879928080686,-0.19631634673250517,0.9500552099892726,0.979998508933366,-0.009097462293583991,-0.5698722110416758,0.2688393403768523,-0.9383324212256383,-0.36952758836955235,0.06909776163895147,-0.1592056977735847,-0.5905664292321668,0.18261448104721073,0.3181594619994012,0.8298535918990754,-0.3885650653758384,0.21895239700201263,-0.6286733510287061,0.61413078160983,-0.07723657245693875,0.8594941193465323,0.22952821074422938,-0.7420547209448595,0.005467632757859868,-0.8748668452746052,-0.27274001356547073,0.05266462849937211,0.017563221589653826,-0.34098078312996516,0.04640946588833592,-0.19553625628180973,0.8934788865492811,0.5233205168988708,0.7417099311203286,-0.3962084490141269,-0.5683422936359936,0.4732651175956364,-0.5750225545025791,-0.39889402403129565,0.9348450940406634,0.4301150734609286,-0.13496941897830017,-0.8085879875620519,-0.7785971960111416,0.7643195319738867,0.49668733361863715,0.6845972169218302,0.7413808469221129,-0.2636996042556998,0.903632220672218,0.9689768885476635,-0.027266099458240205,-0.21726807858120498,0.18941648869250136,-0.5412389354386259,-0.4213771926735104,0.15332019782065243,0.47030145671052287,-0.5764271974402853,0.8565579425922354,-0.9077589955597509,0.3664923389604664,0.7951324590285513,0.6682814645092279,-0.7443189462977453,0.25021060296619346,-0.059461600267226355,-0.24492280910849368,0.09241562861293531,-0.48243482146642147,-0.90940955174501,-0.9449883107966038,-0.7662763828176152,-0.44335700894995783,-0.9630977391716466,0.36248270697017726,-0.9200839269592818,0.27213907927512326,-0.18243391635254133,0.36416910181500695,-0.44820895272720535,-0.541837066045562,-0.5475129809432359,0.6082592159549499,-0.6734651252950472,-0.32866389868855705,-0.3203706342255752,-0.37974445851878347,0.47124663534969136,-0.25171526060527727],[-0.32830507455064684,-0.8117215464432506,0.0418352565953648,0.18858933949612178,-0.8378198056190476,-0.9394332066840225,0.2797772146778055,-0.9950512306045161,-0.4743871985319523,-0.47906899332677133,-0.8910531884925885,0.540180573678791,-0.01422912723316161,0.16790537392330007,-0.5621915279398437,-0.8502767697300415,0.6651010494757754,-0.7855680310357793,-0.5736227102919629,0.08852187423963143,-0.07168131034876657,-0.8784639965395815,-0.7442847845154232,-0.40153136506089027,-0.21149634495534464,0.8522602965891717,0.522563527427192,-0.9430663206292635,0.42516838363847764,-0.14678696163085636,-0.8515060466150506,0.8568633977347426,0.5712545436792267,0.9081239258451959,-0.5520172077662067,0.8499145934890832,0.9536387002374384,0.41776013396874107,0.15328567106615804,0.9466571913037327,0.8526259753179036,-0.1521703076668798,-0.6448111881371702,0.14147704654314208,0.8688590734344589,-0.6232355512710901,-0.5116403423816568,0.52184933291853,0.7058727373685363,0.7678843319534185,0.025958237254563254,-0.6603392859374999,0.38809134952395796,-0.7136781826246961,0.46054153142005694,0.08047677957949917,0.40861523612532835,-0.5086867801007311,0.24445273530961442,-0.030427726263022592,0.19671737634079137,-0.5490936897684706,0.6522800219116314,-0.002721222935283427,0.12664731093162798,0.8857357341718289,0.18539177197239445,-0.45826037979383855,-0.7078547246764194,-0.40033876415268094,0.7446814347624652,0.3372574234524191,0.7007805095331385,0.20183489723305484,-0.028124247859380294,-0.26294052715300487,-0.24954313942984035,0.49347240083030014,-0.4401729157226466,0.027468466594089146,-0.9774983462277985,-0.47228485074748106,-0.4266340657729768,0.20389188913762002,-0.8042419455455385,0.8044732566305006,0.5907431136998431,-0.2668508433771315,-0.183423043406124,-0.7363082276812007,-0.6689706001196785,-0.39615629095753596,0.31890862927017705,0.694632864822565,0.22690123954056832,0.30034496183310716,-0.3079315928490073,-0.9296507451834797,-0.14407247283835956,-0.8977520410044991,0.38120796002970475,0.49138369677193944,-0.46036449155861725,0.11955532121524184,0.20501898270187136,0.44545961023160574,0.7241897443595366,0.5002124444155679,0.9470795998118132,0.8466071686007628,0.8717486811340378,0.5078343774961809,-0.38824661022622964,-0.773428716360963,-0.8941530298837419,0.9805841681428136,-0.1256943153349394,0.47167217595732214,0.30532923988822686,-0.7179103812432116,0.04943065786254824,0.055244371670029574,0.8082181109705261,-0.09143571262705387,-0.05782652247800284,0.6371990529310624,0.1639546989452652,-0.9515315896863029,0.01841060312327938,-0.19080299216720414,-0.2197170694343973,-0.10359786844275955,0.8171202087071342,0.622531942815312,0.3039113226706337,-0.45429081358179263,0.25614016124857425,-0.08273696558735535,0.18640691249126046,-0.8890149774772595,-0.13678479978457503,0.4869315308565332,-0.6174690135041817,0.37053804439568505,0.5877036755784695,0.32645406079925815,-0.8101793010295609,-0.849000910023079,-0.4068488476791615,-0.2763850284921862,-0.955951493273427,0.34971525692931077,0.4951790841184134,0.6234155415478351,0.12239417881458951,-0.984852109535479,0.1863374840354788,-0.8912432450455507,0.8481343447488839,0.5626509569341542,0.5215157640341335,-0.6818574318271323,0.8123779707469742,0.6367278860987672,0.9911178037604936,-0.20158321680256314,-0.48001597479055763,-0.560777399102849,0.8723138766992227,0.27998076778581593,0.05625328551802298,0.5528064439277418,-0.24072414790742827,-0.062205605605901756,-0.706530871520181,0.07776653556040432,0.8019564417202628,-0.6756594392923204,0.04164305169614179,-0.06867483397272434,-0.5935794402666518,0.3104781446011908,-0.7747790932480049,-0.08042934395836837,-0.09104119992049772,-0.3428956748513472,-0.27260525689887016,-0.1044410613090011,0.9070353920012854,0.5074636067099584,0.8180741221669012,0.34701653894486095,-0.07687215763843383,0.6234985353596347,0.37507370887460006,0.24819993951465433,0.46661605368689635,0.7186901283619345,0.9849952733686292,0.39652640793745736,0.4801126380177829,-0.6351712773311522,-0.4484002228369797,-0.6543403498887009,0.6537089918685716,0.5522941202533364,-0.15871104173101025,-0.7245272733941128,-0.702239861422716,-0.7211161020856689,-0.8617251680392399,-0.7951549406641568,0.13230950848125037,0.9441921223367463,-0.4355148665552114,0.8938027620747729,0.19665670195814597,0.1438165357244703,-0.6740871708026889,-0.43890141006327865,0.7716013149770212,0.7469810011192616,0.7517403357279243,0.16631858099009778,-0.8092631270210994,0.3410870947205262,-0.8648951054022296,0.07847003023016696,0.8683524580121459,0.19926074189016965,-0.9268751626715868,0.17205110256090098,-0.4651558701620022,0.037494909911858096,-0.2128570586515222,-0.08703945937783529,-0.883871274993557,-0.6697306050442876,-0.050074291471648685,0.019922646776058695,-0.4151860093415682,-0.36734109469104825,-0.7409549067205334,-0.816629700727016,-0.4157318835333902,0.5167291633676463,0.782601985068355,0.6646263688020735,-0.4106207567372025,0.91647774381833,0.43734282562057875,0.5328511925728482,-0.43276328898358774,0.44837985703263905,-0.9971179163264622,-0.7470358301923884,-0.46677458401432925,0.3111423138987819,0.20573110821734397,-0.3665165238381175,-0.22488830396988227,-0.8421333002473841,-0.993025960218171,-0.5288366464294666,0.1339021558279124,-0.33300580559989,-0.173859562320517,0.5858728293525364,0.292271104882487,0.5247011812727067,-0.7431264842364976,-0.5186000374002808,-0.5235972638818022,0.9272001198641252,0.44707927499137196,-0.04677654552112193,0.19516624480507833,0.23567188088040253,0.17501703682086775,-0.10068297756601302,0.12814032008707787,0.2740568563009247,-0.24767789741753238,0.7279579040823922,0.06895771586955528,-0.8368725008183516,0.861637717452232,-0.35895014075101705,0.8425141775438509,-0.5713764992670042,0.18377098491052768,-0.018566667907879825,-0.46498316472397516,0.7364473994195725,-0.5125180273522686,0.4376843409611809,0.8215079102842228,-0.30763343143084154,0.06545769747169469,-0.6359369217785348,0.6727224769823215,0.45651016724751975,-0.52693720073407,-0.42559335472244786,0.38716329174091235,-0.5325154794857474,-0.14254711464975467,-0.47218387121071204,-0.04550639877151541,0.4286813927866353,-0.9348569917865728,0.9755416196679885,0.3597123971562518,0.16421327180925444,0.4803650989740312,-0.2751646811792763,0.21783170111760855,-0.3775199605318618,0.9126683538674311,-0.9802491459167711,-0.04252502016584449,0.9063080945992626,-0.43078528687859763,0.9134445003490405,-0.04057494941704366,0.1325036789076862,-0.3463429500565297,-0.3967989553920804,0.7907085924033889,-0.06558191478476534,-0.4535673089877286,-0.06307293584258591,-0.9591804016043518,0.428631224520445,-0.18666302955089778,-0.08336194268809358,0.6066112079744808,-0.49410408451571275,-0.5675645203629397,0.4534969143495084,0.2955110549603035,-0.022688481461360297,0.5404468908734301,0.13485354718965692,-0.6958785915475394,0.36862890593385694,-0.5854315990175943,0.51393815631582,-0.9237970329795863,0.10878537687093626,0.1478693960025106,0.40732774959075585,-0.9363190434034069,-0.1633163538784884,0.6254055305685315,0.875837745915759,0.5925546414174607,0.3717222804479807,-0.9610247484151102,-0.6073337365560771,-0.08742441784450451,0.6132589097035757,-0.345026671270952,-0.03366258173222054,-0.5044941687567346,0.6840600095563321,0.06435666092084347,-0.15143105286460887,0.9369295892968506,-0.13788320862059159,-0.37104295748461424,-0.9231385222715452,-0.24794432321348378,0.6829122914212626,-0.8992230803989116,0.9819441257971152,-0.6420154281108663,-0.2236706150123147,0.047517016319224954,-0.6916787953435489,0.15773396541403242,0.29355230290080175,0.36425359842787314,0.6698704518438954,0.5001369831220007,0.2976194025258563,0.592306861056769,-0.25438680375497397,-0.5187540098221285,0.06066620129278935,-0.6153215294416785,-0.5496162033329215,0.9513592583669728,-0.4830487948793369,-0.49996764180644176,-0.33675044192670256,-0.022764141436522847,-0.636648209254874,-0.9356343681665537,0.6607493207529139,-0.7030626585641935,-0.9359998690693774,-0.5772200774157678,0.9165534751158985,-0.07550666924853282,0.39205201821632935,-0.7097680979964004,-0.38036493071470817,0.9712590488162727,0.5643468991205265,-0.35817061371489906,-0.37119051774333606,-0.7000188336151918,-0.2960892016726679,0.03459814046818169,-0.13981446501239927,0.6058237062602795,0.8621366050805358,-0.852912716515364,-0.771442441379159,-0.9386949462001373,0.12912024008079895,0.9002082976496577,-0.2615745600397013,-0.14831145173117427,-0.950970186081462,-0.6698353782237463,-0.2846211925722713,-0.7801130720776864,-0.5805077797281996,-0.7954240581531032,-0.05204773140541791,-0.6611653301805893,-0.26175440958198815,-0.16928573110469106,-0.38462113398186043,-0.1051906383939974,-0.5798524936806292,-0.03928367169343278,-0.2908729376500914,0.7030747276111399,0.09042075556195642,0.00376881921765701,-0.3891933913129404,-0.34129917616165817,-0.9933160561198767,-0.031502800645060516,0.6454905658308934,0.4373159693350841,0.028203465246015386,0.7959391614652829,-0.4059348931753725,-0.17836069890840472,-0.3186236041988069,-0.6125733181065657,0.45086496708506946,-0.850091084080258,-0.7950551091061985,-0.69900112476333,-0.8614380106380818,-0.6788008956309369,-0.8846656478139293,-0.33607736907288227,-0.6268701991444074,-0.8371851093781838,-0.8333338518804562,-0.24797686724594398,0.45715264662302774,-0.2991704261709105,-0.8834447469223625,0.3592357575166887,0.8080882571086145,0.7191989516334684,0.8527636191982112,-0.2032473548803549,0.597966734430971,0.7604673580648043,0.19974701513453655,-0.6217760451772391,-0.7307877545456909,-0.49846611285794057,-0.9717547088637448,-0.2574741020919833,-0.20882299119475262,0.1211977440934662,0.507181968096509,-0.3390356097650153,-0.716196130300089,-0.22129159998583084,0.9442207435600282,0.30283107919051555,-0.9065434724113863,0.16540910041102602,0.7118987391542891,-0.09331878713794657,-0.828041136693169,0.10171261467850337,0.5857777643063264,0.8184034820383593,0.9707314417684302,-0.5812279703916865,0.8342540883885775,0.25508084532254766,0.021148078496995033,-0.46557536118475396,0.43941414252809685,0.5635658859741292,0.060876396422473694,0.3276573498990915,0.9064813006434636,0.21138675901192647,-0.6125134587143645,0.9035221669603193,-0.6327802027540559,-0.9345281308107882,-0.9227636429434378,-0.35421616221254393,0.8492133038216464,-0.18623585072682394,-0.46718549144170873,-0.24510570097758955,-0.7992091164116939,0.1524205900632006,-0.7094291982214287,-0.9821878363035225,0.035173216210492755,0.34573533266356293,0.5727381250538465,-0.4366715805496713,-0.8962836702631727,-0.3256821084286193,0.193985998655208,-0.6807575464736,0.5252071499721556,0.1338372129961449,-0.7071536816126709,-0.3696708290466446,-0.19243258202876096,-0.13251038440087073,0.040524671305078044,0.46927288866297157,-0.6207862359156723,0.5052044115003652,-0.03054962548974883,-0.28531871385737373,0.8018512186054381,0.8276968077523882,-0.6235988235974341,-0.25861769475596835,-0.9392881650971764,-0.08169395231111913,0.8097634708199406,-0.9272626732253421,0.506937188209226,0.0974582416071222,0.4077986253590242,0.8315797183228982,-0.3835778246828543,0.5696786733927791,-0.793701414720378,0.6344319225384383,0.3719563322395781,-0.3391819067637551,-0.6264877954107279,0.6515943527613759,-0.19735740404721056,0.14466604438370073,0.917115862764232,-0.11063855099791883,-0.5161313833277361,0.6482822770614259,-0.27192665877245686,0.6781899242328571,-0.23913874008004554,-0.7522083607418061,0.16015145919479734,-0.6510539191723772,-0.43479892775004986,0.8703895785379918,-0.5133146877128941,0.984378110156141,-0.020855526301104044,0.9764889010037059,-0.07104215445717892,-0.7581681603631495,0.24054982391069826,-0.7538216019556906,0.9042931167894055,0.3586218970381405,-0.7698971173257616,0.17040063727213955,0.04052512171943637,0.9235132033392894,-0.7310002280537822,-0.7860665990032115,-0.5537309355185029,-0.19647523357881488,-0.9624425092892207,-0.28449079245398445,-0.9681612211858319,0.4359300985518196,0.19416000490907967,-0.49838443813976496,0.8083291464987348,-0.625204580858361,-0.02222437463200511,-0.23735180083728635,-0.6346100500341452,-0.25516076844731056,0.46558498418918354,-0.6693156577010729,0.9756218888004767,-0.18104751473588343,-0.35959777378438135,-0.2695553398185032,0.43149131139430175,-0.15188538395404239,0.5519705089483793,-0.19433580019445604,0.3409138817891311,-0.23980612637344423,0.1505447982026138,-0.6080821688160335,-0.17408183783400885,0.9868759993278495,0.051209754023373494,-0.4456043025310885,0.9193798769546451,0.6191672779367793,-0.9695297857323449,-0.4970128681432812,0.5295904483629965,0.24341964260561746,-0.9774837135457608,0.22624691735749394,-0.7599291951225862,-0.4286293787834422,-0.3949604261269765,-0.8427263639954835,-0.7831668211774018,0.01651475270456456,0.8350656627485432,0.30265422020038435,-0.4264786194864678,0.5616011994079915,0.44785361722701467,-0.8972470044933504,0.8452226180244201,0.7353234291679044,-0.6033423244063343,0.6756193492094182,0.38454535045664423,-0.06012532857498213,-0.6541818216579456,0.28561934673542083,0.22362120856578227,0.4290213747449278,-0.9929189374350672,-0.1398421221499202,-0.2802952381520751,0.26073654435010063,-0.5627482124364606,0.34270218117686424,-0.8113211783589336,-0.42411168816041545,0.4485329612459961,0.7105144868815954,-0.8982252969894053,-0.8039743870602546,0.5897822214051702,-0.23107345399721077,0.9029796966545827,0.193096884816768,-0.10035178808844414,-0.9997928332651593,0.2841410159380924,0.200451422763341,-0.5445742507042179,0.5550775094647763,0.37657347946016556,0.38960195094825656,-0.8039013535396303,0.11914388625917119,-0.9128317498523429,0.40318320821331866,-0.6764224264513337,-0.7203143303606124,0.3366412351144888,-0.6686991200905846,0.1357239187905175,-0.727318989398585,0.40238304092662214,-0.9640447972864927,0.0920767971853223,-0.2310092383060733,0.6024510328202181,0.26015938519116383,0.8467062560117105,0.891572653501481,-0.8136923223239108,-0.10123024247351076,-0.0709857770859883,0.3305029121074017,-0.10850175800122627,0.362708090174786,0.8623609030621537,0.8279896985679907,-0.2056081293490642,0.32666375582507096,-0.2903963111285844,-0.5964569125817425,-0.7838130641049295,-0.6596633515632065,-0.35463036513174595,0.7557229407868808,0.22655727201697753,0.9701374519220768,0.881707961830357,-0.049699687314946214,-0.058864089481515225,-0.25188556883824104,-0.2841369529124424,-0.42785321763480805,0.5923027516016094,0.5544941708354437,0.28724137873321043,0.3900043553089927,0.17128980230750246,-0.4206522869081888,0.855102347876969,-0.6642032734785319,0.10804588946619763,0.9860508080244534,0.9937159348218262,-0.8455880571088938,0.6602492068731054,-0.599448514077951,-0.9003239167525228,-0.796502992307293,0.06858747319941956,-0.5808898269906274,0.26873740670970864,-0.8351193577446269,-0.7517516130474483,0.21353874000495165,0.8126074507803926,-0.8067751548549031,-0.408228192364287,-0.4029433000532016,0.6226285425425294,0.6026037469664953,0.04380958013454685,-0.011271245374228744,-0.6701686700888736,0.13142294103132546,-0.17906002333147697,-0.9593064813381438,-0.3185791418908903,0.578631781147346,-0.9626091477652947,0.12652096050470352,-0.26739015849722686,-0.22213015294657426,-0.38771122029314276,-0.27378639953127026,-0.4797930173360117,0.9105668327152343,0.4826476714842177,0.33987128762195656,0.6652576222589921,0.5143398614812669,0.08603395682095015,-0.5934788973032988,-0.8207150764269497,0.5219196991005967,0.3461760073829019,0.6924531417861115,0.42218858031259526,0.4541794929487309,0.3665298547238267,0.21834315287207628,0.30079903043349265,-0.6188955179162479,-0.6552222423143323],[0.29557149972564467,-0.46326761201263933,-0.2996257014919874,-0.9965185845344098,-0.20379871479949196,0.7993842398644171,-0.9018918134193612,-0.5611133995046655,0.22983852940120197,0.9489475155186367,0.11060259696498109,0.9472226038398328,0.9084357054127064,-0.8907136912308915,0.6295760061440423,-0.004270402610621282,0.79215485837222,-0.47465709486494756,0.08272222876911783,-0.6501894244639628,0.5015309810488939,-0.5191135839799457,-0.46211821455397084,0.548843323328172,-0.807824468239172,0.2984825306831711,0.3755550521890232,-0.5609786081211392,-0.4382865878084239,0.8423022218315035,0.48303415056922017,-0.42197844388954175,-0.17644175805314077,0.6684860294492756,-0.6836093473046478,-0.32011715165742216,-0.48973435996065673,0.36976690200371404,0.5657319144550363,0.9842216103846693,0.8048660968240172,0.48836444099250814,-0.1502615922465088,0.44467868688675194,-0.6381846150576371,0.7778561475318524,0.8625326673000895,0.4075276939537054,-0.5481617606769394,0.09982811931076518,-0.35970511424813434,0.868281174044241,-0.16383651847039982,0.5092695402395191,0.9583960329335444,-0.6854226405010602,0.45093570213249956,0.8389378735966035,0.13773030366836192,0.8290776171361225,-0.9875648234169752,-0.8843467221461657,0.8441622705256712,0.9043723039377903,0.07401575356017603,0.6627166213634345,0.947042557344658,0.4094499512568211,-0.9626473295816361,0.2076038058167149,-0.7699823737634575,-0.9625471477326751,-0.3822045720681921,-0.5011509192058972,-0.8771336095960545,-0.9512955736440546,-0.850312877448206,0.42892466815473956,0.06877760151267165,-0.7161757425742259,-0.5060882384463917,0.7803962161398394,0.9755745232240933,0.2622272359840765,0.12577529003556487,-0.9218682688299618,-0.5746990028662577,-0.6521429857568646,-0.6064864848813977,0.033216806959765026,0.920212112852835,0.49449097080535687,-0.44512631486882154,-0.6066081149542295,-0.8782851229577394,0.07275868050662174,0.7559530457650332,0.49618363269610727,-0.5125871268787285,-0.6146341499614282,0.13677119825122092,-0.5627238798741526,0.5897103515624467,-0.7758898284129448,0.9194503726286307,-0.5466321325419843,0.2548172130127523,-0.46589085889626397,0.8155692685504548,0.9891262824256319,-0.1626335402823571,-0.6108804601407796,-0.9960333459250923,0.1797119735838928,0.7491999346701239,-0.1879697113892418,0.6312888792046129,-0.6102894412750807,0.057515091478142516,0.04560164891839684,0.6378837939279478,0.06908115668103786,0.5240751392902152,-0.22670368575441904,0.9213728891357076,0.44015730177173945,0.14846380004908474,0.7543311230030991,0.7730103518438072,0.05751350364754904,0.5311563791700159,-0.3664364336775915,-0.648887021010072,-0.3449966628500435,0.23679463217043256,-0.40187812499939846,0.7114137404398522,-0.8643429126785822,0.16427669462225852,-0.3474550620993275,-0.10438973816526476,-0.8075909078870578,0.4945653548167491,0.3042059783857538,-0.9471852873309169,-0.03984484358155744,0.7808184695863917,0.6597189751510197,-0.5951812361689346,-0.1406153417593341,0.8246838186923238,-0.06993150025923199,0.9832237840550088,-0.03973989621198985,-0.4985561016380249,0.48962470974447325,0.03782421459947023,0.5571259219118241,0.743914060290663,-0.7074397862411104,-0.2781587327680235,-0.8892033454318975,0.9060871041301546,0.86892074585749,-0.829274264769159,0.26267019366872163,0.261286296808802,-0.19383068770443024,-0.7499017955225886,-0.7350424762344923,-0.1419704014676149,0.19577322753593507,0.459482902809183,0.72905479678064,0.09875664772698096,-0.20681217962044587,0.8902228149865654,1.0042708047800277,-0.8733812649549941,0.9814954680239815,-0.8123413215132496,-0.47113037707850075,-0.46197752369921363,-0.3285789069351482,0.7235946135551278,-0.03466739130565701,0.32465078503066863,0.05486255529614954,-0.23563851544388745,0.8009384229193235,0.2669114885888569,0.14425210519229079,0.26432954862492086,-0.5006369846234797,0.5731080720186514,0.8698593158650839,0.31659221754294475,0.8025532563934076,0.8920498381412905,0.7002039040038877,-0.8622861911450813,0.5347059332103714,0.5741608213885465,0.5527098767138312,0.7067841529403451,0.5997089381233394,0.11039598277178854,0.2678996314265126,-0.38022508489130685,0.3733353669735286,0.18810792942739402,-0.6436142521915695,-0.8827115447498299,-0.17037036524192864,0.460031261270802,-0.04233047757128171,0.15174443374212915,-0.1083050667710882,-0.6946489934830032,-0.020806123386859537,-0.9052789573489958,0.2503824859197917,0.5097938625536873,0.8558896204039745,-0.002011011384420736,-0.9935586701655079,-0.9623299593325373,-0.8574682609138301,-0.9822434153203923,-0.6183107398341388,-0.2575498857737023,0.9322823817903377,-0.01412182405177009,-1.012881620534456,0.7261064670625361,-0.41187867785457655,-0.6111691173489976,0.009422643648885317,-0.6114345222552469,-0.9757519991069488,0.45084213216817615,0.045543450358282146,0.83971854891373,-0.1986387018563939,0.943846121232699,0.9165478467212506,-0.22272386447561707,-0.5496434772633257,0.5950237932569831,0.8078074848122456,0.28392527875969165,0.05678826383910128,-0.1738191581956678,-0.7001850914401356,0.5203904609847969,-0.29578461307191944,-0.9973621436930824,-0.2839415319874966,0.2548501007045688,0.8581902991306418,-0.7961714629365325,0.5105042033820416,-0.014977584143811047,0.372366624358863,-0.6519314990326237,-0.40363246442368883,0.7975616522703954,0.8383591930742373,-0.03422658554173943,-0.41108302484272263,0.008490725318338128,-0.3299876083344542,0.18755354087215784,0.4559685944667957,-0.5737222935845689,0.1469176193541764,-0.9368689308782258,1.0036691576897903,-0.6228328028687451,-0.7388086034818822,0.08150637582534381,-0.274676268010453,0.11042092380757909,0.607880830195849,-0.7894793849980044,0.9636375557259499,0.8405332421692027,0.7680088183258241,0.661598018813588,0.8310391339390564,0.018799493467024295,0.7382178318977345,-0.5927552811422949,0.4965402880418997,0.4469850648717568,-1.0138489987027535,-0.6247764995361245,-1.009884870290976,-0.8946579328726605,0.5063631587053147,-0.5263517428333789,0.6112801254396031,0.2103569969035111,-0.1962073740156624,0.9564218128948585,-0.037226664879940294,0.020468928993612134,0.9960158632728697,-0.37776608549878254,-0.3425457487477844,0.6340352193462735,-0.7598890233788554,-0.627935440126247,-0.7281361426912866,0.9364007398468033,-1.0228430079558315,-0.5046024062558427,-0.9941241063113021,0.05800073919021275,-0.024931475355909095,-0.27913447107459194,0.6513707888696707,-0.3231695511318922,0.012571609535403134,-0.9505110034144574,-0.15896256761866923,-1.060778247223681,0.6539814403180042,0.26879278907237125,0.7430420735694672,-0.6071769563817278,0.24965329062358865,0.37907675647292643,0.050711464377696205,0.8824273255864699,0.19235544899158474,-0.4101855430527501,0.01896499955034145,-0.9850713764522847,-0.8737175748077213,-0.786631406187553,-0.4062306627435465,0.09239950741971138,-0.9341135815562116,0.1389146972241813,-0.44102651237623747,-0.8208115324512777,0.8147770514639998,