{"layers":[{"learningRate":0.7,"weights":{"rows":100,"cols":784,"data":[[-0.14054420682237057,-0.4430620967704808,-0.03399602796332024,-0.8967840207277304,-0.09491085513617037,0.37181754547169454,-0.0803671684383156,0.7729504637585412,0.7504452385776448,-0.22659316658832873,0.3218868186367998,-0.1695416853709717,-0.08091265814747084,0.23887312550403905,0.45179589361858685,0.19800537649725403,-0.9098269538714319,-0.04620029705748774,0.4243792964222002,0.11874825085156449,0.9945914206907966,0.4699296470334753,-0.4410104706012774,-0.16516338154247823,-0.9258064886955735,0.9565690996393461,-0.3068960497905726,-0.7696953418282475,-0.8726226487161401,0.49038307736782594,-0.3936723631540464,0.315472746108143,-0.8404524460740554,0.10944085014879601,-0.8452480941759646,0.75421583398809,0.03507315295409219,-0.7706085502436122,0.4280912781516866,-0.03911346167672882,-0.16268255725623365,0.907402788839543,0.9032607177180366,-0.6441408312038216,0.858601823354924,0.33319315794768967,0.2703327564787621,-0.9019255749242329,0.8544199675832652,0.2788546732405575,0.7045881801273354,0.788094667248123,0.42075599271965336,0.6542264246619083,0.0713212334371005,-0.9571377338140361,-0.5044093847307898,-0.8924862818671686,0.8223490379100995,-0.04679760475388273,0.3450096244095744,0.534665601576426,-0.9504617619610007,0.3811527709354329,0.10278893419318177,-0.6014337992991556,-0.5791954459255829,0.7031283634993372,-0.23029097382007596,-0.45461509825272056,-0.36010226260812467,0.9530155550848156,-0.49030617337336574,-0.4219565991808779,0.5258403034295469,-0.5962489327512935,0.19072294944837814,-0.8154869316148854,0.07510180899408037,0.06751315655722795,-0.9800122097823554,-0.8705731377644561,0.20492804803281484,-0.6040063574702668,-0.2700562570448457,-0.8210371796400353,0.8422593179040176,-0.09384475754637833,-0.6674211745758041,-0.6751958047501067,-0.08663403469124169,0.45125948368481966,0.41021974139359735,0.029914824325298777,0.6446239079490075,0.22619181704948502,-0.658674498541403,-0.7713246613824077,0.7537861117030129,-0.344149414365661,-0.7577124727848137,0.8034778333186968,-0.7746350102267804,0.33920455879274175,0.2645157281895434,0.5784419070741325,-0.6691920402041838,0.7366639389871965,0.35759696591727635,-0.7099301011355696,0.6780007763169751,-0.8680181772905646,0.8056774447192958,-0.5675585860192052,-0.06351455334190748,0.12598295569809448,-0.43654132220447994,-0.9015152475378767,-0.5535481300494355,0.24645572324437462,-0.3710031117156723,-0.7636696226171305,-0.30715716285883626,-0.5525279095521031,-0.026728323342037803,0.625495603283606,-0.2704162923918,0.25102674053342405,-0.806731490377483,-0.5788806410571861,-0.13840162471537346,-0.139559060649452,0.18791498557753208,0.012211176108292641,0.5047999987713075,0.5903760995904708,-0.9400522694791803,0.7043848513626871,0.5092644987298867,0.407186430699924,-0.4364725974713273,-0.35929425224505795,0.6934866336202052,0.021395040072633466,0.01316552039831677,-0.22050124053848486,0.09883050767891201,-0.7208108047760129,-0.6782577516077152,0.7088548627218961,-0.041464799752329265,-0.8751681876301831,0.29781472269587095,-0.7354144700613139,0.7659760994621168,-0.6228943268316253,-0.3423621700951977,-0.11909641157609627,0.14140612692157134,-0.09090383255949151,-0.8162512598417594,-0.15784298516206577,-0.677988175625395,-0.2943915103157297,-0.2496269197477405,-0.663306871053678,-0.08386132997868966,-0.5579621382720757,-0.7093199709519133,-0.8116927093478696,-0.7386275849503859,-0.6563721209440857,-0.08089036673533558,0.08451398983402834,-0.3691025652029891,-0.0004134384942273365,-0.41004080479792826,-0.041631976447696284,0.462155371135196,0.49613090922348296,0.5533664672726059,0.2967509257881212,-0.9547061207851801,0.824315979050252,-0.3279827347190141,-0.4121399568740513,-0.9533835949564348,0.4257844534058135,0.2204337068178203,-0.7384268322624422,0.228550071904883,-0.3673649003973751,-0.2774778297308766,0.005758392529019444,-0.6337497297545557,0.01286747619057068,-0.4026203554195733,0.03775954642889516,-0.9804517629660406,0.5015087511575292,0.45534078052990123,-0.10722301633381859,-0.26012836573038406,-0.30616615889166404,-0.0442158120556582,0.7275098759419676,0.6763113228985121,0.37205366035619886,-0.937125678395533,0.5237236860784017,0.8344807053579666,0.7162312750356643,0.6758261323092564,0.4284562152069038,-0.3758602246696095,-0.024143983470316075,-0.8789304455558955,0.04077898676915308,0.9905062062359468,0.5611389171184545,-0.033596549491223954,-0.35413036592026115,-0.7175490744579055,0.8361347462577698,-0.620121151364888,-0.786375435454415,-0.41805399630530177,0.9802104197337568,-0.6586652770565089,-0.7340669631052372,-0.3927768198682149,0.654235559383088,-0.9031845759515092,-0.512502185906416,0.8859658944981879,0.5775164159947194,0.9727453884445209,0.047179151236381105,0.255974669793066,0.9258693396239287,-0.6507142761552482,0.7124410319728244,-0.06977082894458743,0.9215515925862503,0.048905042013200097,0.7502406748523551,-0.7276249817579236,-0.24120770706686306,-0.6840190929616999,0.436339010839602,-0.5276770466983403,0.10923791367188196,0.3734432867020371,-0.8974823262175092,0.4367756809089885,0.22158598177609368,0.09849893512370185,0.9141306982911478,0.2568116241052025,0.2599907252404952,-0.2142877131870184,-0.008539469915377192,0.6598921749292408,-0.41273956971268305,0.4525798303395531,0.5555702924069673,0.9802160370481465,0.4004852838572874,-0.37757554725121306,-0.28984400204313665,0.5773659557188215,0.7722602791171177,-0.4048365476918761,0.32338473327376893,-0.3125389235087328,-0.5447240874273181,0.0057399437282555695,0.07885341982413151,-0.6837918729099506,-0.9297748414140035,-0.08448973856616604,0.18633536261002523,0.2209327155728588,0.5861898743681099,0.11045029001627228,0.9538455543598635,-0.025128517986452756,-0.3753528129266408,0.6006505590688969,0.4768733561154122,-0.6768758729477073,0.9054705021210221,0.026793835501254214,0.9630961799251168,0.8351311371280075,-0.19848897612595942,-0.8595668572426106,0.7092269995138202,-0.6843631136830702,0.9297048651556158,-0.5353444955293275,0.5386945705722123,-0.8568632768000359,-0.6887302610680229,-0.7864193062858282,0.6389558421335123,-0.7017210643089676,-0.16693791978072658,-0.13436719547620335,-0.6618339054877374,-0.8529355504447435,-0.18902361710257556,0.2338864319342747,0.11913107633643617,0.47909629764347783,0.9716086374661567,-0.27506429260865867,-0.32662727977338,0.8439866286557408,-0.05245161623545469,-0.8071575296309871,0.1354012654294968,0.43676584621246617,-0.9544381311485957,0.43957966652760555,0.5480358383722971,-0.3866955314208776,0.16670297295113662,0.42112226368546857,0.056242970415622706,-0.6932037250008541,0.5937458082087986,-0.9648273530776621,0.193086542413011,0.753130721091192,0.14747975223238186,0.7838336441876863,-0.7199068470628094,0.9700127034676594,-0.37302507086118525,0.17562842018230937,0.26452458268799167,0.05665691434353891,-0.10661326099402059,-0.4369932419831131,0.1310258909042297,0.571238211563459,0.5250229062213113,-0.6487005656791519,0.9525279570329568,0.9029100732555971,0.414237275917873,-0.04756910704852537,0.13020052461980045,0.4853666875435444,0.8175675709472122,-0.40570700703319595,0.1343980146304938,0.8344930893818978,-0.25797732897102704,-0.7802633046981128,-0.10173174085437517,-0.5432543873967332,-0.8952097244253108,-0.8147937947226755,-0.2493468707855805,-0.19946448899202357,0.838143714326348,0.6792143119577073,0.28970385793281583,-0.053871963019125016,-0.5755757446795682,-0.6032755071882342,1.0142776901020927,-0.44121521161010085,-0.4539912923180183,-0.14650195415030273,-0.8884685642887775,0.863047059415943,-0.6298807463098614,-0.6038052923589263,-0.702224369940864,-0.60642740327315,-0.8166147484614658,0.2897464908878154,-0.9087075731564848,-0.12333253095531506,0.3813290665480097,0.0863501735491273,-0.4934519824066773,0.30894385642864836,-0.030657623794006383,-0.7829528448044183,0.7028768917050048,0.8360186295546684,0.6156765855426555,-0.32749647321392716,-0.8468071565884354,-0.947036569458907,-0.7173724391826808,-0.16054391264321952,0.924161986463308,-0.45758288589876545,0.4039392706535038,0.4964385640231608,-0.07822041845962367,-0.27526796503194645,0.14869977136550308,0.6668596468016212,0.40450927751250143,0.525234211510986,0.9267848293050343,-0.6877322456769728,-0.924952719720051,0.18950058489807167,0.4512858182127676,0.48540201333028127,-0.6334042125184304,-0.4368850861671557,-0.2503983443435671,0.02163734015569352,0.10847257300848964,0.8921033679096331,0.1377320014069999,-0.40255379324822227,-0.636408187782481,-0.782145350045921,-0.4500560858940791,-0.9730019934058919,0.26421052356706887,0.6194014822319569,0.9352991022622759,0.4411130086131722,0.6597187223638373,0.34965950218313196,0.5370575938481112,0.9143567248976858,-0.18390056815241312,-0.6486307877889471,0.31787611186420545,0.36691433429820525,0.6230308615842743,0.896995392902696,-0.1056068462435021,-0.9527447893657606,-0.4346746498789802,0.1001044634534761,0.8839424156940052,0.5323926748979249,-0.9583026912651493,0.5296837083338459,0.5328995922449673,-0.8525059402449306,-0.8265013300042107,-0.06571259941981196,0.7749127820891759,0.38319935765573576,0.4202720838922868,0.7959277530702272,-0.0005882596607241589,0.3081884795107355,-1.0057291117312466,0.29575227830587975,-0.8303520652265155,-0.1717649200299036,-0.4173356248685401,0.5795349260728936,0.9378402809624685,0.5139423116256777,0.722764850549554,-0.3195117872283743,0.4793493710703697,-0.8965304116668588,-0.12060873196466049,-0.9732543531324369,0.9404469835513671,-0.8409211790744067,0.6119675956747779,-0.9608654376095269,-0.8449284341037817,-0.12372624560942433,-0.018007680886747063,-0.010248513732716598,0.6715928234967671,0.9485246208125596,-0.5812632752192505,-0.4181679477834019,-0.3989654938099176,0.09085761666156875,-0.6930494363343469,-0.9304881453363194,0.32011313534284125,-0.6311609309406213,0.6655128947552196,0.5004051693788599,-0.8078693563610351,0.17709304947607446,0.7118594163791166,-0.914152641475987,-0.6179687812191085,0.7739491518546373,-0.9851787846437563,0.04882235512369872,0.9715298357487615,0.6163837206563634,0.30073680427338223,0.21904334964025163,0.6055041541676025,-0.7481886459582155,0.37247817037114345,-0.3328104601893819,-0.22638171656081457,0.2764810245054605,0.0465307083373739,-0.19871692000934177,-0.44279932755807494,0.48887516886891086,-0.09759313496426082,-0.5600307870829415,-0.5699110652601114,-1.0021638643927442,0.015592996656947545,-0.3064124169531846,-0.18256428538108072,0.39895802261898167,0.37544487102139973,0.31300333841937095,0.15167078187568517,-0.47414184026178724,-0.8181299812036804,0.048193816350798925,0.6100837850611818,-0.32643482273003555,-0.10283138325881236,0.6085417179359031,0.361917140786322,-0.22075341469939513,0.4939594220340729,-0.08540703043298568,0.87069515818989,-0.19311602936041297,0.9671374098953041,-0.04703392315118722,-0.29297682711136996,0.33647632748495765,-0.8799451347101525,-0.10852926012522793,-0.6340003627764308,0.10897892313335099,-0.8929049563838625,0.17138130311656546,-0.2912071623870921,0.5471392310641343,-0.9286180715406771,-0.6474939401020184,-0.8813232471730509,-0.33437226278920384,-0.011803237913940615,0.5902824797850271,-0.8940819311631124,-0.20061287253516102,-0.7591325146741048,-0.47608585918457547,-0.2762513909427358,-0.5361170654453183,0.36554924105447695,0.5560818798719177,-0.9243275149557195,0.9273901398688059,0.06935033981980325,-0.5407834310533078,-0.08794166562493892,0.4894693239789062,-0.49162065681910716,0.5554716686420812,-0.34978834522577973,-0.2160875682855079,0.4385679988910862,-0.25472737040302146,-0.07159816742240485,0.6508894544460048,-0.020403012762760776,-0.8572604496110516,-0.38494563793177633,-0.47170208404914427,-0.44714012317546104,-0.1354077084667527,0.2133445021471787,0.9938514333442678,0.04072305681624311,0.4470215360572684,0.08740999052448835,-0.4798202006574003,-0.016300286637947543,0.4308339100228494,-0.2703362924921969,0.04381973758155481,-0.20023358307164218,-0.6149279270757029,0.6893396567342555,0.04270036055512433,0.5647642028845253,0.029841384831144586,0.08555150866433404,0.2370094422208548,-0.6025933604346047,0.70712586805727,-0.7153112689438386,0.4236912442081887,0.534183678135596,0.9644292271434691,-0.6606560975379752,0.7149719560704254,-0.6683557688551386,-0.07723184474334718,-0.06145283144134872,-0.7345697432765235,0.888952411779707,0.9585963695278741,-0.6100857204135834,-0.32105246401516185,0.05929107093145231,0.8614772870587004,0.023391202547736713,-0.7057986798990458,-0.10654035745197997,-0.5972130951290597,-0.2950585810579302,0.4335816616295059,-0.17400504869110373,-0.2650353673452573,1.0001660798119838,-0.8863773646202978,-0.5323213392462915,0.7588093324490717,-0.8373000232753338,0.5136300964996215,0.718568235724001,0.2775313355919904,-0.6047976693089383,-0.6505966223819766,0.6615424136831618,0.7354392236047147,0.6846844826978491,0.08953082836521276,0.14391679944653513,-0.9337624088366399,0.4501182713406316,-0.43510919435505274,0.04884389227561808,0.44963364521542887,0.9565700383402855,-0.6323323575231512,0.667393541693862,-0.9052897530478238,-0.9496071140204257,-0.5547708064760114,0.6623157165056776,0.3745018115669405,-0.7748629541832843,-0.0994780744041016,-0.2798236530130799,0.2205490015139025,0.4235829248962813,-0.664665097092156,0.5037336878540672,0.5238369238386009,-0.2184415764811213,0.44161070333093805,0.20883619751208643,-0.29901648972670225,-0.31831087852579865,-0.6061744122607604,-0.045500964842147607,-0.5436097512165845,-0.055998480169150565,-0.8982519200236534,0.5222388999644011,0.8468232415772449,-0.3936461341549871,0.3416992761833847,0.6349141968673592,0.1979560117582474,-0.8266841030360977,-0.2836759278999201,0.7569545654130891,-0.9582768130651932,0.1162954857208329,0.5389145464540864,-0.7988802950267729,0.43105865815620875,0.41679693228376163,-0.6025033330533364,-0.4927515014438558,0.31625294940246557,0.009506695437315943,0.6399370734121962,0.23151893639653798,0.4987659338960886,0.5497774818611081,-0.16991398876082586,-0.9388581106452327,-0.2194118364955724,0.29166978691582995,0.7846849179884046,-0.4785174905780453,0.40036535666454265,0.36211056491799026,0.98352156883335,0.7538854628104671,-0.5103335100319549,0.7706187721990505,-0.24832663418812015,0.6993357644673066,0.7333217839994137,0.6986916530020887,-0.8494663825201512,-0.9742788370153791,0.8087953344954137,-0.07743016658352782,0.9577747197470888,-0.46803931650831326,-0.7996965008869179,-0.3268410395040948,-0.2684330475578117,0.1081548988461365,-0.6952269156895619,-0.07047513488137414,-0.6904870361092841,0.23620648621224571,0.6044748918982266,0.989382080371702,-0.6766408078172088,-0.5193077797748907,0.8386958305716053,0.2617405469083494,0.5639058722426981,0.31742700666744056,0.8209489371307144,-0.2275159828192797,0.42625877314206617,-0.9584936212394036,0.4958257834156787,0.9992308846910886,-0.6990302764678201,0.33422778032212336,0.3593892862772283,-0.396448524735083,0.5574646797400676,0.4090590623028481,0.7958910716827712,-0.22346232025451337,0.12960769809879658,0.7937410086622054,0.5133165612199351,-0.019892609353749258,-0.0684054382206769,0.1996048873078169,-0.8177740630871964,0.5162182569501557,0.911174090467934,0.6225525339310635,-0.6224077989701475,0.1866867528077083,0.8017064593480219,-0.35071650207508864,0.437675191438782,-0.2130545287064243,0.2542527755185546,-0.14902974989569334,-0.1217325910279675,-0.5911965573512152,0.30429376309970735,0.311010260464555,-0.09751307680241704,-0.5913355283337868,-0.6484667856730751,-0.6591451410896693,0.9699391237490046,0.26150690670787213,0.702403430563785,-0.46354121320553254,-0.9026201803197456,0.297520383062404],[0.9317103299610117,0.608479407346334,0.9260622972279786,-0.9557105910470041,-0.8766725092019167,0.8863768531836236,-0.5190423101393988,0.8685171937658294,-0.9076576592265004,-0.7399447507222874,-0.11015645089054571,0.08585187263816962,0.2222889432773396,-0.2015558623328535,0.45752742799091095,-0.9774157291863723,0.7608247632983898,0.7337978467543516,-0.8890904907677162,0.2763880349215393,-0.8210056463868591,-0.31383111852533485,0.29747579170600513,0.5686808163782002,-0.2100868115560255,-0.3934886749372124,0.4108993077007401,0.28409656640466974,0.16170537887894554,0.8883633030145344,0.2642070696114689,-0.9453713087339009,-0.8993552515234189,0.5429248357011915,0.22685368786387405,0.9636816114025692,0.8038595921409235,-0.0820991017354169,-0.8024824904086614,-0.4725499265670999,-0.02730915533326256,-0.35203670065386633,-0.7294817025296977,-0.9484088322691527,0.7394354764702719,-0.46368780985280555,-0.8381071102186823,-0.2266878881576083,-0.5229914629901367,0.5994736588030255,0.6465778601172998,0.3139750270939743,-0.7115551549041648,-0.8472526973677001,-0.5594148496021467,0.5202238350121466,0.01593386472737901,-0.8898677094680378,0.2791097608108859,0.7657285478280276,0.8699137409123447,0.16998996640922392,-0.49227637574123495,0.13708388935720417,-0.4710691883515643,-0.3355561232911897,-0.38388802558885854,0.5172953741923392,-0.4065475857703376,0.48616602314757923,-0.8171884533393394,0.49001078562795963,0.017699305645425958,-0.7976651440287704,-0.1770032798663289,0.21656066106113583,-0.653194456569107,-0.6680345603352925,-0.5105622142090166,0.21258991126827909,0.5986862470935213,-0.9388851371846969,-0.946157025553954,-0.22611561210789866,-0.5830678188183773,-0.4481296381446871,-0.9698764233377299,0.5089141171069604,0.23241600324627276,-0.04405853701784556,0.03986848468966107,0.47131631260692647,-0.015310541033552552,-0.8163231523919923,0.9838637426130348,0.055693794681180034,0.020948105991016024,0.262228414087948,-1.001266086607152,-0.3135779449010746,-0.811682693271355,0.15197519816329674,0.8270465825659543,-0.23242086390845487,0.9241945603651317,-0.8785445538168241,-0.8149948609957515,-0.48760641147746203,-0.17425920242439374,0.43060079211533653,-0.9884963334197949,-0.8777275739563102,0.17179742002597553,0.8273123388607027,-0.822765250953279,-0.6851694965485504,-0.09979016935294749,0.042181213295679476,0.20313353882422058,-0.3783769543293643,-0.35459712055061965,0.14907140649807032,-0.5175921573921197,-0.666108574756571,0.4768584899384811,-0.42991757596881597,-0.32986265217100136,0.660917782534873,-0.5778120368565425,-0.19888608979588415,-0.07491053041705187,0.4879845485141374,-0.7844536555606598,0.28249704434346495,-0.5624735680653369,0.6436604223260712,0.7175337539904204,-0.0193420379270363,-0.8628872184031997,0.8760954402725454,-0.36105425618180487,0.9089189374216184,0.40240212059648783,0.9428896103283095,-0.5245603677300513,0.13384536011783937,0.4894935968633147,0.8785930471493845,-0.2640369531661239,0.5300137309802958,-0.23097575033497691,0.966374193039937,-0.5785599712446168,0.9533507419630377,0.7031621231068583,-0.5714019308404642,0.4412022923638094,-0.2166277586097223,0.47899525289921313,-0.5680147141039598,0.15991148626449112,0.28020650497225585,0.015844839035291856,0.7620244132651569,0.7156476936298787,0.44769557738041466,-0.6079812672047678,-0.4251243991043546,0.1946561068258048,-0.2300139181841172,-0.0995685749086294,-0.5972934653115848,0.41421482988993275,0.7284958502265317,0.35364661048841184,-0.4296441840251325,-0.6308794133002369,0.7473983481655158,-0.32288954725575936,0.838406168392798,-0.4763675981402541,-0.044403337257215125,0.8947984867726277,0.04772818829499917,-0.030456150733921456,-0.3792886803499728,-0.9124318684647322,-0.28189465431164323,-0.5491002789615461,-0.34211608832398044,-0.0620346823760155,0.965993040123542,-0.4390094266951567,-0.8703074660307487,0.6975383325558304,0.8102337376876347,-0.8862202464367056,-0.29022438453752786,-0.7855770043416391,-0.24061752313639892,-0.043448981161572475,-0.47513358397252276,-0.5607968826295268,-0.7352451317898829,0.48862012564831425,0.897193406875142,-0.2925403850661913,0.05779575389668942,0.48352765506174405,0.4580646393642203,-0.5222437500349973,0.14315466772220042,1.0212089258828967,-0.5869860586612564,-0.9008766854096913,0.8300904176673534,-0.2028518286403176,-0.6613259409303198,0.10991008080974085,0.6991738323815426,-0.5873066324015992,0.889046297021724,-0.43850442571612125,0.19911913395659162,-0.540549327010953,-0.7106388876009009,-0.184578863186565,-0.8897994249752388,-0.7251182673722476,-0.18710111621407186,0.4792675982841801,-0.34187737277563984,-0.8055790769639759,0.38231270715880683,0.4221487293612209,-0.3451065530225986,0.7849589309137582,-0.7559265174380597,-0.27372130909883213,0.8304962966503882,0.7091330015103592,-0.333418484165718,-0.6091585624324063,-0.6820952696482522,-0.4608273434952381,-0.6657376210400974,0.5761941707656268,-0.46828162345822805,0.925962542850638,0.03774776273770185,-0.7556034434116305,-0.7562569375115746,-0.8357430194299779,-0.7774175918511281,-0.9814430639191367,0.22498422155937803,-0.7901892993302735,-0.33075454358619666,-0.33955022584537475,1.005845277224932,-0.4805856207280403,-0.095028602407633,0.6906568277011325,0.0196531111972273,-0.781433673404751,-0.4386316633308566,-0.8552502777284234,-0.21112052422519836,-0.8565944386897918,-0.16374227187071785,-0.11030710197903354,0.613659405229794,-0.5939118259103591,-0.8809944609158074,-0.7037126453815529,-0.870471563658897,0.5095773296113886,0.5689214609266026,0.08540273952645416,0.4253790338935377,0.8371548272257252,0.9396343557129793,0.1034237746238742,-0.6292973626545201,-0.8931384628066963,0.6041566373009524,-0.22692478604991953,-0.6843457019191503,-0.5077355601389906,0.7464131940588109,-0.06613859823485312,-0.4741428620525833,-0.9050508471238553,0.16023182979105483,0.08269055553308614,-0.45664730934920345,-0.23166477112102604,0.30973433565926406,0.8199718295005778,0.7915678095443373,0.03909387701503533,-0.9794979881232111,0.39144821537489694,-0.6676874769687546,0.6465993502246536,-0.9338966204642537,-0.3457583170274995,-0.11658283051807938,-0.5158519452781123,0.5227172810128369,0.047281043265027155,0.0030481247043604672,-0.8941578178083012,0.8819340386940324,0.7985381959849345,-0.6417157753936112,0.6702687776754404,-0.25323000589314704,0.12521029729518784,-0.04361672401327449,0.6992071616095794,1.0177503899024054,1.0743004893396857,0.7590885190969028,-0.23750576034520238,-0.5062406555665034,0.14416407849176785,0.6459434621814951,-0.7878574950827281,0.023435270306947698,0.5348751666111017,-0.1812031365657644,0.4318862124730218,-0.06633579808488672,0.9956708469229557,-0.19936079582111876,-0.5444343953611415,0.11748267781958925,-0.9780620132356665,0.034294475874697174,0.06336211347988503,-0.7724978913880467,-0.5914415461519881,-0.9480891110851393,0.06846025937952559,-0.9987057810232686,0.21884584132824164,-0.2595373489147211,0.2150334512266836,-0.3280698688520042,0.8031064430587295,-0.9539983567817643,0.7678561538190722,-0.05125019975715911,0.020074720652080404,-0.16478670440605886,0.7343782199194779,0.19757553230758654,-0.7945243770119205,-0.21397993099999382,-0.16216347915634527,0.44929572082480196,-0.9371837696380998,0.5926762766329516,-0.8855929845520749,0.8601649134829598,0.024182119829086027,-0.7197085034815784,-0.5895311728069944,-0.4446858753111656,-0.94843336736547,-0.8642652351474895,0.5741584812617835,-0.5222551522741642,0.5722293594970297,0.8553066078811781,0.3750936906472799,0.30809462249395775,-0.8703640704867688,0.7201294314864162,-0.2796706720643487,-0.0988028472451897,0.9296409748118382,-0.851110850737577,-0.48163971167013414,-0.051205998965328105,-0.7419255277718194,-0.053094446362153595,-0.31482845790219005,-0.48395162423898824,0.9540755713644333,-0.04021388033179596,0.15803577471393782,0.2815223082258232,0.8613178342724256,-0.1424351511265023,0.4248304279427416,-0.88215832896111,-0.6914778067499324,0.18685571373400728,0.5756494199927786,0.8400244067529788,-0.9497625884342942,-0.9253323089683558,0.03757954310592018,-0.35906530610526577,-0.5468209182021739,-0.4041363648503777,0.8095208509606227,-1.0732792924936945,-0.6636582392231175,0.8849388781933973,-0.4638398817659899,-0.22253874278573765,0.41575531143560135,0.37725872528731247,1.0113512291663362,-0.16865481832015933,-0.38042922617199615,0.2762779056085143,0.8027658563295081,0.07164651831092723,0.6017859670837948,0.5489801870636503,0.5758800110908785,0.9181784854125142,0.7504482479021678,-0.6122619527083302,0.033234243142561626,-0.8330180322357229,-0.23426100209217976,-0.8411640799181337,-0.16073665109162533,0.9525164655455334,-0.5084074909588141,-0.9756475903284743,0.6279547887334302,-0.6600308612783119,0.3364823661120437,-0.4551724311071008,0.1542361034360272,-0.5066414967798184,0.6476328708848997,0.1371058432299154,-0.3576925087872655,0.0724570479504481,-0.6499654017570942,0.7630282099603947,0.14411076787339283,0.7981819118803459,-0.26611028027671896,-0.7851756268627992,-0.2870962849945468,0.9046591959392809,-0.4364442453356897,0.3070774412887151,0.42956357614970747,-0.8476277472611706,-0.32917784191980765,-0.00809495546999763,0.62592028477989,0.328273448134076,-0.746716677596933,-0.924314374243999,0.5448577647576299,-0.7308450968510253,0.14867401092451132,0.3293418230226684,0.5253771434558608,0.31282892991837646,1.0405340958496676,-0.7111133420858398,0.7699181585312127,0.7002219168454293,0.05621043987898615,-0.35574959284744656,-0.696986686572727,0.09311652121289615,-0.29854438520580984,-0.032072496220165635,-0.31702547485633636,-0.21442026746112663,-0.03440954342902858,0.9808443050197281,0.032115753275383956,0.3019723890359118,-0.5109495951469112,0.45134677616818464,0.12503867777544347,0.4121437819842201,-0.42006799106234444,-0.4400370696592671,0.5116326252859381,-0.8195834145434113,0.9572189305802397,0.483188624203686,-0.8242531353004574,-0.9223015434706672,0.1771187703901921,0.11890209880289196,0.6049595775365623,0.8939205213917588,-0.7939192082551193,-0.556536596449585,0.5649020473741939,0.9096350712674193,0.1573273890936599,0.8896624640836615,-0.7877167699803009,0.6527902430950583,-0.9187120985821172,-0.9610866516113266,-0.04593360429154118,0.040705275870601285,0.6065927698766062,0.44560663119185306,0.5294230626603126,-0.6059786250860308,0.6550851804552731,0.7338975335899588,0.7210058293055839,0.22115397313309998,0.7135545201720658,0.8493580354652168,0.9603311232650277,0.13802251278382832,-0.3558572327366615,0.2842046761134355,0.5019660548594449,-0.48761398303838877,-0.5580531185516754,-0.6618441765782224,-0.2200726415210723,-0.7684954802592685,-0.9040109292014563,0.058738768869010465,0.9475556038299701,0.7382330549955718,-0.5881249130346061,-0.0638675088679392,-0.4647908773849581,-0.4892470025274142,-0.6325233374753106,0.5903413114471613,-0.7992506412330237,0.40113472862163885,-0.2822421136698119,0.18018805773457924,0.28529352747819803,0.32192603846527834,0.8887459672897957,-0.6553541392762059,-0.3179685922209127,-0.44084384700846807,0.6309370313263171,-0.45027615626345824,-0.38677956196670066,-0.21944964641553777,-0.9850740008672529,-0.16156141555649683,-0.8475843731835377,0.9445093871632295,0.7525927597004045,-0.96217190533956,0.6906301630683926,-0.5773040098077429,-0.6391124867957586,-0.14967074375725373,-0.5012518723206856,-0.45678218889673566,1.1208035812840205,0.7281684808751016,0.28363378244589144,-0.6983407901117363,0.8072985776855129,0.4322878160373678,0.5455807864627701,-0.435556679367647,0.9042102666837438,0.9954262175504069,0.8207194131328506,-0.5978308409152037,-0.016666034546666687,-0.5709024716655564,0.9552382794580333,0.6539774459043993,0.3974003662688535,-0.15308259667688562,0.3554032927076567,0.49638450013285684,0.7289216889317595,0.913249369040402,0.3073645444445221,-0.10324557938240123,-0.3741441560275597,0.972190919035621,0.3949650260782475,0.4563944632207117,0.7379611500124394,-0.13225089988688765,0.3465128323308908,0.05222942754655715,-0.8703403843235606,0.5334628674296721,-0.80531971284355,0.804799756696723,0.5058583774558258,-0.13302313351686806,-0.5922135326888324,0.08551687557765375,0.045846125012036595,-0.8026157810165688,-0.7507748771497432,0.8666987628891785,0.9691569334089285,-0.30312268830650035,0.04659035874280759,0.9097547910327641,-0.9648265906966956,-0.07925021679983878,0.06393417042288932,-0.594132512994226,-0.0370832329868913,0.6187981631000278,0.3681986353106713,0.11005666559279854,0.5076385522147303,-0.682196493999486,-0.45448443906978114,0.9569008262533771,-0.2181727692873766,-0.8202781890524615,-0.26376135370257636,0.3592263034994816,-0.7194144075369284,0.3644329695830074,0.9655373079668679,-0.1955516384024845,-0.42261878675174913,0.7520188429876647,-0.5323675497267926,-0.4283194848622101,0.6205095867111956,-0.32887605983673174,0.038508443533540326,0.233950925033378,-0.8879494545429387,0.7671688916992137,-0.8419039373428916,0.19453777348311288,-0.22347169458693708,0.5298195785885211,0.9527779032031866,1.0057363385690392,0.9870437208129356,0.46004681769077155,-0.5575217592141386,-0.9299947080944213,0.8261512831725603,0.15405046947211573,0.18412543697452655,0.19721719292622472,0.5153282731306357,0.7772130549869605,-0.923575770687666,-0.6168822639383917,-0.42138211341330634,0.33420422355190743,-0.8645350119459658,-0.2596201963333422,0.8117949707678873,0.41477729029003507,0.21673626569707283,0.3495169897414878,0.2284349596583639,0.8652108464216305,-0.2446680662900825,0.20515154130846602,0.15261023078718847,-0.943049426797477,-0.22320459921013247,-0.969527339082893,0.2412045870792738,0.17938886572742488,0.8859502576029863,0.050442156567464355,-0.8801209962401942,-0.9541369932346494,-0.869690026056715,0.33431669733725644,0.5898111785130287,-0.9049263229808061,0.4331731456073683,0.7577289058496208,-0.7335116427582373,-0.563520231959397,0.4791215279001677,-0.9465836169164445,-0.6734541481704817,0.039742866575649405,0.4505837163556814,0.7011291729448708,0.08746049845632387,0.6366567502742115,-0.9342831474907853,0.9928542222558528,-0.16545528280489935,0.7354067154022437,-0.8202994666720785,-0.3741113287594132,-0.5796719589020037,0.17509157606912015,0.6807136969948602,0.6128335843439251,-0.45548978343103425,-0.6492959093831657,0.5575443397936879,0.34580004191887553,0.224024099195267,0.1613863261495012,0.5767793555702536,0.3322494768010916,-0.394771586036358,-0.8575521684190796,0.6162311159509797,-0.7512415017038836,-0.07168062777262962,-0.8874749174448398,0.9853483500620941,-0.13998922852464135,-0.5748420596322124,0.534318821181685,-0.3384737333422346,0.5712661369331866,0.33069356445941134,-0.9378545103854888,-0.35340821556657215,0.06605115938904929,-0.11920338166570738,-0.26503374335791685,-0.7180090141880106,-0.3444986772685971,-0.4062549541386082,-0.4242631369249831,-0.5652807728299838,-0.8418627578343458,0.10917889893564453,0.5914247436236594,-0.12679843754051237,-0.9767441433961235,-0.08361017577373217,0.9070238450843242,0.02542996750084736,-0.5064582150042711,0.09341650418501146,0.13104346778392495,-0.8100063769283907,-0.5486663120583533,-0.32829321508109954,-0.19663142140848944,-0.8098849845296581,-0.8444048716608041,-0.8549843707429371,-0.4738144167261107,-0.8574513204691062,0.7112923092441988,0.49057590927088784,0.12113837562397209,0.49518264091123904,0.22717850519201732,-0.1404922602336621,-0.9609639327925843,0.717140311619706,-0.35846286109869413,-0.33766965309304464,0.6624766529835369,0.8544010106508743,0.341715209835364,0.5567798147144938,-0.01895902868815824,0.18863824291999132,-0.8054575945089173,0.7804653797288879,0.8358113093130921],[-0.5891823195552277,0.3191152724570365,-0.20998407032272715,0.23166663979963076,-0.3645735588592278,-0.6832909840325909,-0.9207650535093053,0.9831301863107704,0.392827814194761,0.9148907014318812,0.5871411677958269,0.5481781885864434,-0.9232363655514702,-0.8053660774004974,0.6577009606012991,0.002024244999047742,-0.9302329155476952,0.1825950443288531,0.6121135520828296,0.6705867171517523,0.9984924534906199,-0.10093489935449451,-0.9592996743162403,-0.5442685368892604,-0.8934878830225967,-0.5338210944446034,0.6155817441269065,0.6150861343921732,0.9683217960471562,-0.8606800691924645,0.845510965318832,-0.9056894909638884,-0.9636748092677268,-0.049766673629469516,0.5491554097314513,-0.6189187623800012,0.4305208340184894,0.7942698918883848,0.4484901415364886,-0.8918557339138669,0.5538254280583637,-0.515556875953091,0.6121891191007408,-0.40768910705240685,0.7570680082667512,0.268618242504508,0.8353565052511853,0.7377378673724687,-0.7668073137141783,0.47853307456273403,0.5255673160621421,0.33760686713055454,-0.18160271579831333,0.3805884004139366,0.4570201356325212,0.6615080520457868,-0.5867382639913137,-0.3296538092977488,-0.8271106565037813,0.17709251239304313,0.5019980080358497,-0.8872548709412791,0.1384927735814152,0.6568073557422334,-0.8936797277563782,0.44304807019057946,-0.2840587884617549,0.39076289902673855,-0.8727062189419568,0.32788097883947237,-0.9471353665846732,0.5572208123103423,-0.6384130737336269,0.19944277946360237,0.619085672318605,0.16170548345099475,0.4302456947781485,-0.6200517157332132,0.6427062305704166,0.12134251942662598,0.5643650782560999,0.6143575999820636,0.8613941453658152,-0.7404911500965095,0.05391318497812758,-0.8862927766874686,0.34602287796377196,0.4213636137169554,-0.12585414363533065,0.11270712638515701,0.7453281617310069,-0.00812956559256117,0.7352230108571801,-0.21304749722721175,-0.8682554538999854,-0.33241835248126006,0.3604225284574937,0.5002038781900818,-0.9367412789465053,0.2753737834698395,-0.9799712076392109,-0.14768791761079825,-0.08696831244730245,-0.6657883528196975,0.1691274023096928,-0.9670987228913706,0.7681210902435481,-0.9875237764393917,-0.2148189169172023,0.5712079220619586,0.43957855351872155,0.36785217961261596,0.0015996912469975477,0.8078519779011613,0.7523619002842583,0.9861051971762258,0.2694414374216124,-0.9449735306550379,0.6600335484248869,0.1850573425879378,-0.19210986099382843,-0.22595236932699383,0.22661125126823434,0.4526616308980909,-0.3700088605025452,0.5381743695621943,-0.09750868200346548,0.33953487763598916,0.09790598710708938,0.3853512774806953,0.8694505477602946,0.4700200390616922,0.755443954332189,-0.657512288612207,0.25241079724967114,0.15737389772362428,-0.2519311562687034,0.02878384205843659,-0.9110820508886319,-0.804326875275188,0.524537519837315,-0.008265341753501243,0.2820275070117497,0.8517621707330035,0.36950691691988724,0.11181457889067588,1.0275965948478718,-0.07531432094555027,-0.19952834572809738,-0.04836892427035565,-0.5953782264845816,-0.24479759601593762,0.4668502596338479,0.144988684151515,-0.10182713787370468,0.6549955999139266,-0.5828021117691771,-0.8909712867546381,0.12703193908103572,-0.9465984725917169,-0.7308125680753821,-0.513892888087828,-1.0103381490962662,0.9052793936658923,-0.2756729004340265,-0.1043442487668936,0.8764820347783304,0.1015822883041785,-0.7807020236498681,0.9197314723018137,-0.2742393719771957,0.14995971505469538,-0.957984085256744,-0.5226159985019753,0.6414894634525272,0.5415345983407777,-0.7045549632687903,-0.7027062721461076,0.10841020912342667,0.3191599098046701,0.8905818554859002,0.4613797793831859,-0.7343133808974798,0.8072357273548895,0.12308650378470729,-0.4596825749229828,-0.5404422779177978,0.19988049226846427,0.7506743371624522,0.4386964387050841,0.2121457660840743,-0.7636676291586315,0.6982788904200296,-0.2694978102879135,-0.6079632373405481,0.25766561294219936,-0.23915763097002446,-0.17868367972059093,-0.9058934182644345,0.49103015867790795,1.0121629991748848,-0.7713314254837799,-0.8379077662653656,0.14889291234674937,-0.6484556877267609,0.7313540244848769,0.91178141193255,-0.07754496246687761,-0.11726423417088742,-0.7941821511007994,-0.36783592878055404,-0.9874431743696125,-0.27919114949932333,0.38207028881112437,0.02670476075910406,0.5203469414226474,-0.8190703865195922,-0.956227805836967,-0.6473373652857501,-0.26476702262883856,-0.26666204863313825,-0.4659069371326604,0.6692062759677475,-0.1222267831222896,-0.6034361125023103,0.39097516489298667,0.6718433074393756,0.558892414906657,0.4033109337582252,-0.28994733588441335,0.40743296367094733,-0.5642722371757365,-0.09813058337139843,-0.3045942750214224,-0.8371678441049697,-0.7102454995891536,-0.05042468515156586,-0.192539073483935,0.9522343412139644,0.821822614634371,-0.3405836433234271,-0.6254642615166535,0.2792777561948106,0.4937086262717197,-0.8266257971870403,-0.8548371573650712,0.8149561706172516,-0.6496689834555003,0.1225400486281508,0.9661674342357564,-0.33195085273584396,-0.69626222633421,-0.26103844754703265,0.6205013755596211,0.32925526187231346,-0.05669873081773505,-0.29786568960463583,-0.7886644284072669,-0.6736836209044559,0.9135143234145167,0.7747619919208827,0.515492418143702,-0.6965869943247783,-0.46388420488518994,-0.6313111568594254,0.587671058815153,-0.1352096914874924,-0.21755937682775503,0.7265310740764517,0.6597956168309564,-0.8492620112958581,0.16754978711172616,0.7856292955467006,-0.10200718656142706,-0.8446044796064895,-0.05368537252043296,-0.2529270497744575,0.5538034242963163,-0.2051205129522967,-0.8878842259027291,0.587467581723137,-0.11801923978933355,-0.2536262755623009,0.7559017893153156,0.45846283508624264,0.12393118751230428,-0.8587803199271195,0.34215952393939225,-0.4894815324596006,-0.1161433601547312,-0.948052025541561,0.5207655582226642,0.5154048010973455,-0.3368108972787179,0.9184233128111229,0.13719414321464918,0.8796811049964468,0.2990510179467953,-0.3313446733905273,0.7196827805727924,-0.13075341202330976,-0.6199944743464739,-0.9410293367222198,-0.8234278624431701,0.3175991663887478,0.9422601008104717,-0.861351868682782,0.592964682247954,0.5810170322719723,0.8783184038697386,-0.16622873753057707,0.85048961141256,0.08262943547290803,0.2856356887172802,0.7916090692088713,0.5335033496131603,-0.4393908764446082,-0.8088833373101324,0.05001384917271743,-0.24275960538287528,-0.46169233314536023,0.15011128526683504,0.7498085247396965,-0.6916407408728176,-0.09581912219022158,0.9845821972415291,0.465820366193082,0.20321920161043774,0.6475661017774388,-0.7366904919418965,0.2924158710249035,-0.8988751161763894,-0.5569266348512427,0.5099785847790762,-0.058680034322132785,0.3188991712931726,-0.3769916006632972,-0.4184400958402717,0.8180792528231838,-0.05861322382463546,-0.27254784179953495,-0.8298153130021731,0.22222133807254796,-0.3512395329906254,-0.27169365532773404,-0.8152323963256662,0.5093908065814592,-1.1404138557340326,-0.24477171838664832,0.8184622498206766,0.7588099086810743,0.08854259314674738,0.16112949272207902,-0.9385773794282292,-0.7824870104402465,-0.6088006542490508,-0.19500420927870465,-1.0037377458347194,0.8309439248200893,0.14769971368700804,-0.32735409760299977,-0.40851467677505865,0.03295682255456984,-0.018144441473359585,0.9046199418355707,-0.5694301975417854,0.6375953661517961,-0.7466467696025018,-0.8151023156771458,0.7272914552782669,0.8479243438780989,-1.0022880956238258,-0.264457892219101,-1.1021182876758966,-0.2647605018652338,-0.43550011737839206,-0.28183249472266353,-0.9296802696471554,0.04649867494264773,0.5473505226244455,-0.07340452871113327,0.14465388792711611,0.6480996492412275,-0.8468173360131395,-0.25419217238052355,0.32229526966528865,0.24517543441904519,-0.893151737729795,0.8309004601341279,-0.7736259171628391,0.00738543868868965,0.09338261749223742,-0.8010573215178276,0.2693379418499743,0.5171238973750346,0.28217385892867386,-0.18163387060880692,-0.1845500211895952,-0.18499521635879287,-0.494485774294226,-0.6338785469403438,-0.37907635689345387,-0.5664673930668991,0.6567417765803606,0.1892065484151581,0.8534421311568046,0.5327378314806224,0.1663342208002168,-0.19145292572980696,-0.8234301986988287,-0.965446604795283,0.3554039024846839,0.007902308836218307,-0.6855277933154914,0.8408520826186846,0.4335680497790502,-0.6760797958349225,0.45032231815138374,0.41739431781767666,0.4913644064938745,-0.6420240044945937,0.15578791964636415,-0.3461806777401238,-0.30904062078189204,0.2271338696146869,0.8393624879749924,-0.9361016063028261,-0.37352862323876257,0.3146955642704479,-0.2365317309032592,0.4927304149779217,0.2667399320768786,-0.6602207223187302,0.8542358287403611,0.11643111047108042,-0.11101094514434551,-0.6749706589936124,0.88643167101264,-0.2914821679220506,0.8219636077940926,0.7455659912739895,-0.9038154754564593,-0.9637400745083958,0.49251381495482555,0.4916002070576828,-0.07003960224403952,0.17331808711805316,0.794890273206958,0.2973014913811052,0.17488308792870644,0.10758537773552872,-0.026021213674088883,-0.061340851554622926,0.3429326161200883,0.3753115818844831,-0.5657301368477075,0.6213573970379636,0.9648237851382225,-0.2646307662987647,-0.2292487780622035,0.2459151381348332,-0.6087869056400844,0.2240198166483161,-0.9780357772360045,-0.014090731496916736,0.33124321544013613,-0.21900301099221697,0.26805145540060843,0.9432402331448382,-0.30247900907919123,0.5098056256185453,0.969602430695908,0.7303072437119204,-0.09007451782859155,-0.30671659815848556,-0.19105927975215042,0.027064022106367158,-0.016194201014051668,-0.22832999723878736,0.6222229823248793,-0.11854647915180544,0.41640785765361704,0.21209696528121572,0.1787674573982581,-0.38040594916004905,0.9562794092019283,0.9981457011703513,-0.11285482481624669,-0.5814032590070155,0.8204860465125999,-0.20689338739153024,0.618889666646997,0.45417902221240175,-0.7495963336867603,-0.6773240813496696,-0.6345437018207003,0.2849017218524556,0.36391743426920153,0.16268526178149795,-0.39421095524235256,0.7893112837510093,-0.44850076032262276,0.8830726587431614,-0.24583296000918325,0.36008721468936056,-0.717763682490598,0.4168123725663901,0.9207642370415338,0.5644170878519246,-0.6739175874048374,-0.4217976001377134,-0.7749322083963569,0.13461580531120332,-0.5973616615288484,-0.3679936247595305,-0.36138110351734365,-0.9357788606000316,-0.5907356222176,0.2835891666622661,0.8931924620851782,-0.5945404978549316,0.409133399098999,-0.28782129925603545,-0.017107138099368265,-0.8969905245070839,-0.8053157799356508,0.25068871226210077,0.6402024973302816,0.004352551227446796,0.24356105780690065,-0.2444542961346799,0.2162165377029607,-0.7244148624583056,-0.06092697304614347,-0.5243122970161058,0.6529638411183264,-0.47620648221353784,0.6134355515217508,0.9447137256108855,-0.12942865964497166,-0.6984881840929643,-0.3002627618873374,0.5358073135849314,-0.5525156170930222,1.0091705329450948,-0.40232233494015274,0.7290425329683633,-0.15494085826968984,0.6799837461408045,-0.5812490218167496,0.8386725037539904,0.3246458929101291,-0.26505917904627363,0.7509913725846771,0.3276046260798124,0.09077840870111613,0.26301090477803674,-0.4698674608959297,0.7709211674887085,0.7339779781394561,-0.3991421575490861,0.5533443314841713,0.4588576261254713,0.9675210431008042,-0.1344469927354767,0.5260100582658073,0.9555053046462769,-0.2848890668339731,-0.05330185524952902,-0.20753254931536402,-0.19765495668228716,0.2183728053078895,0.4540903773590976,-0.967282778254226,0.03344866400737737,-0.7739959883110893,-0.7320618298776675,0.1729318685093189,-0.22200840050285964,-0.14469484690142262,-0.8346782121974129,-0.01609793033300142,-0.846185270230037,-0.8700789674970768,0.42488807731820044,0.47650989792514165,0.8781912992662055,0.41311954740613155,0.0213849006378819,0.5563690526565575,-0.03098290873207399,0.13081641099771119,-0.19435096130041565,-0.14640535492743048,-0.864321362139104,-0.626798348301653,-0.17383174812951185,-0.5893206756212697,0.7548694069601714,0.8914494153165335,-0.2296365250155441,-0.5680737096368873,-0.7400208944293212,0.780383388983068,0.7137109625249036,0.7061084673685756,0.9894372851017351,-0.4901382930289285,0.44434785809123845,-0.5733954765081858,-0.659933386883288,0.09210592196327422,-0.820092993958288,-0.4154088817777618,-0.766968859231288,0.014730891712491534,-0.914072611560496,0.32518294687459504,0.4919673432213783,0.35658987063837255,0.49508188768555583,-0.8366569858404623,-0.0727948681337602,-0.5274435821662569,-0.13289295703676182,-0.8828554698067724,0.13158850298710686,0.8341265480881197,-0.129567809188105,0.4271118823231346,0.8457288602257053,-0.10070903911556721,0.20667143385055378,0.5557513688990665,-0.8847636498898687,0.48647615720462095,0.07517292643491418,0.16355072321978528,0.12357113042406696,-0.25603413240283535,0.6188117036495108,0.9561508955303828,0.40400912936497174,-0.42302227000000414,-0.2162366823800843,-0.44249000136788386,-0.730972604563237,-0.1381789769767414,0.3117179892312068,0.10929346253221583,-0.7736625174845061,0.3472096511833089,-0.08589531761224886,-0.529265919424253,0.09109767794303714,-0.6119155094719498,0.2628068881108095,-0.7764715097947691,0.0002713745176788511,0.979486491601721,-0.6438232166602431,0.0020002347090345425,-0.816498808915497,0.8969168157307754,0.588550167757412,-0.36582344538579487,0.07236900624992652,-0.05414076955033756,0.22677160529878465,0.3161572541924633,-0.817403922567526,-0.8947733172085726,-0.376809278606109,-0.167030058676505,0.0011984459020339955,0.36720054970172433,-0.5923433817532783,0.5287978458104562,0.2394063381322302,-0.41299901648765336,-0.7770926318754627,-0.3200386884430899,0.43856008151594367,0.5667408461840598,-0.8097777672394513,0.8274045202696221,-0.6231995577397567,0.9286301103537492,-0.42971016925452415,0.2761713426531409,-0.08935336963383637,-0.6366264941682839,0.10763619312052346,-0.16238182123573439,0.3433451950638316,-0.5517113338851085,0.024319670805967492,-0.3889010061832159,-0.48129831305896786,0.6925544338053751,-0.5733011547742604,0.5464597156155504,0.868621339994454,0.01094098741775661,0.7763152533242067,-0.7251137597331693,0.44739465501145215,-0.6943728937222721,0.9584658336814534,0.31031844080815313,0.5735110011191985,0.9107367372980659,0.6462606261254134,0.7708912436128706,0.6780439054624294,-0.8467300927328945,-0.5774448121700261,-0.46397008937318485,-0.4727431407401847,0.3899440188695435,-0.7813708579637622,-0.30850109407473125,-0.4703754201722307,0.6506229788350114,0.79400297835112,0.1652587986179337,-0.27574320489279724,-0.3404007870754673,0.11192834986425826,0.6331317529113547,0.020353523792482786,0.7139452744233719,0.11400634861332565,-0.2616812954280074,0.20041802642732556,0.6199327214535492,-0.22564557987928435,0.08280574919814694,-0.14284719614657918,-0.2173864710294958,-0.32396742171334236,-0.9721341716378622,-0.4393440505989391,0.6792383745631769,0.32322230181344136,-0.24315753466883971,0.10856016379791855,0.10570458349268674,0.8294390154472147,-0.16789403570767233,0.6597341880511997,-0.3421363080020403,0.6405227945736529,-0.10824204255595271,-0.42551138036197633,0.6798610507120504,0.3620329358170564,0.43910068404137403,-0.7869026538477488,-0.7901483236980864,0.7528192715501003,0.06193021051796903,-0.27290109830715836,-0.5876681424862334,-0.17834643854359128,0.21264460426617182,-0.467481470629496,-0.11902633143149956,-0.5299541812277611,-0.17557905827017856,-0.426210769840673,-0.261054490669529,-0.9751977549420823,-0.261354640172804,0.11342291356885761,0.6848481197540709,-0.7075987766571059,0.6893905476527945,0.5433908720191221,-0.3157450456223194,-0.8939243261716752,-0.8700925608621586,0.8544549797002903,-0.8749678302575261],[-0.6791019846692277,-0.8341514652976136,-0.4168247072492046,0.923784652380252,-0.5887416524358735,0.10044939653530482,0.4726130999672704,-0.9670075880273927,0.8164940632603201,-0.16776716128121016,-0.23975708773796445,-0.9939260379825736,0.7305626236321872,0.7122750342228121,-0.3986870549885211,-0.7985886203984411,0.8691899128670624,0.3052101895123043,0.07334655635330467,-0.50671933468564,-0.7958365265407421,0.5677513905605469,-0.5196852833448964,0.33831485976219744,0.20488787820287202,-0.37374368182985096,-0.9997914339533294,0.6455405974366535,0.7134678456542058,0.3704785468004639,-0.523543290075168,0.2584958546847598,-0.5129288102508069,0.23970246489944502,0.9321542602494857,-0.4437679808582091,0.22635917049510867,0.5725732022027028,-0.8565297473506515,0.26253749194541803,-0.13642790508436853,0.011933892559817732,-0.3260443175260038,-0.3356872150271284,0.27910778062895464,0.448428044284446,0.7878248999904816,-0.5935087225818305,0.1534661284116736,-0.19871385960914162,-0.1684597032918973,0.2168685414256677,0.2885683376906667,-0.07163017059300136,-0.5483546443685028,0.5685609652352608,-0.5033202631372555,0.44352038164137264,-0.192070752163783,-0.2685116510311678,0.607253543513115,-0.7038212512181059,-0.9824161733738572,-0.09845583949158626,0.9170886471216455,0.7519095809481869,-0.9778346494630883,-0.8397207533037702,-0.2893759142614534,-0.43409166742180566,-0.42837550040567635,0.8992658612664027,0.6073640488012135,-0.4121129131090202,-0.21770877247867215,-0.04695657674295652,0.2007517782770674,0.8885328195929164,0.43641563342447,0.05185815820074302,0.019141274189497695,0.7184400252446475,0.7632269190792349,0.5164990353805781,0.5463189838924145,-0.049896360907595305,0.6916421400050843,0.8930517019055082,0.9430193477198907,0.9356062191418419,-0.3347057048845079,0.1258084044446964,-0.9408119262709006,0.5367008878300025,0.2363702835115546,-0.33152273833140933,0.25868017451616476,0.43032946872616135,-0.9591344280248166,0.9574963452026701,-0.2312240162181359,0.9177105366569238,-0.5061243773584091,0.08287828758907496,-0.12551136252822917,0.25950404962880586,-0.5947047649840603,0.12821773521431554,-0.5063349284259964,0.5923434240191101,-0.20302534811296624,0.9597373165416125,-0.7300425187337543,0.42550693278539065,0.8329850420341107,0.8764063536890658,-0.8882357051614376,0.4609912320785184,-0.8564196902169631,-0.11915897361029923,0.8838157573469062,-0.8651260646678884,-0.7376497952350574,0.3984704636116821,0.139722102592238,-0.28078329423664083,-0.5497191557126871,-0.5113826564505247,-0.5502011212627976,0.9407325051263454,0.3291223307739667,0.7972780206148313,-0.43438590362514384,0.7427075195357199,-0.8149489683107723,0.8210223620371109,-0.3813505617309266,0.10150591405078294,-0.11277182653017492,0.06972466921944598,0.40947444465509886,-0.8992683436888957,0.09994702439193492,-0.2896403599449606,0.5812996866286103,0.6971190321802143,0.13773271426984018,0.89131239590181,0.7654731482185081,-0.372788051216695,0.1398386293783958,-0.0984317908683239,-0.5013202526811035,1.0325778050834706,0.6492787696626484,-0.42533564853512545,0.7369921845260529,0.7745175900411017,-0.29031132869311577,0.11025562245838573,0.37754932128866087,0.35137031585294765,0.8775571205180879,0.6906999957467224,0.42406244365459617,0.7150410217112029,-0.2628053732269646,0.5210972581916326,-0.68211991662199,0.636195476562059,0.4002247521828641,-0.23485383469195084,0.821624220681298,-0.49052981907567866,0.3217550255210356,-0.4774193389420946,0.48203446808463474,0.26253706106073077,0.05375925692146144,-0.5208783723022411,0.0034853406149829937,1.0208750891185687,-0.19828240170137007,0.9112102857551221,-0.02111745587143818,0.7772369885877659,-0.8950889203604789,0.0836132276291591,-0.2764808450305326,-0.6495641331844528,0.7526197077781641,-0.4144473735500174,-0.45602467607235186,-0.08906538510048372,-0.9757975992198925,0.667195345594995,0.8909878988604658,-0.9212912329753618,0.007292299049133576,-0.7417448276080119,0.598188735103807,-0.7368599470132818,-0.7110411564254118,0.9837669359735186,-0.754578267310163,-0.7835404898741414,-0.6372149660587345,0.8098764997448433,-0.0953174506057638,0.5244327424566478,0.430912830111586,0.3080023307103295,0.29628739265693366,0.8914711161602266,0.5765250341866126,0.24188400374776106,-0.8646808259710606,-0.5213720873132174,0.45545552466818023,0.6364160707068905,0.6627955241301615,-0.48088981836766326,-0.05098612537517768,-0.5752437674059024,0.48054914674928206,0.42790938028096254,-0.7470838401601462,0.14986052140361442,-0.5464639523653191,0.9168892569650869,-0.4846281822831004,-0.18344144505317547,0.057277959761462424,-0.7322464507311583,-0.41710555327965015,0.6422419759054313,-0.8025377236207794,0.11456294806820137,0.9678966059853897,0.028591567090956897,-0.666849325136095,0.5013512398313237,0.7229014699765511,-0.5071702835778986,-0.19732952926310815,-0.8483039339998097,-0.38993525821826147,0.16610964033652798,-0.4151584639171568,-0.9616331900047218,0.0834513639641618,0.5372434342492403,-0.5095538324152264,0.7275077585444765,0.5004846086971505,-0.8660780618998482,0.5592420106523384,0.6135428038456935,-0.3322479856416804,-0.7855742418358159,-0.5007455153224988,0.4640257361520675,-0.8535054924499489,-0.9496290936311506,0.153052453679655,-0.3765959260304312,0.13247508734201321,-0.038430640543035036,0.08531139352101505,1.137094331302256,0.8600338476666445,0.452507365241094,0.21824431335055386,0.8953164961274802,-0.016727552342885425,0.2098525204968177,0.8887040602320709,0.08333576160239049,-0.8275825204446621,0.7701691378565236,0.9235730194748193,-0.3963778777138279,0.893518380468457,0.17790046523277578,0.9456415602369227,-0.8713684354220208,0.8997429564425249,0.6023779937536309,0.0032132869430257427,0.7594650183367548,0.7319073979840094,-0.6502399326720377,0.7001545480923236,-0.6955835299224746,0.33950799878899734,0.9255496500283023,-0.4139753957157214,0.719139322614257,0.12489794394177785,0.37325857826537145,0.8033160899903644,-0.4053798412808915,-0.7755003697406139,-0.7785782889105429,-0.8362932241650307,-0.12584617105847515,0.8852984619650787,-0.6194234621621288,-0.7410431199204273,-0.9856231969052928,-0.6586751352575761,0.5872015175412366,-0.8965634709006495,0.23051092730339326,-0.4687253399014618,0.5989121620122666,0.0826421289190552,-0.4758799637343413,-0.7693067446369259,-0.9604794855019158,0.3360950379482531,0.41485041871321576,-0.4842796965681065,-0.33973517166166267,-0.6622136700911957,0.07711539175135898,-0.28364815970310925,0.8593793128680386,0.8905887180586467,-0.17085917939656942,-0.04332310474806822,0.707946615156651,-0.570563868395658,-0.9997705127585188,-0.8394300590789086,-0.10226550047461203,0.6002601777281118,0.2614527619006751,0.6268934381666982,-0.12112782566530551,0.9780737257075672,-0.10465359287338916,-0.4778623845177429,0.1402160178155663,-0.8677655218508947,0.055174980066679556,-0.22266267103278398,-0.43650714523433837,0.904428707108261,-0.8144094922305946,0.772355816124095,-0.5546991280317559,-0.6053536503759399,-0.7652250431977485,0.07320156421463016,0.9929665795504702,0.056758041776554836,-0.5832896264061095,1.016704605515222,0.507704042389478,-0.3721976041143105,-0.610626553044608,0.5495081889985383,-0.2080253185997063,-0.6186367091273901,-0.2972304023922229,0.6831577309629362,-0.4893013708912359,0.5472483108091484,-0.1101632441480324,-0.11654199056433898,-0.10529249915991142,-0.8031424881247244,0.8805638338683536,0.06706679331499733,-0.014227291083537779,0.20054479359109628,-0.3794942311675501,-0.1791961962595728,-0.3396440593756028,0.4149843440317138,-0.7490045617881238,0.11680022416838133,0.16603306616834734,0.8661638883248697,0.18411713093471382,0.5463980858322376,-0.31449482354317265,-0.13657560956350512,-0.5600226096502308,-0.15519065578744975,0.528206012941288,-0.30534125171935145,0.04155195314295956,0.005929261281871051,0.9231055722325076,-0.7833878896798886,-0.12233422454677174,-0.9430817184293193,-0.44966035004791344,0.5770319380837782,0.10084444015090406,-0.8702565487907371,-0.5967258304501976,-0.5652206984362318,-1.0659969612386277,-0.6881657521543251,-0.6520086516398564,0.043798295444915224,-0.3581866090209532,-0.7897088575455495,-0.32933410845138067,0.8473736607652321,-0.08541285319942948,0.6750100072800629,-0.10771851754358698,-0.2293365649199594,-0.3659922865951452,-0.8506433636286567,0.5576952745484633,-0.7353947259164406,0.40961424145474684,-0.19987329276499144,0.10269985326497687,0.4810539513496352,-0.5511951723307079,0.6067362363738353,0.34938710491694924,0.007757887607150861,0.279121090389119,-0.36590277857359116,0.8391388277247291,-0.2439224145719756,0.1226329028481985,-0.6292820698184952,-0.5231397546925981,0.5240891900426657,-0.3038902209405121,-0.7681500960681698,-0.29084054974381146,0.09004010627645398,-0.1662185308795409,-0.6045716826138641,-0.564622137844471,0.5099575308663847,-0.24154787381897821,-0.15221630908512,-0.9496836551521644,0.039310201947744705,-0.03887463314914008,0.007409185025476682,-0.4180181250024529,0.3723463327018235,0.8419429550577799,-0.18000365421686884,-0.4520660067720603,-0.9621980188034124,0.6100753502998854,0.2269391294884335,-0.7031872309240818,-0.06284109954217258,0.4012407016786838,-0.9675728155656855,0.5315930510733478,0.279651112063521,0.05442776515119661,-0.503874844431111,1.054927743086629,-0.680654042284206,-0.8524567208206755,-0.9079788990459353,0.8084499881731662,-0.7692767444866031,0.4304918230422787,0.06311941970148365,-0.6988181827242474,0.7169343134071915,0.8253848747696164,-0.22405835599849727,0.17924668038840946,-0.19586710969331408,0.5401235534414389,-0.5129821408992143,0.29040487464408676,0.6904547371812241,-0.09370276683686464,-1.1029277902570043,-0.9806767063822971,0.6552788724933623,-0.6317043930304262,-0.24467356904992654,0.2885098639050067,-0.0713692492298393,-0.29301419663309686,-0.4529546472550176,0.15455343040058997,-0.15630411285650167,0.6939496792134525,-0.4598460184499356,0.4219598202823342,0.013365975629945003,0.5224877257158964,-0.5347018464785497,-0.3631277819081873,0.29367728486197286,0.7472188879890314,0.851150255691503,0.780673269790952,0.9564041891555817,-0.9102192854285494,0.7059923839564556,-0.8665883209330266,-0.9755759482240008,0.07416937281996736,-0.49257925914614165,-0.7417745697440472,-0.19088559938174876,-0.37848799728214405,-0.49475845378843025,-0.955926826036429,0.5675884147379752,-0.7141051879175583,0.2824909474215266,-0.8241738449785537,-0.5214353654856198,-0.5325966784957907,0.8135101144123169,0.62921813802825,0.6804874828958842,0.13342602059315836,0.5911270177328579,0.916325430445584,-0.9446417746339444,0.9967351088996006,0.9407719625221624,0.6489158012827625,0.1821865555439236,-0.5465953983468166,0.2845979417662626,-0.6896828437670927,0.1526668629486308,0.74365122609153,-0.08245396569560286,-0.7106202301527517,-0.8595541737023416,-0.35904812515643814,-0.11511723483474053,0.5951854922768958,-0.12592725370331537,0.05664998090989979,0.22464849571074033,0.9260843151545604,0.43578659639888784,-0.3877466994649891,0.8787867477257306,0.8589341895519956,0.570944006773894,-0.5212766481087807,-0.47944771757538296,-0.3099185048232228,-0.2926480171683581,-0.012175443908938988,-0.028719051862415974,0.7814734698686263,0.551577865587764,0.28356489758987846,0.9946498338719768,0.715671664153617,-0.01638939287000418,0.021546378991126512,-0.8381613850268207,-0.17675617292137227,0.16083255766253765,0.8893255669417129,-0.5689334906347655,0.6001519620672726,-0.7580909847957101,-0.529704063693028,0.23468947349194424,0.6591606272741193,0.9340479091514118,0.9103716846073096,-0.4058987615562807,0.5322268118494926,0.43846819901284034,-0.3020633038644873,0.5527005403428191,-0.8231371548494546,0.1625223794399009,0.7686901986991228,0.21089562818410315,-0.018178704159649884,-0.451638630246519,0.8665043474923194,0.9079881672052632,-0.1122990514708486,0.650829382455965,0.36878616184468876,0.1773845273292958,-0.8202684099588233,-0.4274992462389605,0.4974864533870455,-0.8607779303459075,0.39143692559935583,0.9103887960367664,-0.09583568366306436,0.6584152297879283,-0.335645824254261,-0.7861708869651929,-0.6308479934525845,-0.9202755925942777,-0.35430562307571245,0.3714871765255783,-0.9004958520505854,-0.15844584307991716,-0.39853282664393497,0.12787740666208514,-0.677038440524333,0.512879868243053,0.34794157801658915,0.44813715894504597,-0.36377608837327313,0.9525765476973492,0.7222016457479313,0.8634888115257467,-0.8449366701381725,0.2916088237953945,-0.8859842678935151,0.3509404033305843,0.16738569906420903,0.5253634020286663,-0.3446729379741057,-0.5328340120187649,-0.4572698680805846,-0.0959377389476384,-0.5825906660319337,0.5077248787300968,0.6682703331338421,-0.18425470271594738,0.5245875954201232,-0.9171348866443426,-0.08003481232299034,0.4725660053452478,0.7408569075889235,-0.061788772254760094,-0.7721176781623731,-0.11312175032522416,-0.37935341256031774,0.5164630257041608,0.012002870197014641,0.5327967666198709,0.5061048737423505,0.1472961365585795,0.21956933762021766,0.5839904791640277,-0.09690500377237396,0.5109807275322823,-0.3622761381041365,0.3049785020249925,-0.45783280166943335,-0.44645432687455233,0.25459124621801654,-0.5665758686320176,-0.312001109021411,-0.011149477808577212,0.3946475875077574,-0.494618341198323,-0.13101688111944856,-0.41879545708906607,0.6909723505671858,-0.7998089163882651,-0.6299734278178466,-0.3239838178304031,-0.43479581036778114,0.041217472032214264,-0.7554189391342944,0.0644187621832506,-0.9157174126414009,-0.7337238370495915,-0.10819264955492837,0.04419457048441354,0.5416793287297605,0.1251382563412461,0.6789921098362882,-0.5465062697138247,0.3291208311414101,0.9330269447294843,-0.8009955086283037,0.8532271669183127,-0.19682829822036974,-0.13690651691952307,-0.34740975447361044,0.7954408991299474,0.8553771771164119,-0.3574765039815269,-0.8551433608302107,0.23177227323820113,0.1884331918409914,-0.5542010695341295,0.515920254491335,0.3388245854029557,0.18371724972907222,0.7883598433780694,0.041595585807190666,0.5197455877815378,-0.8397345807978766,0.8270861038975956,0.18894277729297465,0.1388552252923077,0.5145613399150722,0.4576745737475026,-0.09228957875726763,-0.4797112457241793,0.616472479588113,-0.7641766218709299,0.15240097627079635,0.00773257198416464,0.4229710358313763,0.021549102223751306,0.45951798248587644,0.4876514328022003,-0.1830003423926697,-0.7365059112962311,-0.12104638703819379,0.299565846308297,-0.4080515822666717,-0.3731310985533094,-0.144344219472611,0.3367775889365201,0.5755002640225189,0.5034522141917122,-0.7714915224402095,0.22548956731204822,0.49910969302030656,0.2027242333683314,0.048974798751159974,-0.3975185324873013,-0.6729919005572095,0.6639836873440179,0.7265729849995913,-0.008244028864127327,0.5349635311086298,0.5717981296508126,0.9077033660540771,0.45714699544463233,-0.34548331479840516,-0.8455107966259596,-0.9875272235927541,0.378374924899838,0.6827474894584472,0.018031535152934278,0.565609619095423,0.7582782884144224,-0.304119005772014,-0.578512059586747,0.9802586004110854,-0.21333511524689053,-0.5144139156343246,-0.9638563709205541,0.9335376750450615,0.7076268580769725,-0.9293182584746982,0.1374044004806171,-0.13722025625390316,-0.6501700679147879,0.1863407936219319,0.5884226908790592,-0.23891574006346647,-0.959500163159435,-0.4474619715564877,-0.7617794069590826,-0.6982574836897729,-0.6747980391975604,0.956851047313276,-0.43402700932204347,0.040689083956240366,0.4566769073609167,0.5663929583613848,0.4691065884544775,-0.8642393622233544,-0.5632251228937406,-0.44487729526385866,-0.3124563313061546,0.6124288601975341],[-0.970464567061216,-0.30429492454465734,-0.2659768990730318,0.288432270361199,-0.5539041161283875,0.8306747596987072,-0.7335579532062431,0.7336051666058414,0.048943156142640554,-0.802366432817029,0.5452996145609923,0.2947493728510251,0.11187504060176723,-0.0557443320614035,0.3163746287544966,0.7911613489523863,-0.8230156045265922,0.7277079064164615,0.12332421941243243,0.22629470946978492,0.07207336465793324,-0.08707538146622573,0.6471186123952073,0.9797929184568246,-0.9875878857720108,0.46825844707552866,0.4067773953148879,0.7008709519015057,0.6683747099380088,-0.4411730060936012,0.6928731474120657,-0.7457657974678593,0.9444887646234323,-0.7488713336236557,0.9795329921208209,-0.043333851551176306,0.2506008511652005,0.9441607321990424,-0.7394955230689566,-0.37498399475480254,0.7425435004275662,0.005637774763615002,0.4978278965639462,-0.3941020961553444,-0.9044339715225599,0.9844351254164609,0.7193181905017701,-0.9375392236922004,-0.09118238205383364,-0.8051709392417605,0.021617186129912546,-0.030533337745255018,0.5929768581042798,0.7268899483431244,-0.46649400643230843,0.5504399232733372,-0.9860583506900555,-0.2936850508380737,-0.5126692301104301,-0.10063002343347005,-0.5892652329765911,0.8457152059281192,0.5720737147323094,-0.6526577639760175,0.5728457837753066,0.0023995909101286565,0.00316763638858189,-0.8061306942966259,-0.025680655343348596,0.18310716386584353,0.717913603606786,-0.9441793502729107,0.07462455953448321,-0.5566687624976034,0.8375695238064931,-0.5178485379227853,0.6980683668854343,0.17865522973807024,-0.6472593899676651,-0.4389491129312619,0.3632726092835378,0.5017462162069055,0.8123782959554777,0.4968472946115079,0.25230883824124506,0.9775483337701409,0.44726750643092483,-0.8532873777181362,0.9035480843170669,0.3732697210105082,0.750712651946075,0.7462758905511829,0.33694835943659746,-0.7926143713258484,0.6353577457331201,0.8892577301316107,-0.5567370453488824,-0.14599283178868233,-0.34179757598759053,-0.3721589171083391,0.4970212721422754,-0.7208968502542498,0.22240055516586732,0.35308095342996193,0.370816406070817,-0.7755335861340761,-0.6267005964717319,-0.7535102832825127,-0.3072608640880017,-0.8330408760570309,0.03732175475140309,-0.8997553314092261,-0.17918017412376663,-0.456845491882941,-0.7394564023129284,0.5524045549479335,0.979408358873668,0.48618238083209514,0.7993414537748503,-0.8447096553338354,-0.8004996932643142,-0.710032598501981,0.41805711070537527,-0.9383568067863911,-0.24292565717359915,-0.6068487818417648,-0.9840491613228857,0.22134442476757002,0.39285513003545797,-0.6712878558138855,-0.7483234664188629,-0.6302971738074451,0.21914500811929372,-0.22307112058822354,0.6675283023439805,0.02769366037448097,0.5001723584438457,-0.6434739981323201,-0.5638015619745054,-0.1170393420397815,-0.7241422183617652,-0.8183452439996626,0.2795516473979007,0.030223800597844554,-0.26666289043887076,0.07450560686825464,0.5601832085303171,0.46174393796443397,-0.593938250606684,0.4009587919126304,-0.7130143602188811,-0.7777281500638547,-0.6826882420902178,0.8427843009456597,0.6144094169495854,-0.5636483895575087,-0.4705401230381829,-0.003984765153612927,0.22456997212413948,-0.20417233699572707,-0.39544462192252794,0.573853541656192,0.04065458833620122,0.05573848532699149,0.9693135058527205,-0.531298810876616,-0.5303649655113091,0.7385309142856376,-0.48129376098774523,-0.651139333601976,-0.8968980684497265,-0.9459487478644866,-0.4050955652370302,-0.26314457770998917,0.7634412075734344,-0.7064142483872732,-0.9414294637635686,0.022320829623275345,-0.16576807278938177,0.053673847379692455,0.02412673705445321,-0.002203224404182779,0.9676995914878355,-0.31295507863823074,0.8110874925926906,-0.7647385936329208,0.044416292292056486,0.6651742646007847,0.9479184657654924,0.4301142810725367,0.7147544696114329,0.08150783624390467,-0.9202789085604289,-0.6251242991360664,0.17305648737405077,-0.41528300265479223,0.8932723965346014,-0.7032864368976854,0.7202132275931092,-0.30097593045795734,0.16922981842621984,0.8440497460184946,0.1973119566052432,0.23766309974143385,0.37001594769462504,0.5666939369326293,-0.3849155982758484,-0.6618580307480383,0.7325272207955579,0.14551160343927907,-0.4621358400235139,-0.9951347995102963,-0.5415000670128459,-0.7888931763626983,-0.5485356465828665,0.4020936148744386,-0.9049974862320697,-0.253970554903609,0.9951319500045893,1.033489922526157,0.9409130904085999,-0.3901158525300253,0.7685860970918723,0.2369094669002761,-0.6329706657200432,0.4770088131716825,0.9332782731787869,0.409895162380502,0.4592216092770222,-0.8643080981515778,-0.971870596529755,0.22508052813955476,-0.054150572937073205,0.5879862017168582,-0.453070511978007,-0.7858284030177921,-0.3617146848396553,-0.11581651904712412,0.42057700434606526,0.8041795496929662,0.5397415017915086,-0.37278956383410183,0.3292346321018868,0.428730967169852,0.5216370980578827,0.42525252424289645,0.5472165775930241,0.6941350382349525,0.05140159288245832,-0.011379153307597726,-0.22854566290501627,0.25433128469610056,-0.31343418052280797,0.2821785723188219,0.1278056877858693,-0.9883946505407261,-0.4374597113937509,-0.2234368436462805,-0.4754606536763327,0.6264093462504192,-0.23349481369571748,0.12157010920046835,-0.6344927917802455,-0.3346369506095029,-0.5409415572278702,-0.08951150113567592,0.6569925143742704,-0.9519744026447688,-0.41090559727117193,-0.6642205765584798,0.8951480146312544,0.8448295875986166,-0.6028614398593395,0.2221557625529934,-0.5285993039324817,0.9823144236702096,0.5372659701902164,0.0019442624938336354,0.6303120086570784,0.050553359798036546,0.12198134679603045,-0.10437853741569574,-0.1996072240049645,0.5953394465996327,-0.08619940704121211,-0.36855783156658417,0.33593619716685075,0.5390211456452331,-0.4251932732910824,-0.05696345897713278,0.6736343532137007,-0.39371572102787045,0.9480968745267083,-0.17590530884898978,-0.9218072808151492,-0.10769310213614983,0.2876948907033566,-0.6479092701105905,0.6576162073725159,0.5844134542118835,0.7085455017211859,0.8368064977829835,-0.6997798512651969,0.572232814149314,0.031134917902967348,-0.3668802743551727,0.3676151701905465,-0.3068621990572251,0.9503541123864974,-0.47421039888783423,-0.3949667993839666,0.726815047582446,0.057405833320304335,-0.5041159968443591,-0.17820951269834856,-0.5516896782821387,0.7496507023649145,0.25808099182333655,0.4486621524326727,-0.10246146784216238,0.35686778727875484,-0.6160000447753702,-0.8528184564692901,-0.3519923168012786,0.590147148701756,-0.4350467156817554,-0.6767198032760261,-0.34838415782840176,0.5084820731004037,0.35980755087282423,-0.5656468901230656,0.4458458212500661,-0.9835883717005139,0.40061372703737363,0.8414808508224421,0.49528620321935746,-0.701450956478824,0.6616565474234987,-0.4289087164673011,-0.5710657365877629,0.10055559029014506,-0.3669681428875887,-0.8730838710872635,-0.4669358633745759,-0.7225342876069953,0.35409541208362866,-0.3898007535892679,0.8157305030191913,-0.22656173404771174,0.6786400484468468,0.12617192845559808,0.3250881907413997,0.41555813273356634,-0.7297835379007982,-0.7241312318492579,-0.37988927263721445,-0.08306184130630924,-0.08709368271614691,-0.8507617856074643,-0.2900039432838385,0.39133306868156587,-0.4727390430726512,-0.6359372688156566,-0.21934507887328225,0.8667134378701791,0.9095282859687465,0.12592473294733017,0.5070313326187668,-1.0034648431820865,0.28448143220480915,-0.2890787269298535,0.3297701957952082,0.8718515609331038,-0.7093118666805023,-0.1105927606796983,-0.28849344742570465,-0.8367688918632441,0.9692707573273484,0.9462031198167771,-0.9218430035922104,0.2555278592658992,0.07531954537101,-0.14719083907561498,-0.6662428591635596,-0.39045532312019227,0.48409482073222404,0.24192444371718863,-0.6802652567870293,-0.679913446632908,0.5594612945797715,0.053745339748752,0.20083709817603923,-0.12950290717267832,-0.7321710250955038,0.7336497647158657,0.4873101557126183,-0.3710491400220896,-0.8032237714550978,0.8281907931285485,0.6131175543392385,0.9275887820868338,0.019981420668397944,0.71248863479642,-0.6877552120054208,0.7545342637230799,0.24265630952598732,0.5767344150512878,0.05501290891781796,0.3375041253442403,0.11337209516083234,0.07793489685303415,0.20746592183968646,0.49710973670531766,0.11834310121341204,0.4092000014200554,-0.4707891518511528,-0.8984453818965045,0.7796534980887881,-0.969057142888746,0.5868080064904397,-0.293724400409916,0.4719684977665308,0.1610557650648817,-0.0954844617064586,-0.7569833005290811,-0.09683067205094892,0.03338980577564686,-1.0570972721931706,0.007404883716116363,-0.15729236572020103,0.269132955910957,-0.7029142580138708,0.7996683596188585,-0.2284915615383867,-0.3608305192315666,0.6861821016491461,-0.8593336569241031,-1.0376786599909924,-0.32392304469351973,-0.7806750995297741,0.6234502711632266,-0.5330203130436618,0.7215553589949194,0.9117599442007185,0.8752868915221622,-0.672661224877508,0.3351697410511305,-0.7627254432042716,-0.0869570359744678,-0.7579096662905012,-0.8384917258813896,-0.5506912693276429,-0.7972322120889354,0.3649043595694075,-0.558895215024685,-0.46759706755098845,0.7404874229048186,-1.0166784807086613,0.39399458727287046,0.5473096187192115,0.7920842025178734,-0.656098693722615,0.3717926970635546,-1.016869148219772,0.3162606505083024,-0.7651630446262894,-0.3894354554546309,0.5231788594377302,0.34267877047437356,-0.7303587483115241,0.5788519047684944,-0.8627190387443152,0.9902691535928325,0.5910713178555241,-0.011122168532047094,0.6688486108473262,0.6865690917430101,0.5248438728294604,-0.6768124627820555,-0.1591373408322185,-0.4367360574793473,-0.7563251844927402,0.9272163360509017,-0.6220530142877366,-0.20731935469881965,-0.8586675929468638,0.9778260597778452,0.19611085040374493,-0.23112063276677347,0.004456485336795432,-0.4478656086553885,-0.9433024779223067,0.535135386346022,0.12752330962636882,-0.08392805930661598,-0.10172350490568628,0.8826292964125334,0.15592748164117737,-0.7502604757580648,0.7940212347546608,0.28168478057542873,0.07393888849736059,0.7393278850076956,0.9851856630178127,-0.011727483035394393,0.3962066647178464,-0.9537164091441,0.25666533519292684,0.18132936475275638,-0.9816908811961793,0.16104884594051916,-0.09413355025063107,-0.5581645590959644,-0.656465295815114,0.5882898967030806,0.5753862097900883,-0.18843956076555193,-0.8179092727847647,-0.023416181291773183,-0.5024573180733786,-0.6259482906771369,0.8157598397924665,-0.019781157609858584,0.3084838833973321,0.01274922700024726,-0.6717812831025126,-0.8987241271712763,0.06666079404249937,0.10419110738815171,-0.7269849085612302,0.05735561894359676,0.6237387732257866,0.9335655570007693,-0.33995570536437336,0.7881870262426023,0.07058097261674881,-0.18553121208175322,-0.8945710708366902,0.3108988773073241,-0.06364184228553132,0.49419293812528753,0.854310550743758,-0.8869334575605508,-0.08317769131602473,-0.2725696548416342,-0.28275999878038227,-0.7091705213409163,0.08573048683397515,-0.10721914862008092,-0.819437707623671,0.4339093452850489,-0.01248278196943051,0.164861677935623,0.05305891990563652,-0.8405955176217017,-0.2819928953911212,0.0955928865747966,0.18270097345326147,-0.4065980207575025,-0.5751255172444473,-0.21744797218938317,0.9424559277628295,0.6982389613156867,-0.44921899892921424,0.4680733113940644,-0.0012311656151600611,-0.4180559093551225,0.5961828458690949,-0.7778930072034316,-0.08725262340472448,-0.2983943200165186,-0.01236374074687151,-0.8589205419965098,0.2314902978012465,0.5904442993010109,-0.9252904487649319,-0.35847881123781633,0.717515041348483,-0.22124773683312324,0.02314779778174342,-0.638376990578259,0.19251095419621878,0.6953908103669244,0.15956665078224286,-0.297892684608808,-0.1772280546890688,0.6730137699310177,-0.5016020501740068,-0.5720050638568117,-0.6638753097315879,0.4325558333786088,0.5557115057042649,-0.4205228365069843,-0.37696541215605645,-0.6233198545361947,0.6831548396946816,0.2986627589066977,-0.3933588122526226,0.956432837356526,0.6729488415211166,-0.6941286506358093,0.7239703334529413,0.012690827495215265,-0.03308522242595544,0.41232125572692246,0.7327324875041623,0.03894477857685651,0.7919706844829909,0.16148356053484492,-0.32733038123025204,0.04451443806340958,-0.09687445236221727,-0.707490535230035,-0.016473482030438746,-0.30829352192938775,0.19421094496974645,0.9601040431306429,0.6313215968557881,-0.13900092523546928,-0.894609383498976,0.17133497712026038,-0.09492326855262727,-0.14015988893911346,0.20443495343818616,0.5158862878997336,-0.6316941610719049,0.8873484873798281,0.7102017787403729,0.8671418474484338,-0.0743832251051721,-0.4601727419640088,-0.4136781910470033,0.46905697184419853,0.30565515937458226,0.601079878557149,-0.20356103255039915,-0.6399856331266081,-0.9305217684397936,0.36985759763790993,0.43738367134268263,0.21649816103283273,-0.5580823610003655,-0.38100855578976583,0.46917385958195057,0.3486190733981891,-0.4840528195748859,0.9559017502527115,-0.029076843348159475,-0.7843353145379964,-0.6015319961140018,0.8823684418733119,-0.5427136199001339,0.07217518304830345,-0.4885405123826743,0.9758468456429984,0.5277506542456966,-0.2626457331680346,-0.14573597344638056,1.0797495137599948,1.0091563535270927,-0.16223447314578754,-0.877417523637013,-0.8631008615398534,-0.22204812369007654,-0.6785458656186117,0.5678228955611133,-0.09135938672705321,-0.2918938766366292,-0.23262550775884341,-0.15892007817632153,-0.8652792954589318,-0.35194569000636866,0.8052994354209537,-0.7027426772560661,-0.7730460501471539,0.3513621821242686,0.6197065636631369,-0.3688046083848556,0.12052079134322873,0.3411927185680104,0.25507824876954277,0.6749085261996526,-0.2710461137023847,-0.9429146110610794,-0.20919932380834022,-0.8368650143746174,0.00989312265301184,0.5694427326316392,-0.13380741112782277,0.3900609507995736,0.686309862452754,0.5413467015624821,-0.05559850541716386,0.16317886909783336,-0.4510693221964314,0.6279585387361521,0.29388922078548263,0.7514911986184019,-0.4349286427569772,-0.8534336735960388,-0.23372477990212825,0.6020974496145475,0.7120839246819957,0.07582681161287466,-0.865165016004663,0.9121342066843059,-0.43833658153009153,-1.0109746077718833,-0.9863926349989629,0.37649634763218204,0.05839346024896432,0.5232136720202406,0.08776371969818549,-0.8258421278117292,-0.6096864693267109,0.7140480974841544,0.6078995874463885,0.25787180129138715,-0.8163110233256863,-0.32232491822253356,0.5464855042160085,0.3200707750612585,0.947136402657998,0.42980551910608383,0.70709534459891,0.46088858639754005,0.9381278980447352,-0.5071283597617771,0.4588152148969402,-0.006126408831235164,0.839285655764336,0.03399845525380912,-0.5550165501713711,-0.051742924696750965,-0.325021312135656,0.32422146179350425,-0.6144030327039145,0.750960980475391,-0.878508412591387,0.12135966249478884,0.9143982838720719,0.7842229618859407,0.46690876922770963,0.5566501629556524,0.3403588121261742,-0.8784255123654404,-0.9293410614667051,-0.47231204319279446,-0.18087652464663725,0.0740396547904948,0.37174754904665164,0.2678852995214158,0.40082162454300585,0.783087482002387,0.8112441754377704,-0.22278943605011392,-0.23123528920461744,-0.3455678645071143,-0.6205439556485479,0.8765379371043043,0.8028853297180802,0.31785401361140675,0.7918288114127686,-0.3452623197942717,0.7609614610671679,-0.08658550087591327,-0.8327153124149901,-0.500891626365632,-0.046804552222691455,-0.3754683445053362,0.10241426413166056,-0.8634284521883623,0.6555647051720344,-0.37040848771678664,0.33064792602293763,0.30302717214837,0.9938928759957559,-0.4773915232532977,-0.12597557873817233,0.4482795191353306,-0.3379436709773982,-0.8148884825105949,0.9055031993497957,-0.8634729486076167],[0.7493630027943499,-0.8623743364031595,0.500491870941671,0.5557553979424408,0.5239195267100749,0.3011390293488425,-0.25352186520160114,-0.463395895755911,0.985538219123459,-0.9395573761225267,0.9075818189351192,-0.19723735252174324,-0.5288239283090803,0.08931799408120744,-0.7680910860536447,0.2905237132999319,0.7600773217081334,0.5530623222558999,0.7342660375760444,-0.7629022547629445,-0.48827254572283385,0.5156079811501937,-0.9976185558427746,0.5712583145938046,-0.1673897171770764,-0.7114669015756832,0.8546268074717349,-0.9387612805148655,-0.2521720630669946,-0.6733285321459705,-0.456123542080479,0.5167407229650096,-0.19238951718322905,0.1398087037900142,-0.9584789388665742,0.22293186954831512,-0.10749484981237023,0.3569081454618015,-0.6946615252797967,0.7130320215798283,0.5286583819700902,-0.9801932511980982,-0.6190984338047539,-0.9711514042492027,-0.5827747030763258,0.8795420321012682,0.28664463661599887,0.8220077153856882,-0.8082085433268306,-0.05884374704269809,0.5674487680252911,0.0928638532554995,0.2578184327655517,0.4711193057571812,-0.4035743911729135,-0.31045826492276163,-0.3650504897112885,0.15304198355449428,-0.4816392655151853,-0.4756299082013715,-0.3847543452595228,-0.008473050589406839,-0.9240815102905628,-0.7016170283428149,-0.8566074677797388,0.8862356118100906,0.7594745445359379,0.5299965569013665,-0.33239811670518843,-0.9433116062182191,-0.37093167332513566,-0.646229916624415,0.8269276998513992,-0.3432414321758712,-0.489579435115849,0.26671474576431903,0.9020404674827786,0.6574855259408666,-0.24471925822229262,-0.16217100517714358,-0.9627052712286003,0.7418688996509553,0.057267752855081344,0.5820964753040134,-0.9753302792126726,-0.3681920529736211,0.9011065071687341,0.8782165831702167,0.8676702791772697,0.5467902234865881,-0.9413921010470873,-0.6448614898924012,-1.003123006298289,-0.016065010851397686,-0.9356954282222772,-0.8383645576052366,0.7355182099984435,-0.6741992487870994,-0.5481315011214799,0.6441887226263247,0.2591505982272381,-0.11818926992663226,0.8684195278260253,0.051521923289915526,0.45706867650826677,0.7533261467145836,-0.2637012724723112,0.9016463357881371,0.7390878584384232,0.6452183716322266,0.50827951454455,0.5732452524602842,0.07833135352693654,-0.053240960196073495,0.06951915827761512,0.5601518661499107,-0.5469175071777835,-0.19642244001688555,0.9519227578386942,0.7810462720821009,-0.20350013619006782,0.9679665978019762,-0.5437269190977313,0.003056390583953406,-0.4235342127802984,-0.1510858097401369,-0.33875747214998886,0.9747223819412384,0.31575407168679975,-0.10954688215523767,-0.6642976832798139,-0.7080364591670871,0.766762859151979,-0.05129508811806637,-0.955803978708424,0.5608084265507819,-0.8565816447056888,0.8436742263386653,-0.9134032852470471,-0.8468012926509512,-0.7755851706598622,-0.020825041049667536,-0.43488060444013055,-0.26236840534665445,0.4843224839632714,0.8452027457058643,0.8819968745077872,0.4106867295058966,0.5945547463295772,-0.9593846937352276,0.3270002584048223,0.6163670676414549,-0.009532169426575476,-0.11208814300928785,0.005412482411512781,0.7303491137976982,-1.026637087248684,0.7279128000992257,0.8362019307714423,-0.20808038329417594,0.3474300046791364,0.8618292262371741,0.4112026183262084,0.45800701818220796,-0.6783872695489472,0.3436756851919488,-0.6989803859469538,0.31887151924804,-0.9145086961508029,0.8718624838841542,-0.500809312326957,-0.06906245836599421,0.9296726743868151,-0.6142509582009701,-0.03037945942545058,-0.8324824311145931,0.1555665306939059,0.8657566202288342,0.7210624049709569,0.18722994141998484,-0.8489337884622836,-0.5219649531531918,0.7073097339402472,0.19743162507346257,-0.5896441154929993,-0.1687540344614486,-0.728059421210811,0.7277713422494761,-0.5917058572994679,0.19303226024523137,-0.5499896643409139,-1.0079105005736544,-0.05385195233413003,-0.7202443523130955,-0.4063887734186126,0.7727969541204869,0.6543128633168006,0.8903343958378547,0.5579423515705046,-0.8728694364370005,0.97500077092086,0.7710649939910528,-0.23481691360492427,0.24102325908149463,-0.6836473684594163,0.46050092024523065,0.6056965589752151,-0.43367207594980034,0.16265008418170326,0.9323172883663576,1.0156836018059543,-0.5494292759393128,0.9388734042289263,0.7666532546436573,0.5373177877807023,0.1244133344580962,-0.8534129221669369,-1.0234219373498805,-0.10866486199869077,-0.6955818357747736,-0.18462934318040888,-0.7334571701345683,0.6515541890451045,-0.4195529842831774,-0.43440668268092064,-0.009266639024237437,-0.22283872144551925,0.21148100201059436,-0.8540592155571622,0.4452814905739141,-1.063417487468419,-0.6249265081442149,0.7566960956848549,-0.5644949708632067,0.45065603333366805,-0.181464476036386,0.034269334895361124,0.23644643902800805,-0.7403437098819277,-0.004678290781199472,0.1408584130271299,-0.6251121652788584,-0.6776609294825212,0.48638788653759,-0.14890445414184783,-0.7066827816253609,-0.39807383258481494,0.6885431204488602,-0.03623375196939048,-0.43439315885052127,-0.08568510434652646,0.22770062353552545,-0.4109358813467185,0.24706333828621457,0.2238430579566812,0.3347836026349134,-0.33577257111099684,0.8022437158081114,0.7584072232851422,0.7430074918402051,-0.772089059030527,0.7572631033840468,0.02360878158697065,-0.7874358411028494,0.9826624204317701,0.681466216476084,1.0072913177850864,0.5998912851087161,-0.3819768818909981,0.0915688312507469,-0.16746315590844282,0.4443956488311953,0.4809347313439198,0.4827812743319612,-0.929317177838104,-0.24971877175329218,0.8415865053548642,0.1047325145655561,-0.4918486745333008,0.24857099725401888,0.8612242200989861,-0.9149731707168582,0.493667339197961,-0.2910095733490262,-0.44932923791435997,-0.6893378533338214,-0.5880247856633157,-0.46909851510949035,0.022530708969695574,-0.8397388523069123,0.7917667878872593,-0.1610151305741694,0.2646860753984776,-0.18516172744872153,0.22155225063678988,-0.9017458762920328,0.4888282580813113,0.17356116416892728,0.3292691969545562,-0.8679593598171779,-0.5425118848963354,-0.5034303077399264,-0.6506151369766747,0.11077006409369723,-0.8602647400509343,0.7060902710502319,0.9991198144916449,0.13656180333079115,-0.30287475172801237,0.12013436959476198,0.17171920308624175,-0.3708738345662944,-0.03704821560748231,0.6455616083939182,0.2797796754240365,-0.45661039516138535,0.852786344253557,0.8898424508471007,-0.6240773927279698,0.6714555022937589,-0.5053722866328239,0.7505914694340804,0.6618530962288308,0.16408496233198813,-0.2405135171486016,-0.2914480563344758,0.030973482605840524,-0.20516356233148678,0.30285380965568837,-0.3844152005976075,0.9380545676431468,0.4946456367717907,0.8827790439705513,-0.3307396843548617,-0.014923141573119417,0.31332767355763425,-0.8831014998461049,0.2881048940975472,-0.32138835906565083,0.2941947424458291,-0.5994593793395556,0.9966205727774231,0.10674162546069607,-0.739858606210284,-0.5845476441668419,0.5414791310525323,0.8522116272822554,0.3902401389582898,-0.8301759411531879,-0.6138147092283982,-0.4799221025387605,-0.47445515788971077,-0.9431897714904511,-0.17238900471173912,-0.3472458099114278,-0.7533004841939527,0.49873672538415886,0.6385862053078795,0.02927732805803603,0.8572369094933968,-0.619795689682134,-0.24653994712989896,0.14956736844381216,0.5158367613400001,-0.9391330862694098,-0.24360810595343899,-0.6532398577804874,-0.5733993289526008,-0.8737000581176295,0.0903944811324054,0.8241672666554247,0.09647347115148142,0.7436445869483529,1.0313441346116217,0.6896602082703013,0.6126003523060439,-0.07545313628458493,0.8456414471452747,0.34935530503611706,0.7437140186879162,-0.6820433974842943,0.9322868749748736,0.4349545369713191,-0.11182967967061141,-0.8064680502483194,-0.7963469048904276,-0.15585542431100555,0.6608403534928415,-0.8695221969578584,0.6857423525115013,0.6034639557896526,0.9189040509079827,0.11836784330095584,0.44857576607336114,-0.6366333477210604,-0.24269861899503534,0.565290236084809,-0.048483923989976335,0.1104121750278277,0.7594585313734529,-0.5707419327335181,-0.08291601754633704,0.569111387601116,0.9502647061858388,-0.7861828775513323,0.9333717609754604,-0.5923462162870987,0.26385550499581206,-0.45986159655471065,-0.20913181267588232,0.9167912833095894,-0.5348304257263977,0.5207250737382872,1.0667278786705923,-0.496895039500858,-0.06794417215853146,-0.41341045936509296,-0.07100291615282997,-0.8755088154353283,-0.803202539608113,0.03901471395566469,0.24383609485120478,0.8857212139342238,0.11360789276745153,0.1672108546091981,0.7753530953679991,-0.5386783848659352,0.2317937186093322,0.009668143477944844,0.17132756629816223,-0.8630210375189243,-1.020943904812265,-0.025815109513492793,-0.37626553906874083,0.05883845549770557,0.21007279678717056,0.49537806070233653,-0.5751704455117985,-0.46709031846152854,0.6986935584981795,-0.4338366686787682,0.1084881038553659,0.49032380446214446,0.40188271347679755,-0.5513773129466222,-0.5460981792577528,0.6619799128665832,-0.7727148653953164,0.869529760742211,-0.05496465165197639,0.31194582172734653,0.14488199121241918,-0.1961608528331656,0.9130470771203684,-0.10784614098500593,0.12236194917240537,-0.27771948962253823,0.46478005760488367,0.3946191387539943,0.8691917403016115,0.6318687654896793,-0.43257792086217933,0.1604303724995734,-0.8783277694913075,0.7590142956964596,0.8023348949514901,-0.775053981880681,-0.5868445867898371,0.24290105718875904,-0.5179198986622753,-0.43254275369795814,0.35322480512630444,-0.8666208195944624,-0.4814803837918751,0.7689538360122377,-0.9417997287298645,0.6023788831227623,-0.05627806239363853,0.9898299131130804,0.9294697531565339,-0.6182057712427138,-0.7270832984272241,0.7425434633812239,-0.3690277438425568,0.9307602311060788,0.7078414371029345,-0.8216855093167899,-0.15899275320578155,-0.9907764811023312,-0.9029018790895601,0.8542440332736585,0.3879281582833652,-0.4802620735348138,-0.0982997212952992,0.48696613290590485,0.08326724171449808,0.5011704092360361,-0.30888380261425846,-0.47111577804646243,-0.8268105688129849,0.5835537711566624,-0.2680592069057015,0.19043799089627939,-0.3363034956666854,0.052438567527605784,-0.7227440021936529,0.1070875710466077,0.08364361885015029,0.7899195054640981,0.8613493734566233,-0.5377746254861664,-0.6907760231783122,-0.6419993412970386,-1.0536871097107454,0.26044581851562987,-0.831162752619348,0.06656292569448523,-0.48684284078788326,-0.460162505096032,-0.5788656881798424,0.7231828392978562,-0.004863083902149625,-0.9217757529861471,-0.10051903211924615,-0.3676676913844307,0.3614259531991682,0.08242096530913387,0.009442240992182547,-0.8744532112937161,0.005735856610234241,0.05780527850018046,0.9173703345066679,0.8270002856344787,0.08927669304259078,-0.07283078939176645,0.9512598650384709,0.333864115085554,0.35642354489868977,0.8072952466397355,0.6863361588933765,0.8355246817172638,-0.3070913580129188,0.0003495156072119468,-0.5931695934196319,0.3880225320909764,-0.6324927355889924,-0.1462744027720204,-0.41208077452274666,0.7799331013099413,0.6079990909190317,-0.4221388394463541,0.6186815043810217,-0.1322072157076062,-0.6589503115867981,-0.21188860894264913,0.21462368559981768,-0.9892803133438708,0.6116305595742809,-0.7618143121911749,0.6544388743693049,-0.863237175860534,0.7583165498192108,0.3603663225948599,-0.019176365731543354,0.7438265758253162,-0.5552670767404723,-0.8002840515047516,-0.7958460399968222,-0.9587713913068633,-0.006312366433089155,-0.6039483439265889,-0.9515890696447092,-0.8179297004524565,0.1997869624176496,0.7869140808914084,0.4089300142004312,0.155774038500876,0.3747060521631297,0.8940236087328458,0.9165922410337219,-0.04917383664889826,0.6345755873751578,-0.6992135510776443,-0.9992952264676991,-0.735017785423477,-0.6270098804911591,0.10665126891153696,-0.6735662117474517,0.035315067331289196,0.14594465483844,0.0798990881742093,-0.4187473578727252,0.5806413647749104,0.4993858595679672,-0.7600694730137456,-0.6045540627584043,0.8182782104791432,-0.40272819672146476,-0.6867850799819577,-0.11561477246717104,0.11867621185807693,-0.6113294549425403,-0.7055248668722346,-0.006169076684681705,-0.47339046416310104,-0.7014445144684531,0.2106699263086375,-0.8387705130601,0.21894505702527445,-0.22508046127379627,-0.3649401093252429,0.35385692703501576,-0.002248989050034352,-0.357618943933603,-0.5696056576456882,-0.4735941531424741,-0.7801264743382523,-0.4988588994570051,-0.07445034786241779,-0.041811953147362496,-0.9574108467284143,0.7776111407118281,-0.7817885311797521,-0.29827297643065614,-0.03614985432075622,0.7335282574573843,-0.8709030476559737,-0.9770322949786857,0.43868744111615127,0.5402173250472453,0.4887478191990902,0.7635668543051014,0.05150483702049927,-0.6111552682163113,0.5644046296673901,0.3491400447169233,-0.4836406578287492,-0.6524543139548146,-0.5867550628582411,0.2597946719476324,-0.5686213732750752,-0.2474061859320042,0.709991729438292,0.5067661951674296,-0.20849645185614607,0.7791443524514579,-0.731749862078032,-0.7965150065792219,0.8233637545127227,0.5949498625062938,-0.05550066296242046,0.7805278361164764,0.6897564265221239,0.7888361194435425,-0.9361672847308226,0.4059192117703918,0.8151989757988908,-0.852471390787573,-0.8048153677782165,0.09522815435773704,0.33503501279700687,0.051607313499194396,0.8021555885961081,0.16921040622803765,0.5176736174418678,0.0594902238413294,0.3912571069523164,-0.29029202686443095,-0.3142209411543687,-0.8390816199861263,-0.004935979152524633,0.6573526262037435,0.6169003003261984,0.0039252287902775684,0.13918063011995718,-0.801941389372491,0.6288492599990103,-0.4208918912721888,-0.05052142581332848,-0.10206735396569942,0.8664180270546512,-0.3949533693616328,-0.018463051721525955,-0.5455066493780106,-0.7583224365519832,-0.3913260814620718,-0.2240929491219107,-0.03696250718599448,0.3793574409016664,-0.9926502553874875,0.6197045412274946,0.022891590762439115,0.4703046212027326,-0.725255175626958,-0.20520929331608484,0.25402862544371413,0.029783963185334796,-0.7066766691430084,-0.23042207574547646,-0.0931710721024217,0.4652752104351503,0.901690778286687,-0.3482775431503833,-0.2330803893032912,-0.5081441586655117,-0.09400985105708022,-0.23846425589466147,0.5084417701766645,0.15927382691954076,0.6477036332231964,0.365456336394182,0.0775519823402555,0.23050465108364734,-0.21740369548144314,-0.6591803950581302,0.8749251496379351,-0.6697963022659994,-0.5932544608872761,0.4175448009234928,0.968214482413494,-0.15291985657461413,0.60365150601581,-0.44862233715509026,0.2836259354963032,0.06684586377719494,-0.4319941081151768,0.5818758113192408,0.9132329133938613,-0.7636553935056187,0.8597943826228223,0.24101482199646584,0.17184214821296281,-0.288879915245808,-0.6854063143472658,-0.12368285782992486,-0.19869195990672572,-0.8951389021247496,-0.7784619979519413,0.5186815671688705,-0.3549998978553582,-0.8355673339959585,-0.49880782736099105,-0.001463762154915702,0.9268978770067804,0.4798383306350138,-0.5113605465509411,0.6542067133800503,0.8925090397904316,0.8112271417977501,0.7052612808346466,0.6643932876716723,-0.15536783133941498,-0.37946010566411825,-0.07015220423096213,-0.8272850080865739,-0.1783401889740559,0.9361871563720121,-0.33498649680501824,0.16044669436097925,0.08419091562986836,-0.4832717511620608,-0.8683329475187356,-0.13968751014921404,-0.9189146837593075,-0.08949127550343565,0.5373302522859962,0.494172025985933,0.1888823682612282,-0.42590574552850535,-0.5526631845288913,0.3837354081550659,0.23874791070684911,-0.5692073584221329,0.49490560689848434,-0.8414939156095659,0.5795128479124015,-0.4849863527711934,-0.19323260656967295,-0.5259652329249781,0.0978235824467486,-0.644836279404378,0.5268419707304677,0.14217753967637403,-0.9542905612486945],[0.19389821517306194,-0.04091837276416932,-0.6989183979053268,-0.9179133560573014,-0.6039805126171545,-0.40452922504695144,-0.14845154949916228,0.45674481493696106,-0.26418983130685936,-0.9607980536621619,-0.35640024273468907,-0.47218201596737197,0.5308215190854848,0.5756424160812381,-0.9288220375200047,-0.5244615111262876,-0.7413906856957735,-0.6984579010293532,0.8420162017205013,-0.3887749878805349,-0.1038403890025621,-0.6507553902998948,0.6809681739271065,-0.17190323547916497,0.7884391194571938,-0.4651945146023495,0.28165841528291136,-0.7327657320523708,0.8792155894469778,0.14722901620039197,0.5149706934788885,-0.8573715077240123,-0.49444041856103826,0.8473395691334771,-0.7373343581679834,0.8834121795129146,0.8348312921263159,-0.42323414785236313,0.4138383031216023,-0.4037522884671625,0.581308603936594,-0.693092429468592,-0.7227051100264065,-0.0536431425018717,-0.6748882856173598,-0.8350038697285078,0.16932498830273887,-0.5004900260075963,0.39524908324361463,-0.998382930937974,0.8813167241884557,-0.7255931311311419,0.28810822143685977,0.3587222491247357,-0.6161272002769298,0.08577944915575664,-0.9992163816873916,-0.45524124861689064,0.44596004179811377,-0.09707485210351763,0.4105049353573129,-0.2257405184102903,-0.4127368741589015,0.6705201152924651,-0.2450653141338878,-0.430751099185624,-0.6755938252237448,0.17491192425599375,-0.7385155193865128,-0.18812414666244973,0.6811015587526521,-0.9322258255893808,-0.9148172623563849,-0.09715154150633204,-0.9163479661674352,0.9051684220073284,0.4470251668471561,0.2583138001669171,-0.8989777222196282,-0.47495902721256705,0.551390716314222,0.8630064537914133,-0.08398261885589609,-0.5009487524281919,0.8547543657781187,0.1847642112345218,-0.10478948769487939,0.4279511756883596,-0.13834484470297248,-0.9999800916699481,-0.1553276867170775,0.017693128208788114,0.675295029346024,0.7386193706534285,-0.026234834803087154,-0.2217349703062208,-0.7086256690296654,0.00013570861601326469,0.531778457879943,0.9368614704515389,0.894816702627008,0.10445800604864626,-0.5939160519875416,0.3651057774075868,-0.08772822422671535,0.8830390753020637,-0.6004289704436034,0.8607372857924301,-0.4257442043111902,0.9625082878563096,0.8275156872042011,-0.29296582157482787,0.8452776366549304,-0.9442909494275091,-0.20213185511407117,-0.8287402494676708,0.6933499358926967,-0.22691713383446563,0.43777011531209603,-0.05100097387934203,-0.6058256065414618,0.6289640895636454,-0.8463312308758771,-0.6526104018264723,0.2555990155882551,0.7570113253886321,0.9099560794780227,-0.3089089556446735,0.9284596033047025,0.8752681697330259,0.8849935055887349,-0.6722558329138192,-0.4787257159740285,-0.3367211201363462,0.44438164917710066,-0.7577255184376882,0.9881603234230775,0.6089171673340269,-0.5024657130617891,-0.6142562001693239,0.767246943877057,-0.5469100673959688,0.6015682432758038,-0.2790862403517995,-0.5415268355080404,0.27866995664714206,-0.6190691488376528,0.9976542940171861,0.5885534580329324,-0.7482788235498953,-0.03312174260808562,-0.25264949224640665,0.8441450623659108,-0.23564528564971512,0.9739622904076041,0.3361732782874287,-0.28963680799652164,0.5836306710107668,1.0074403950554023,0.06144049450000079,0.059287653865722295,0.6013437665599545,-0.9356233398251664,-0.9539665932925633,0.8027627053261859,0.93577145287823,0.14868702675839915,0.11384174965596541,0.07916297736854094,0.09742081983161999,-0.33418894996528453,0.7299129645985621,0.2101145105240914,0.3761476556818859,-0.06443702941738953,-0.908343739548594,-0.915156658592212,0.11376359612940852,0.5638967095614488,-0.7030594954635863,0.3416772900717771,0.6818826120506862,-0.564430719946723,0.8692091621350487,0.8617959047714349,-0.3644265209847262,-0.33488033863134864,-0.06877924383397871,0.8539906576460857,0.392736646919969,0.818661042032843,0.8892446132799104,-0.15380356801059517,0.2788488125608701,-0.03299992381139246,-0.38660651788458306,0.1305757253938678,0.7192644499938438,-0.12888356797930822,-0.9764366319068979,0.09601141901965773,-0.2862887966153779,0.8657587304844695,0.33732474029020015,0.5542307555790198,-0.32425148234346934,0.8838193562278761,0.3852556215068467,-0.3730309946203458,-0.8835876767309189,0.529848960528384,-0.11013586287494012,0.11580688831230897,0.11148573215578178,0.014129945196446414,-0.7141993789525926,0.6768171289411399,0.11677905119898006,0.6493082868958622,0.350589616673815,-0.7379467166779621,-0.25562756780644585,0.19464786296061382,0.7197129063887321,0.5679815664236346,-0.4405123110624826,0.9258636933507737,-0.0462227606969162,-0.9681351951064711,-0.25859987457190436,-0.6389133164071619,0.8569007768758613,0.820865395288243,0.024442834938875294,-0.2562318395368987,-0.8591877232065804,0.8347482168160942,-0.11239201442950447,-0.3697794652282439,0.1291673648508054,-0.26922411883846087,-0.10067710016491241,-0.3221979871502897,0.3885502321978646,-0.21056438377446862,0.8424718826638972,0.7903373837660042,-0.5646948479882722,-0.4794490710719087,-0.24622787994293183,-0.9557062275964829,0.5669671723913936,0.5152173290658554,0.2695847331950072,0.5346273077498203,-0.4929299583963407,-0.8037464521389892,-0.6319197260896169,-0.8072029987354433,0.5476069931949171,-0.6755884719418033,0.16372749449000767,0.8901485136655501,0.764470731844141,0.27214821010389323,-0.36629387547236963,-0.6336976132273388,0.5833804818133305,-0.15843819886496013,-0.37540450557461874,-0.9369638441829061,0.6209855974525494,-0.5556576004655033,0.5200605446898819,0.07808341833053765,-0.28243292149035093,-0.7409407148447349,-0.49607334032042466,-0.19344503076129324,-0.2106439444585675,0.21562995914286942,-0.009097814352384302,0.45499145357671006,0.7096965555040496,0.13649751795664503,0.8782118386824914,-0.7156825194093781,-0.0017594414848106472,-0.4213198726657002,0.7651270313959674,0.9425307049932833,0.43681241388084746,0.6888119120571011,0.41113839119122425,0.5687137123963262,0.6823766063393597,0.3772027350874437,0.1584799503443344,0.2515553825595286,0.6957892138689357,-0.5181758453606774,-0.005100922961903597,0.9276940384283932,-0.5617698192687931,-0.22074144252348601,0.7526544314681404,0.9094640233101181,-0.1501592463700483,0.014957928348399818,0.49458708293145337,-0.4164186187614827,0.5044507111860709,-0.350536807864475,-0.5841206425857945,0.6087841140316731,0.02229414144294832,-0.05910798348555008,0.6878292269750751,-0.2574742335634578,0.42640189358808495,-0.9819594940024138,-0.9865171451726078,-0.6078613381286138,-0.9453681407080828,-0.7387523504447222,0.5531693222555595,0.2597786492714327,0.9251432312156381,0.8729927913664943,0.06615565512578907,0.30522330718940177,-0.05855797911049976,0.23659348120854293,0.26698870620619586,-0.08703511232103717,0.17597490578853447,-0.09667239899095792,0.7197114317835521,-0.18460742500659708,-0.774196007587448,0.027154554164694592,0.6247700930620005,0.3719641222565014,0.1231795729759665,-0.27055508007007645,0.6917775435749863,0.8819861875351609,0.13437419144032145,0.6469957351870693,0.431650204573689,