{"layers":[{"learningRate":1,"weights":{"rows":100,"cols":784,"data":[[-0.4488315050171434,-0.7342228188567068,-0.7278229534902589,0.9623165093339812,-0.7427187030356452,-0.6147542199599028,0.17855513792804256,-0.867471285732814,0.23977281955361107,-0.44157152507793596,0.22240955172293075,-0.5635466754297145,0.568215700860581,-0.3191243035238105,-0.510222046472776,-0.956571955143374,0.9129876642359362,0.5687902510314533,0.6940538629570212,-0.8881373123392149,0.48328862651863425,0.5086723440966789,-0.523682772911302,0.3504229348074577,0.10080840884751474,-0.784869853681573,0.6403117837467027,-0.7113418741573105,-0.7558589183919078,-0.7611643922262545,0.711204732633302,-0.00796658231237135,-0.2134202110000043,0.28804033858925093,0.9478970106172908,-0.6000410479181659,-0.28553376990500556,-0.444339469665727,-0.18370051432623677,0.7521163284656031,-0.45990757880950683,0.35664381500835624,-0.9367836199555236,0.36271771626604904,-0.4003296242274838,-0.9671933943281414,0.7661885443779807,0.13909478296379651,0.09416648114420038,0.9122343020335493,-0.01131629352169572,-0.1169354959807114,-0.6782667276712515,0.10276027490130035,0.15555005509286923,-0.3921646298707042,-0.6394977718587689,0.7650014180790623,0.9294808443742579,0.9674329578646037,0.2816435481692894,0.630025282024552,-0.44658441609444877,0.5648570938485435,0.10648347983459416,0.30849387485545554,0.36676713344108247,-0.11868974135227692,-0.1363243302485895,0.44919251479861677,-0.587355063567351,-0.10525069560409092,-0.4564666015636261,0.8800657368105665,-0.0021462974272808536,0.7066052594107884,-0.054344920033862834,0.6625303868693989,0.4696880773261356,0.5387817645217879,-0.8826555088716099,-0.9854736829537978,-0.16843762557802444,0.5698744387875339,0.2747018352682882,-0.0935890377814883,0.422898144511314,0.7942996393512307,-0.02104516442217408,-0.36276846243171823,0.5335865635175725,0.826928651308676,-1.0058082780484636,-0.7404582788490434,0.7495026604229695,0.5151834607743144,0.07088601180063454,0.6165846827015558,-0.31688338955513945,0.5365211473945058,-0.6653962867346318,-0.2155295024842571,-0.15909901065757776,-0.09904499933805738,0.47427021043405126,0.3594109407749811,0.9378966397718612,0.5429871237802081,-0.8322794038312364,-0.9646768975533373,0.4897631846913306,0.4876675646455877,0.10383571457745733,-0.3646487272828782,0.8004248686391078,0.3842225130976695,0.10159071562902462,-0.014033305916624732,-0.6427335713355047,0.5689967518418976,-0.34268968436695685,0.5191834338312918,-0.6647368103115108,0.5600764803446721,0.29065626222279917,0.7312266761933219,-0.35766228168591746,-0.5981740260019974,0.856010405215075,-0.19453736453891257,-0.27491994076138765,0.2597055529979519,0.5312377682504476,0.20458371904136585,-0.7477744598109943,-0.1431617309097227,-0.27452911049851847,0.3777650604840548,-0.7549636476660924,0.955084403306071,-0.46680506958130197,-0.8220115520834446,0.8314809134252257,-0.12886937982147975,-0.8821633012791646,-0.002413960977649226,-0.09674362009313249,0.11754910757997686,-0.2704391202487228,0.8377961517206864,0.41758767897620463,0.15746574908312364,0.3499668935611093,0.7968225275919197,-0.5237026631614404,0.21528230516334004,0.8330404719652731,0.7614482231285675,-0.45189028808813125,-0.8633450997411866,-0.048576822132386836,-0.9838528009297632,-0.7937761285139161,-0.27780043194320575,-0.9585672276321484,-0.7264921003940855,0.9536770108188101,-0.013537490140176356,0.6760967549622361,-0.44084622025462217,-0.6961003020463674,0.4672709580146284,0.48337016876085087,0.9592682892569876,0.8940727820226613,-0.9400956455543363,-0.2558526046609103,-0.8291312568238537,0.8830616474989007,-0.6055845633249151,-0.1661234527600823,0.7117111212992147,-0.8750697001374128,0.5962570295077553,-0.8560940559434601,-0.35825022267964124,-0.860963706563675,-0.8985759827465761,-0.6143611223091373,-0.49425537745054393,0.2798974632832804,-0.5209818312592023,0.9682968727100927,-0.4452540851049679,0.36886828132118316,-1.0008683217977148,0.7098909519596459,0.29794966894142183,0.2970824761474084,-0.43300525044363564,-0.7606088724036539,0.4027814928705562,-0.8931400050403838,0.9143498834810659,0.20181784587015794,-0.7803410242700972,-0.6766360848368013,0.7582822312653742,0.9689399114345163,0.3319436715537712,-0.11570758990664262,-0.7430317282347788,-0.42556300493307436,0.3317248442393044,-0.8309694349228205,-0.8421298708842931,-0.7687677805867453,0.5889356463602877,-0.12720038736252412,0.43308653622477056,-0.7020209995385829,0.5242643875310357,-0.3806534385693319,-0.32038171492180734,-0.12445106292437291,0.511207318332839,-0.3629428356388024,-0.9249820882772535,-0.6778329875568355,-0.3431138791873345,-0.015455771985539496,0.0979815804618831,-0.8137439567285629,-0.6863472779040741,-0.2843846261188639,-0.8811446984574062,-0.7695677968736022,0.7418646245787572,-0.8225466485900075,-0.03809237979075907,0.37529739805780565,-0.31611010173516896,-0.12271188929869628,0.26340158345155235,0.8262792447403169,-0.055000828160532596,0.2707631126487634,-0.23270738588039944,0.36745930972740964,0.9159333141491293,-0.27279267592161066,-0.5897799436181566,0.8788255691697593,0.3688191509202948,-0.11582853780288523,-0.4072434437347519,0.25647056535212226,-0.5611651425458247,-0.8951495986324894,0.09344068978097302,0.3000136957216041,0.6793447924795639,0.4001862007303487,0.6537809340572915,0.1535165873511466,-0.3409143479010816,0.20103934576022373,-0.5947362791642214,-0.3575903580625244,-0.469341389228027,0.4688123256426627,-0.6749528280158318,-0.8192630832645768,0.7549395209985466,-0.3061451623064754,0.7406892996924991,-0.6298743260768666,-0.20080548864832506,0.20751376748164838,-0.47280126883803275,0.10727318046526646,0.34619387261816037,0.8421062172968341,-0.6990252577054958,0.8267017229585729,0.9632674583224434,0.03847586543778794,-0.6386010018447802,-0.612265760779729,-0.0399662648119362,-0.3090856662731488,0.8356874063845561,-0.5650543151491547,0.03126366458234328,0.684133823898128,0.9226378061597463,-0.46588776948358573,0.3616868228301603,-0.10315140735040905,0.9753998526349985,0.02039616137337114,-0.5179117183892864,0.5176909795608622,-0.7094952520975109,-0.6539385986865569,0.5022640418105166,0.3392135940240436,0.8732539460697764,0.7702871916907643,0.9109082164019515,-0.0783525966366021,0.9155799596293759,-0.6131807076521835,0.5266697576929497,-0.43341512253042114,0.7125131040834486,-0.2873424164122541,-0.20365745692892304,-0.8721210391716508,-0.24352378616379772,-0.191125677012848,-0.4081033160051555,-0.6783577240880861,0.6897295022789134,-0.6982795042673077,0.9879497037608324,0.5712171175001691,0.9551429271664903,-0.7769601891408741,-0.3232938625142877,-0.4746152847446432,-0.19839018636949343,0.6384508164644914,0.7441233976359086,-0.8807308725251778,-0.3210514722310638,0.7085012226170417,-0.13476398345787555,0.060335207531984736,-0.7015421315033135,0.012095479527744576,-0.750436783198973,0.38383906840308746,0.7811490769617436,-0.8264778792500836,-0.8312226590412737,0.38340163504347147,0.32910725372900657,0.053332545664416225,0.7185716624207058,0.21246428286454125,0.29345549283749256,0.36921357662595516,-0.5613867256976026,0.16267556881503284,-0.7141990843209037,0.6686286798448554,0.9887810813984665,-0.43182956507317827,-0.08030795423124165,0.02633397512644722,-0.9687844676704943,-0.011711104722634645,-0.729468018043292,0.32887124104534404,0.7279902301605365,-0.0015935450151027375,0.03048465407233568,0.981112025458049,-0.17328647148798698,0.9283892768841222,0.6374884433216832,-0.4749070121334174,0.11906238086916335,-0.5780874796837258,0.6259146459615866,-0.25544983820881473,0.7962815522877228,0.532732684579747,0.05179942145728446,-0.1775030805858838,-0.900361066610274,-0.8860145030325082,-0.5278178569718993,1.0160205205539963,0.6788346094896082,0.33904611757342684,-0.8773210559715071,-0.4801258868441489,0.4964037747792299,0.6291504608279962,-0.16612886873633137,-0.57875596004035,-0.3351738356934586,-0.6288429950928962,0.2119824216850851,-0.20698548346588877,-0.30577132639940463,-0.3158030035436154,-0.3228362474900739,-0.021410457550186838,0.907161685538842,0.015294373727192959,0.5625958650957794,0.9864138880415959,0.8937456595293537,0.5030670694010301,0.8928430912351187,-0.06563786590443298,-0.4748877500835499,0.42690489851272134,-0.4305739695202277,0.42736109916947834,-0.4560381466009638,-0.8045768975169564,-0.09437687076874954,-0.7169733384436336,0.38789688104462167,0.9498203933422867,0.27493379556444975,-0.692488076172161,0.3351571993394953,0.04996539268131883,0.3259827286961142,0.18716966858584355,0.4031461232292518,0.7029968043917286,-0.6085764361250601,-0.37771912457500684,0.71316600311409,-0.20886621091301838,0.7969653843759553,-0.8294209284327189,-0.004980341404422201,0.8516847195740794,0.2333494766618772,-0.41154102774665324,0.5388145354228546,-0.722290628694845,-0.20580332388417127,0.6973791250719611,0.09224115126082437,0.03302726887666257,0.8556381344103451,-0.1268090715146017,0.5693350452450342,-0.7484508170852837,-0.1049962989737474,-0.49471662589336907,-0.4853840748879845,0.5936507681015022,-0.3369662495055177,0.24820762584838987,0.9847694031401089,-0.15485866133961243,-0.2715162304631557,-0.5242679432630487,-0.9262699061420723,0.04130856745673702,-0.5693962710960007,0.58705844017152,-0.3924087210794877,0.5203778114712132,0.8152907318396825,-0.5813984001791077,-0.7763907710319593,-0.45960242426707426,0.8689257422824389,-0.9479083185910089,0.26657877871012237,0.5365112977276668,0.7918187679629793,-0.10989586307677984,0.5435381662867367,0.46760058516629754,0.09589074742834702,0.09849780335132685,-0.5416452340181102,-0.5041129571922902,0.32889402904363124,-0.6592719845614823,0.1160878271371304,-0.9280833174238887,-0.9587653110575388,0.9543047337509312,0.8453457346086642,-0.5358259167567043,-0.10472673704659884,0.5685060686028656,0.8055937789744007,-0.6082175918174384,-0.9547937657846065,-0.10241083921857644,-0.4545896369380621,0.1881662496310431,-0.07402196591121196,-0.13283161100209545,0.012726514145648802,0.7237371660873786,0.4557302440492313,0.18304231034001095,0.4434635933925118,0.12560003721485336,-0.5944046722011902,-0.7311738714867926,0.8302471598432253,0.9222257540674366,0.8435396704543501,-0.12287975229020576,-0.8209730679998274,0.7544921911574974,-0.3141827899789478,0.6969946563974929,0.2187383756585958,-0.14923497839982452,0.19936856460395647,0.16635363058143787,-0.5300160687066885,-0.18144986023187482,0.15753829664470878,-0.4851853432222749,0.7142246082156943,-0.11841009803674889,-0.7899654105883166,-0.8798189861641705,0.9646538475317229,0.22036387184337364,-0.02877954412842203,-0.9459756140635301,-0.054139946751407715,-0.0243322829237127,0.8252003011853803,0.17253852201774933,0.2156069019571576,-0.7839888095979509,-0.7100588434801339,-0.8596900610607561,-0.7091170385238337,0.07634995652378834,0.8661976478492548,-0.3525367415177072,-0.34867018123448695,0.09224166582673424,-0.6935403515322416,-0.9055969570786365,-0.08277599008859116,-0.6395841535233323,-0.3327090455297132,0.6035176707869404,0.8437609188950789,-0.3155531019429326,0.21508386033692425,0.2698412706703926,-0.9207717902363147,-0.9309938036692971,-0.7193168603694161,0.6252763945525202,0.8323627219097162,-0.957557380542811,-0.4654553721107284,0.38444612937951694,-0.42247850010538057,-0.21801993899129476,0.2276137337450091,0.08639608462073621,-0.05262065899355228,0.18828841948711492,-0.7279926136815243,-0.09895539719109606,0.3655077558231503,-0.6804825957369142,-0.48006091607259727,-0.38058941608541125,0.40265942505856817,0.8786521436139179,0.2674877844223272,-0.40262070763573693,0.6350531183930553,0.24408015491114401,0.6088658436588086,0.38410822004068784,-0.7273477445999739,-0.05999632546316988,-0.7353038639950514,0.8732777111539272,-0.8253348602290287,-0.014776193861830387,0.1629056899223169,-0.9843478419311062,-0.5854934120281712,0.5692323050823889,0.9367102852324214,0.7089822820244497,-0.5040986757038506,-0.9073407430247121,-0.8845171773513506,0.7772886696100576,-0.2947739534898541,-0.6660282527164467,0.2634758623885191,-0.4932113321395966,-0.22084954988856745,-0.3989612313027261,-0.13317819346427448,0.44606724904093564,0.40047637889045806,-0.4113407331653548,0.8027508821182082,0.20504945805556354,-0.5807700125417292,0.19528393946149408,0.7075185030931898,0.8759570667945256,0.43504595783693456,-0.18674722721128129,-0.45166382790640736,-0.8691300759330134,0.34971332007611666,0.2342239089049495,-0.055374824200264634,0.12815903058835473,0.40480714794027206,-0.8453736574945317,0.34852642603779804,-0.7802122692955391,0.9890833334147328,0.9579572575163314,0.5841430614391222,-0.7856219174422311,0.6831349804744364,-0.2047804263772871,0.1360119865940202,-0.7518335030291378,0.4216717716186522,0.8786089341846082,-0.10972321342750636,-0.49243128181126783,0.7809930552529041,-0.3386570902555743,0.6876663511787909,-0.3804916629702476,-0.6975544737439613,0.13020806594354278,0.054828689524430096,-0.1473299315744816,0.7226598771540287,-0.07443837377094017,-0.5728906661269332,0.18964983301470334,0.2302785587050967,-0.16523537686524323,0.34325256864375486,0.09056536712912755,0.3052845080660582,0.9870164676513463,-0.1828144089473895,0.4950727668212389,-0.7158973154346583,0.4822845964916388,-0.410841056828213,-0.5218631957352149,-0.7854203981909014,-0.7111885291845099,0.8214289000479996,-0.7625754530332208,-0.3172451878460765,-0.20137403845614987,0.3484745133501068,0.6929998801274966,0.8244191687413172,-0.503909813035881,0.2293003309775763,-0.3382771102867492,-0.35704932021800095,0.7033819825993537,-0.17375739253156727,-0.1589498933482415,0.7131363078053673,0.001382289140333069,-0.29297534271958103,-0.5455374579338341,0.07429739046522206,-0.5731728388521575,0.9217390219367431,-0.6977938783820653,-0.7821279134422762,-0.1703055588137121,0.9562841275378536,0.09233069690854769,-0.9300773115776163,-0.30347891344640304,0.2071348449293701,-0.6262650160930501,-0.7462570719933682,-0.06649431221236102,0.5390672974357688,-0.1406774054979161,0.09892610239870958,0.39074619424755275,-0.9927210227870105,0.33504392957407836,0.25388384838580347,0.7316953756009199,0.6257670054796816,-0.8222633681512425,0.5863948763245003,-0.7198418966281741,-0.8487081183813832,0.7317613815395171,-0.2289023697028371,-0.9549203012527979,0.5105648528685783,-0.677890695232611,-0.9929140309277079,-0.2503674451380482,0.1814679610843625,0.26466930503066,-0.7526280111374386,0.9030614936311373,-0.3836240177789434,-0.5574752011565918,0.695291829281763,0.989809698815658,0.48219080092588923,-0.5642573002575427,0.07224512404304884,-0.4914021493152023,0.13244374919078838,0.7409732483285936,-0.5249651792472121,0.3734114895279017,0.02946247136417592,-0.07516397240482023,0.18769950096834728,-0.6129545716114138,0.47298279514634706,0.6557185888187104,0.9018803099449401,-0.6174077924153893,0.3149140440372315,0.936351930325727,-0.4033361444947832,-0.35256975302635857,0.06742703353201561,0.7680485379162095,-0.09767292131636024,0.25513800153463717,-0.9815436827824039,-0.3680039680165926,0.5684264108059012,-0.6164720864562199,0.4451301706219257,0.3037143191802345,0.1512729053174109,-0.1886502929023508,0.0898648491363061,-0.20568000342315074,0.19622265472324374,0.636006874822781,-0.26056812068806945,-0.4128759457535405,-0.8076014416726695,0.9051490818030952,-0.7645397127832758,0.4036702896462971,-0.8769088664229661,0.43666624067261617,0.3618759007418671,-0.9045535746914924,-0.4102912328086882,-0.23915752596840897,0.4956608616997455,-0.3652046301008027,0.8806633614395788,-0.7479684719259011,-0.9476270504636876,0.512010789586784,-0.18628199491171538,0.8507550408090596,-0.8063424564465338,-0.848040603685797,-0.17698016494225177,-0.4046105834483398,0.843183232938622],[-0.2381506502979156,0.7249632688579988,0.651288135046022,0.7667894192884477,-0.2697054333944302,0.09863572193778003,0.1676047487932375,-0.9035246171505373,0.7683130460391787,0.06602034573176008,-0.985622305436268,0.43064933897305036,0.6354168426393181,-0.04493901463295069,0.6391814898043102,0.7402824062665712,0.673865520686804,-0.3036774828734745,-0.21897103209392688,0.233148491992484,-0.6065657618910874,0.3945431979807541,0.4275761157295155,0.254371319626602,-0.07634845370261001,0.8187425718422032,-0.9875594085267387,0.3352637921441528,-0.7292393354351927,-0.00970054556182287,-0.8072928742007215,0.22770189801632945,-0.7901922172557558,-0.9832204525802095,-0.2469559976721496,0.206427805279918,0.38362247784040004,-0.8420152074595744,0.1834957138024039,-0.6020608056676152,0.4535620506258615,0.05926179737301603,-0.11878400338158954,-0.642201722335962,0.6926323725005185,0.1193701819320641,0.3841980780169951,0.0619994950558373,0.92734385757909,-0.5864396560469578,-0.6977002872498512,0.9582209372667774,-0.589789412367907,0.3651877349225834,0.2235417427835693,-0.6801016080970075,-0.8838270355993041,0.7603468368750987,-0.7281690116255022,-0.6608505463771337,0.7740645210393957,0.01800973173505671,0.47788902786090315,-0.49851000370974985,-0.31273635207761386,-0.836562869011312,0.10136353921008,0.9784040718228881,-0.3059295043838188,0.4689355308991403,-0.3920467218013856,-0.07932286293692685,-0.5011307583185101,-0.8209761105493828,-0.19502594245280322,0.3559761845799684,-0.16946369634853264,-0.5782220034396539,0.22210626291161162,-0.921077737270758,-0.7274206386003286,0.5045366067730801,0.012566897948963707,-0.354994278864047,-0.8527606112890713,0.22207542903160782,0.868849606727899,-0.8841990255453984,-0.0132325592750826,0.3714446715009978,0.7853396528226294,-0.87058949299036,-0.6559690620711446,-0.11070254544588486,-0.7402683625816825,-0.8114296252240012,0.3909926671835799,0.6791415454592448,-0.8852676341663263,-0.05109120998549708,-0.11890238929245182,0.35867361406381,0.2971840412766158,-0.9090769492997577,-0.9039316052859393,-0.08513545648906093,-0.19856529339850074,0.4024613294938645,-0.5679527047511758,-0.18845942321682507,0.5500277493128376,-0.386129633447613,-0.6707833189798351,-0.0909903850427689,-0.6846913191054798,-0.23424500412497506,-0.27157750721138996,-0.340237049559154,0.45095718011062425,-0.2321021285676985,-0.1812515680682058,-0.505544255337052,0.34044301671749705,-0.6640143926697535,-0.43515272493306184,-0.23658998363469202,-0.13297849722248553,0.7184814044418658,0.46333462188230673,-0.31822713112323336,-0.5789174743528045,0.9818011523889509,-0.42523224822458217,0.7488519337638264,0.6179473595336037,-0.47924634713687364,-0.16939366438136982,0.4603218010633441,0.5022585549720686,0.04975056368797359,-0.47109913299529227,-0.9760833318471414,0.28799125959790306,0.5890398455554137,-0.7338865636496791,0.721369616896109,0.734017130233308,0.4043369366390854,-0.3822213989843227,-0.6777390491391203,0.14028614084535931,-0.568256827055239,0.6883805894964521,-0.9090535063550222,0.24213819849479043,0.03165226051880269,0.7725704793428715,-0.4031952180732307,0.04428223828491937,0.4359234901220876,0.1459325357845227,-0.7275038831067046,-0.5769758536214413,-0.3265084873814218,0.9691752347064391,0.5311944438617259,0.014124206376029546,0.39173005545793194,-0.8976721181317799,0.7027123931876074,0.09233865070115543,0.2745324046698466,-0.8160047344073594,0.8577863086993444,-0.9847538190086436,0.9705051646173083,-0.8741623266894345,0.567234156382307,0.909408810837136,-0.4040801448524352,0.4643511384559624,0.9627220053306647,1.0232740325865208,0.9450325208975765,-0.21477172409232168,0.05837621793241708,-0.36458847310314246,-0.7105598168758142,-0.5755543833033278,-0.3259442017732975,0.00626882724588293,-0.18829928178154826,-0.6780385406494086,0.3520319385109784,0.16188268534172226,-0.4717192359186482,0.9541721764956188,0.9508810639634473,-0.6137279327595504,-0.5536823744655355,-0.8401690356216368,0.859981438015368,0.37968844739219454,-0.39746708747872794,0.6292853320830514,-0.9757881093293636,0.7140505775459983,0.9779871944114229,0.8257937782805176,0.9982647378102297,-0.9295557859433599,-0.7646314268426806,-0.8847929070914443,-0.09484049397316281,0.4420870619789131,0.4540388996112134,0.8163811464391018,-0.18743171498449093,-0.23130676828371918,0.21018351678494093,0.4250060664618258,0.21931346429271598,0.8450364415578864,-0.958123262059211,0.4599319295794948,-0.824140868130272,0.15663440772457107,0.542239333021815,-0.49323351321556075,-0.5685806159625135,0.8759662151599423,0.3965656604273299,-0.37879045538133943,0.5060521572809579,0.526127597438728,0.047542216757338364,0.19779124727498706,0.5837338419455577,-0.9280176471354953,0.9242007480634233,-0.39749784248044684,0.4580262825809229,-1.0080089967307841,-0.3131825926004789,-0.6863335024051086,0.7919230388401952,-0.3043888831629302,-0.9736007121443604,0.4494293160083993,0.6207881113032385,0.5305810529707008,-0.10925972817846707,0.9293320843519521,0.8164831687802209,0.541587021806654,-0.23256746099768508,0.8724269219868848,-0.1930752576576558,0.26198809527756556,-0.14375727500573737,-0.8065376960218643,0.325891054634082,-0.8346039139606459,-0.23671908460604188,0.9758330310267614,0.6945819034346882,0.921374252418587,-0.35579851410853,0.3850050096096959,0.18501650047158322,0.39077587090206184,0.4959374727018178,0.9834076268537846,-0.47555062259715497,-0.11959343569907833,0.12071857206934233,0.026588774086115218,0.7584690505224516,0.05962759479297027,-0.22603553983784774,-0.16500888896452226,-0.16899244765472884,-0.6464028018384227,-0.03358790700326942,0.1674652724857855,0.8855433080759346,0.9282326730062262,0.7935183152154762,-0.15379030624969178,0.9449223546716867,-0.4232552877779256,0.9494292237366976,-0.399068994881391,-0.818059826998592,1.0510075039772,-0.7260122925039322,-0.9508407247545115,-0.5119212394383695,1.001561264997274,-0.7335649134858568,-0.35168011091619406,0.9451290095015361,-0.8013396233100909,-0.4729891412967974,-0.2996635434259007,0.991602325602691,0.4690383191537599,-0.8550888746726932,0.38446143241856,0.8782435244079889,0.013990343162952446,0.2331478972960237,-0.4750662617638446,-0.4368563288323863,0.8599328731623905,-0.061546181507140495,0.8025579186537188,0.9677662880026944,-0.2554506080190438,0.6932070915360193,-0.960840876397401,-0.14713665326914507,-0.08119491319331844,0.314142531561998,-0.23517835322259797,0.6370355003007446,0.26075288558986004,0.5039554961172932,0.13247750185022417,-0.9376528149767617,-1.008871375097271,0.13248551671190803,0.2581344116380647,-0.8060620764836123,0.6756832399992774,0.775557799190774,-0.41709148916852934,0.02047781206266608,0.3873895346992593,0.43407962469783457,0.35987377888128175,-0.6335683375077905,-0.620547722769341,-0.6417736317036059,-0.689666135619474,-0.8642573113217971,0.9475447475283693,0.23189492794786523,0.2339521501562981,-0.18590725964549296,-0.6843273222141232,-0.5334505745734635,0.37405540966686096,0.8810216967873181,0.11717270600565032,0.8352333824461176,-0.14130797712741647,0.6865951444986903,-0.22489803019342613,-0.21906143610833662,-0.40175963382144075,0.31598473149817646,-0.6448195398058006,0.3567541024659171,-0.4439209029608544,0.033898456783309605,0.7269716927829482,0.10878509757158196,0.2160793971326612,0.33566692596315834,0.5411103699396584,0.11622012173966088,-0.9795012430317535,-0.8193792114226985,-0.44771382085577244,0.2422456633279552,1.0519421986434159,-0.19129761124168063,-0.7636348454818371,0.8292786440766474,-0.9375788578713167,0.09319504363289723,-0.09242523379243467,0.3537295672594709,-0.5674547149443571,-0.21273210497486375,-0.22434753778208547,0.8084434174460701,-0.9506240698410994,0.7998723646819442,-0.8819669888740711,-0.17176806622532004,0.6268474358532377,0.5466598270273795,-0.9412817785036314,0.08378908176432893,-0.4905264271051072,-0.09089121621963568,0.13316460476967523,0.32931717933259974,-0.922868623182019,0.07427608954059978,0.5019152722975418,0.4298912629430306,-0.5116234233613033,-0.6576213301210311,-0.7847650443995381,-0.24700361359607823,0.396687141737958,0.1953070943144463,-0.5835327007137726,-0.7360232070568619,0.6515254641212902,-0.7127278153427806,-0.6144869775769519,0.509796838199752,-0.047869103540765914,0.5107392462971317,0.3551333225940812,-0.7620457537839798,-0.26471497387043197,-0.6192461393504236,0.29989881139218166,-0.7954870778353991,0.1760786665163302,-0.2943978923599571,0.42969870350991834,-0.05445957514408967,-0.8658554204337298,0.3206978956412248,0.47701334847500654,-0.8597031473781694,0.045605248096045485,-0.9372439546655567,-0.9492796275701493,0.949509778411282,0.7051077726813754,0.6526364049133018,0.8745609387438207,0.2356291418575946,-0.43929435693371116,0.4389423550427868,0.27923947878593997,-0.12369214646349111,-0.2083534336657155,-0.35987420215269444,0.6265918709875226,-0.14078666629887593,-0.1319222871034742,-0.9239914311429089,-0.9534503488579258,-0.2820673669220357,-0.40024057358110365,-0.6033602383141469,-0.14418939425947447,-0.44381439217787405,-0.9498230776126216,0.37336831715199054,0.8916068751836416,-0.1818329930138823,-0.3576509361913721,0.5206117306837033,-0.008174890993858642,0.7252693194489492,0.3705972537972962,-0.8356087300879598,-0.17827357004331887,0.5736151444037803,-0.6929570803963949,-0.06283628155375869,0.5787587044353888,-0.19762538852407482,0.7416094634321283,-0.11139999264141709,0.867766551189456,-0.09761406730488043,-0.8894907061804203,0.8809231644495865,0.004850872783508375,0.7654064473538644,0.24853022800072122,-0.9039596612104568,0.256169963684448,-0.08036777335620728,0.963559230726926,-0.88873468427671,0.7639543261893517,0.8453442431680839,-0.29596603999983306,-0.3962593005553232,0.2865506303722499,0.36131668656506805,-0.8774405690773206,-0.1763290629522233,-0.3615932145969253,0.7250023471561378,-0.3077106988866276,-0.5833642427939122,-0.1509664559021883,-0.19326948209033348,-0.510448580083123,-0.100281258242348,-0.5416791350103889,0.2325391362227811,0.9223736091282793,-0.9952351047556074,-0.4183489730894179,-0.7340103889980644,0.8063430757760504,-0.007487061809448765,-0.27039434537156737,-0.12089826143600108,0.15794369583851156,0.1649274142742852,-0.7409746182768719,0.41202600306548043,-0.009634916839619376,-0.5093407008866475,-0.9623337627592027,-0.9052386790384208,0.7900037318532714,0.9676360744552038,-0.20976995738231163,0.4169344725246312,0.40068046934699436,-0.4592394581155834,-0.5689313197155297,-0.30318100185447583,0.7807699237218119,0.4270583987912134,0.6377600467019571,0.020503496363110774,-0.5949505857233008,-0.6204298717678594,0.3931010388129341,-0.012844903662855232,0.3965984592767237,-0.5005064439817885,0.7100987752460649,0.7087141471326097,0.4412048757078514,0.5334228213723604,-0.1386437769115776,-0.85368002492198,-0.49838212741058946,0.25946081041009267,-0.5572899456385576,-0.6522535576278191,-0.7086790508698544,-0.5446391349697006,-0.6809638120259207,-0.22082998800794992,-0.9369217959865379,0.2196632519497376,0.15004994509334466,-0.008530386131402598,0.6032671240196925,-0.003179932903116761,-0.6948669950743103,-0.46974060370827164,0.38243717997212334,-0.47798164651670216,0.65245757894602,-0.26675844629454404,0.8975794696631235,-0.9740218560439675,-0.34154102319814933,0.08570055601025814,0.9570015168370454,1.0277936748499716,0.9015958103680759,0.8352332870139714,-0.966058999735601,0.9465618444617423,0.10365219655930429,-0.03394210588803182,-0.2505612331342219,0.4026066255682093,0.9276379049156338,0.189094369532366,0.0155426920569335,0.11845531263299836,-0.7745968845315218,0.687172118593768,0.48550500030498006,-0.43948882178041415,0.25849120983962154,-0.7676813648401652,-0.811000909090462,-0.7010376120091704,0.5488759207463829,0.01457678666679871,-0.06935999918738323,-0.420322447286769,-0.1519464842065054,-0.739362950401956,-0.7278951765404673,0.9577209758437797,-0.9051536229747394,0.4668338281905964,0.4274240261147467,-0.4601949060409089,0.4789292723451603,-0.04862129547912611,-0.4022706078247598,0.8540481356500429,0.7369345962460871,-0.4552293573596711,-0.48865650783791104,-0.5932278754925678,0.6336004768857326,0.4496920737866728,0.6567419358300619,0.6823613069016586,-0.8975282811767649,0.3193772906980805,-0.9843252524779107,-0.05841497853740707,0.9024217371399686,0.03847806577471057,-0.3192824238039666,-0.6425514031699625,0.9904846874277481,0.8698371721783937,0.9639589186123879,-0.035392770212283264,-0.49928182978192653,-0.1667779899348815,-0.4097831996321637,-0.9387858176153205,-0.7258959705260078,0.908038837179234,-0.7794216663760507,0.049112919516637654,-0.36362342080185184,-0.756646727568305,-0.7173166775384576,-0.21078061542480708,0.10217688889278884,-0.4952031355777078,-0.5125384889597322,-0.5174021099090793,-0.7035308639127156,-0.9055363944483625,0.8062517185134799,0.5057046819664532,0.38321084310568554,-0.9856534278597388,0.6957712777616697,-0.3500695595372844,-0.7740127861045646,-0.9342462011290359,0.5697895461466826,-0.7101032148179653,-0.7412946684302701,-0.4951210289059278,0.26966857611269074,0.118916082034271,0.959422763828096,-0.992471892747459,-0.38838257759881617,0.09147273336106371,-0.8711024449350597,-0.5886270787820872,0.8242023649767248,-0.42861177001034706,-0.22529383059856503,0.4328585932604788,-0.4418347222628726,-0.00692139619571952,-0.31191840704658036,0.9345991170807779,0.7139876976738493,0.44759096721003555,0.3330735643805469,0.8425216932399971,0.12042526393510139,0.29802188813570973,-0.5790408521877068,0.253065655219495,-0.5080712137576762,-0.8802777591224243,0.9312641054209007,0.4345269695974257,0.292222666807434,0.37689061326457235,-0.7436964885659979,-0.31816867900914836,-0.848742951292832,0.933755926584546,-0.6913264747066418,-0.45130917389176756,0.0923401075859508,0.1422517619198368,-0.8990737952798846,-0.80029878379076,-0.22065867336568215,-0.9238072747625936,0.0028080739358351536,0.1268928289753135,-0.40316477787898064,0.7657476052389254,-0.2773025158091662,0.35382085156843296,-0.11975161581207333,0.012575424575777625,0.9199074798679456,-0.9853754931135285,0.22238846476820143,0.046988298274718926,-0.3694361442027594,0.6862922913655838,0.0139207147927858,-0.7078678499244453,-0.5496843089942396,0.7794776851563852,0.481843879646075,0.4356184337329498,-0.9998024320913911,0.44913414024512754,0.5231395854473487,-0.8509221504241558,-0.8934154686925322,0.12885382375494311,0.6870003842485246,0.7538999697322666,0.2370125410948356,0.9030944236474197,-0.015058260540845136,0.7264774604390603,-0.127028274049787,0.21935823178140573,-0.29995280558030407,0.5422749674022668,0.5250457602804515,-0.16263835347323996,-0.6507138589409068,0.9287960550212322,0.3215221126287249,-0.2853479966833407,-0.658893562333634,-0.895422249208934,0.37677203663782005,-0.7763659308907923,0.663306116274526,-0.3405136241297205,-0.5100870079678309,0.6133168725932276,0.8193205945736528,0.9268699088563576,-0.81590889969103,0.6605899834463749,0.852323392152881,-0.686937415452316,0.6022868232007426,0.7804794375674913,-0.4467665179356355,0.994393194554716,0.5622657522328951,-0.03581732152681205,-0.5921450772773764,-0.05322275093291356,0.7164630602442892,-0.720100266023327,-0.7856452674079366,0.6506900608357973,0.850551514189638,0.22275047460597736,0.5614747251135037,0.742104045821246,-0.30235291868135467,0.5770460295855723,-0.6899171160097165,-0.7231273841163499,0.5815348765691155,0.6583375177523484,-0.594645934325789,-0.3427358385780708,0.4952253928646466,-0.8525557577460368,-0.7124949605773518,-0.9718753792911694,-0.2704957777565635,0.2830185841309856],[0.16761169971743106,-0.37618863714790063,0.25538932729144737,-0.12020739917021706,-0.5208826237420099,0.6218885205037314,-0.7090840712571929,-0.8544614389256253,-0.4843407966082016,0.6993476237550778,-0.7226906484149045,0.6992719503874314,0.8304867899950117,-0.43929709117993365,-0.05378941764769696,0.8097252487113664,0.5367339495988372,0.7573270238013836,0.9232134394421299,0.26108305872520665,-0.04868526894840253,-0.028793896550010523,0.9260120271477508,0.42707687289574636,0.4168436429135096,-0.7114832036921537,-0.9392899065853961,-0.6013140528104541,-0.29704584440694193,0.6672798987532773,-0.6849654570678387,-0.10987697836543875,0.7777263242463031,-0.3911610975697948,0.4451015206128468,0.8724980603184114,0.3659357964125216,-0.1165446784077746,0.0014726751447853884,-0.41265147049907686,0.6560943357199909,-0.7452953666764819,-0.5316562361927379,-0.3454987893998263,-0.7259220158282915,-0.4582232553614562,-0.9018985223691891,-0.33793535621867876,-0.6581457046466617,0.16343867168749251,-0.08923297024240417,-0.21868598042969145,-0.1724242032794021,0.8513018797217855,0.027069097785777263,-0.8324750708954007,-0.23856545291869136,-0.044728981091977094,-0.8195567017821133,-0.9126180648383357,0.06234064307264431,0.800569156813614,-0.5462841134843806,-0.22009307171624748,-0.3761412891541469,0.3816346198439997,-0.15169716288333274,-0.17865486916410644,-0.9795448641523831,-0.5205223527401682,0.6740304156543528,-0.4299612774751107,-0.2774735363440576,0.1728054440070258,-0.41809738047503997,-0.975793712054328,0.5959564715509975,0.5634873977312559,0.2385757291459218,0.29319718163748465,0.6995391569917726,-0.4532606061928508,-0.6221876925061345,-0.7155389023876735,0.31586402315290574,-0.1014637956232316,-0.7047250283394986,-0.2635829369158462,0.9926532549071281,-0.365543379942574,-0.8664163165818316,-0.5210918909130718,-0.2646335034611195,0.6736980913580284,0.8056026220288598,-0.2218932779283242,-0.0640039130569533,-0.4267308763740203,0.17835235136732755,0.07968426587087438,-0.5541366977214048,-0.10659375137459322,0.2878769113452257,-0.48687611745036785,0.5258753418778236,0.5278696169192447,0.6545030491089379,0.6096056788132236,-0.9309784220062098,0.89494209397649,-0.47323090470479023,0.7517472075752116,-0.395666139145908,-0.0021734658107779303,0.6955690196863138,0.022111926593017195,0.040603756223845745,-0.5517430500065871,0.4081042779560777,-0.760838776507831,0.9733220782461859,0.4081627349113115,0.9219754401609587,-0.1570948477306512,0.04968287324748379,0.6447408293458524,1.003341039939806,-0.025608794332424092,0.7948145827937487,0.36579568690626646,-0.09707897636056276,-0.8514587906846137,-0.7136454611741684,-0.4886301513290248,-0.18373700181151517,-0.32112946412919197,0.6627269191667663,-0.8033288462568313,0.045141048865084965,-0.9480255597264211,0.22555997944187078,0.2082211979379176,0.9484426967075428,-0.566147619753277,-0.3646833256009199,-0.9641577497983819,-0.9524046132679895,-0.7373291220756869,0.7105443410148145,0.21211266941788906,-0.3910606229326618,-0.3652138046252796,0.24117202432823429,-0.19825154254872485,0.3530981067253878,0.702011628312446,-0.1037017295108783,1.0096929031098356,0.22037754426328446,0.7338347979903284,0.43796086333631523,0.5593199404897461,-0.5737084011862468,-0.8562200542155265,0.5796421331468495,-0.5032780495482208,0.16177348307969705,-0.6459113300126145,-0.05593782551564619,0.59864559131349,0.26871754794547886,-0.35765052650527224,-0.21011763763404298,0.48721218476048433,-0.7111933894144589,-0.798285627490581,0.15263773288160878,0.1671265694981056,-0.7278294309889235,0.4741798137259801,-0.7600374623011863,-0.38563243811933856,0.4945103741368958,0.6884234095958576,-0.8542823213941975,-0.14376493131136672,0.9167929721334346,0.8649338151796592,-0.003426862826371577,-0.9948875665453213,0.3569827787492226,0.13930779568601714,-0.21870518306977826,0.640940510626954,0.006629598431918965,-0.7817500041965754,0.955925316858607,-0.09969649959422355,-0.14338690003817364,0.5327086113598398,-0.3352109712148124,0.7270524393392469,0.052212116682117296,-0.08875021903505535,0.5187775431052803,0.9669485188619331,0.542673983910212,0.866983509696606,-0.06760996280806297,0.3819650271793693,0.8283704318013164,0.52527943816332,-0.47806127294936357,0.15095934825351304,-0.4815329395480123,-0.9810381608789038,-0.7663995807503868,0.3286907848435406,0.20734692180126504,0.5157207221035406,-0.30302415083999584,-0.21742705943593357,-0.2996757599800674,-0.1311508609334624,0.5314563791529516,-0.29931906289677457,-0.16343426574781367,-0.4112238546301536,-0.5484538583603715,0.42229564090630434,-0.26933544409667914,0.45066779474693874,0.12377733845014419,-0.20885906843165516,-0.7665287559280992,0.16088664965720476,0.9522188348691916,0.7662640293853,-0.9756042935453196,0.21463960403996538,0.8268116957439714,-0.26731600962817664,-1.0166416810568815,-0.24304215646129237,-0.4367392981303476,-0.46678279452882276,-0.25169799898172396,-0.15315694656867287,0.5442410665822387,0.07098173126403919,0.05518326145874896,-0.8796639426619124,-0.733910640359015,0.9906395847733819,0.2329660064927962,-0.2697119133973372,-0.25358545534746446,-0.9233933209222902,0.3704382598949018,-0.08003552144338585,-0.47117604750904735,-0.9041031495181124,-0.7391892641562912,0.5411307916849734,-0.5603661598569477,-0.8023340849362905,0.5525253400691886,0.8150582029080694,0.32764475116856917,-0.08245056546652166,-0.8129839820909529,0.198513546942566,-0.9056924156215117,-1.0212702052291511,0.8758845948351753,-0.9431695253645143,-0.6476291903075758,-0.5299654693568283,0.8118573434732572,0.05099662930707849,-0.9857727580405395,0.4398720704971697,0.06596724649617716,0.8301532761397894,-0.8147591870502837,0.7132216231719787,-0.8490219129769836,0.36311115501620495,0.9085359612714924,0.8921829806737641,0.5595523318258115,-0.08275024142251751,0.2876405506992094,-0.6689171179457473,-0.6312301286148447,0.9923916655813416,-0.18914118967170193,-0.3311884437978793,0.09305128386078365,0.5588983815643737,0.4939977082921754,0.6851477753796287,-0.9126234619126683,0.37143685124013415,0.6380222773445953,0.8344036237993572,0.2775900692773648,0.9764658711304128,-0.47050807187568644,-0.11571364287139474,0.9702119369533384,0.07355638370904517,-0.33247801932615473,0.9814306141599888,-0.5878290140870024,0.06960233289267749,1.0236825557560463,-0.3645113565316323,0.8231558438381225,-0.2931940978628151,-0.9316805823288271,-0.6114849882377313,-0.21203202997918977,-0.45594765126624304,-0.20724725816965192,-0.6540440281365784,-0.5398564705708749,0.7606892117861963,-0.2393549498994543,0.17741418747882157,-0.7427861286189754,-0.24184440328084036,0.9593574215317047,0.459644889188268,0.07237073891934684,0.15197053607018418,-0.08553446898703454,-0.20234906635619554,-0.9929725938051432,0.6314684025476672,-0.8702403295074882,-0.6585712361893999,-0.5144329989463827,-0.8664304346220038,0.7401130493157677,-0.9322057947383307,0.4544336343950301,-0.6759399462108922,-0.026797718046410336,0.6276516702437938,-0.747623475911529,-0.44465883440140425,-0.0012318083067271728,-0.885226260436335,0.03357465138688593,-0.7403681887893766,-0.2765864819145314,-0.24268397893251564,0.8362832755020836,0.963130184059694,-0.03828771050897088,-0.13619176332923197,-0.992500402578627,0.2611765405839508,0.47872498338434477,0.19744861631293364,-0.5819805134764235,0.8536304880876733,0.8399397848157218,0.2524147159877828,-0.2062245924088731,0.22184890411865743,0.96498718887902,-0.7800070522561725,-0.6158806082569128,-0.2862768917048822,-0.34499342064285066,0.9389568725596077,0.9392023454719799,0.936064072158556,-0.09705392488997573,-0.679657739014542,0.2949626823329225,-0.19139267052700898,-0.3937403335505462,0.9417394718407385,0.23621364915433454,0.6841535717606176,-0.7369851386061592,0.1904739470148722,0.8815702996474141,0.9882365679036851,0.7489621205805781,0.6256148682123457,0.5782920772204263,0.44096448955071865,0.7901524686814572,0.6676123601304376,-0.32771396994585344,0.9163244774961097,0.7778525413848574,-0.20827559876404092,0.37863733744604333,-0.9451897661100118,0.6152769461494662,-0.7363352838826381,-0.2813794460702802,0.9505065694468731,0.10281297823523587,0.6540029687157314,0.7989699214667991,0.9151433639647196,0.8246028109480168,0.2097241805918704,-0.1412491443592028,-0.4992950394021983,-0.2493379705986479,0.22864043039747714,-0.25759086236781653,0.7645294997799548,0.5340014644941511,-0.18379418738438114,0.7006384036997777,-0.6720673938468914,0.9522836352167855,-0.706905278389889,0.018726272417878654,-0.3132693717222218,-0.2972552480142649,-0.026078579689918474,-0.9547060546156776,0.04528790531419463,0.43613014496299113,0.7104412952273217,-0.2637094741070862,-0.3247203315557421,0.12642913916754045,0.17771445354791227,-0.08593886183492742,0.4478296421532986,-0.2825002916932948,-0.128459689488479,0.8299824977856987,0.4596422208246974,0.0019225184097624926,-0.012077010967109314,0.9297684328602703,0.2502353577400567,0.2566287441797779,-0.506372630648265,0.7657862882592297,0.9612109016514789,-0.7728838742800412,0.3404165975752264,-0.19588318239565097,0.5941550878168711,0.42119971639150167,0.35822775253841277,-0.5026678822032972,0.6209784516637965,0.25286985350365077,-0.4187146725186287,-0.26218181133121227,-0.05721228615826376,-0.5597681610975622,0.3009392630001845,-0.44258786923447985,-0.45261194865445714,0.016588840128343278,-0.051222319207628646,0.09998563326273611,-0.43993252768464003,0.09382114496040941,-0.07152409611471496,0.8714997920540903,-0.7378590769385385,0.6960053658923533,0.5214703624536599,-0.5612227568432154,0.9140164258589534,0.9296234544794337,-0.48174042470008827,0.7472224377687195,1.0175543105967477,-0.8961252439962113,0.3256730131211869,-0.588181090601815,0.4140946277927998,0.987353171474771,-0.36927662701188124,0.9141554385229418,-0.4670859116685263,0.08143899624126084,0.7074961910169836,0.1948251515727982,-0.5179728831020372,0.5400566182196467,0.9969958830510238,0.8754277121807068,-0.9803475725036361,-0.8896680600637831,0.035329261601933,0.33889630713935714,0.8385304851710633,0.9517304244452389,-0.5318686576318639,0.49228942889757965,0.010366935975318771,-0.6360652740112819,-0.7054541318878417,-0.9000777891294829,0.21194292212551155,0.3216604573950382,-0.5085027595161599,0.6641579064757123,0.6471320125068368,0.8872283316266638,0.4182537791698007,-0.39924628141931023,0.662231970300132,-0.8517489277674203,0.8438901107011623,-0.6788244264374398,-0.5657388328321865,-0.7965853509463097,0.34811930276083974,0.8770025835736799,0.7916331124144635,0.871760127868426,-0.5858705106862768,-0.16683085138664744,-0.9979268611541214,0.41528722625916803,0.5458305931763827,-0.8945252189959542,0.04377141364730968,-0.8595769545526578,0.6242015417627463,0.26317749777035715,-0.17773701155126412,-0.9563503733338337,0.42871705483947736,0.5832906091033256,-0.1478033576224901,-0.9482955615365953,0.8696457638116685,0.07505106255303998,0.961377843059543,-0.8340006741401552,0.26183979375385286,-0.8085006330905007,0.008647927205817547,0.4463578380385576,0.07141836478825052,-0.5876133754660334,-0.2950375999524754,0.6747898322917961,0.5103713995148382,0.191188466732918,0.9655093277876068,0.49069854350122677,0.3894078624535604,-0.2269385208484237,-0.08284581375470038,0.8115347822831174,0.7950916356669132,-0.7277769627891173,-0.7876152587033853,-0.11596102903931502,0.38583799625229914,0.30264913222136186,-0.24763279294142979,-0.5648997195632647,-0.8536869165239843,-0.8737408813946328,-0.08283310657471238,0.6434087037481473,-0.2817778085925539,-0.020301761740862602,-0.3936580027598023,0.4038324215620463,-0.5815594802845354,-0.8834295365507624,0.6493194142327929,-0.27289961879766017,0.6062126023033754,0.9790577543461019,-0.7989136787658389,0.5490444029750661,-0.4830189665439537,0.07700527881903299,0.349960091683732,-0.487973828999278,0.4032086537757553,0.3859229780780011,0.882181431424293,0.9521100699470848,0.6477027098049203,-0.1557447211080575,0.29399578330070414,0.5684144335592362,0.3018485930063041,-0.8366756182041047,0.2630226083504874,-0.9362907643457113,-0.9365741495151776,0.4716985165209421,-0.7944164967235271,-0.8458038101430655,0.7705839466583007,-0.6217185000542441,-0.19958750279827292,-0.31098627788167826,-0.7255440382853001,-0.8154546119015883,-0.4609569456834448,-0.5084625654118713,0.2332234157349964,-0.19947506748220992,-0.5667424129743884,0.9597242160635444,0.47740407593410206,-0.2311953929013946,-0.9886637454406505,0.4249139978164587,0.26966082181698214,0.8633012747999221,-0.7937789169726228,-0.5353370540867352,-0.490441857609541,0.1356903806531637,0.6025180061401997,-0.9107688042791406,0.3529265260955068,-0.5008101206143064,-0.6575227084550966,-0.3484323078941242,0.014285637201325233,-0.07511664616865484,-0.16118362668738836,-0.9886989739462713,-0.8390647994002477,0.4745213084926452,-0.20006804328787053,-0.8568761865061538,-0.9263640666864759,0.0141375431111358,-0.37560617351600734,-0.6738117320770894,0.26154947640940085,-0.3006297789655931,-0.6163372260243062,0.09386734162084845,0.18076684832084328,0.1821013609529289,-0.00030089427250177056,-0.7529113299211907,0.18190172238912647,0.20713910544412395,0.10577305472824282,0.5614161499645288,-0.6058711997992339,0.5090557225349394,-0.9186584980249753,0.7863894763020284,0.2571776812593534,0.2211514637019276,-0.44455918881684314,0.49562459264749287,-0.9758298440813222,0.23805955245650878,-0.7988883211548319,-0.6170897400296211,0.17968716347797864,-0.6941813222600235,0.5594619702158456,-0.9955258805382927,0.2311685123432198,-0.49440322664710507,-0.09949237265047732,-0.6325522591297792,0.3466947040246549,-1.0011088416384943,0.6528546960926682,0.6864243421349797,0.5257677959473341,0.9169330754478083,0.41926752336761675,0.6687030118701361,-0.6196960673795154,-0.7620710374482556,0.7085811784794993,0.6411153930470791,0.6060119188539217,-0.8358281211337173,0.48269486621721813,0.9930760919753401,0.23871490021148434,0.483973469940711,0.7097337186732826,-0.27011794384930576,-0.17394019846557907,0.43695152108024393,-0.5848492346124708,-0.817598922727867,0.6081610990442056,-0.2613879075865128,0.833281252876067,0.011408382295685684,0.3052613967357336,-0.3950641783242723,0.9342342134130779,0.70368281287492,-0.1601308682334878,0.7516548384866987,0.29849281784223086,-0.7523083825840481,-0.6111182370865761,0.967672120333719,-0.26492736142908774,-0.2842416957227169,0.6505343252190618,-0.1642942975409145,0.2527807416983308,-0.5188908796693574,0.1423216014861901,0.05646971668722234,0.04604424621066672,-0.05901515979870764,0.5749793537484806,0.5569604547963349,-0.8009550101091292,-0.5347800405239572,-0.22252817040306017,0.0824654431570593,-0.7955761504975526,-0.40785080372268173,-0.30766110383042894,-0.40365759226957987,-0.8540296648123047,0.9513143562608531,0.6249933906759512,-0.8391496601242016,0.41971887526520646,0.8815449452208999,-0.2234597706981529,0.5487701106924361,-0.36931625133693696,0.6703429233334327,-0.4756112599406752,0.5307074386711412,-0.7544761601661163,-0.735589029866984,-0.2649289661650682,-0.6604792282608347,-0.4368097209771711,-0.32480163401073847,-0.5645896999560391,0.3182990042599454,0.6451552636635673,0.17390130125636372,0.389109357975309,0.6974110559934643,0.5903828397415603,-0.09433054713406394,-0.8414247817619169,-0.06604808998472975,0.07719407985408501,0.1566680621769804,-0.17516309231727986,0.32568270674816285,-0.896341512802498,0.32427085004508305,0.14907317895098937,-0.11466142134900535,-0.060329179596524514,0.7836203401500499,-0.8013924310166964,-0.10344134281235506,0.19472597844066142,0.5172825233041407,0.1790127271791766,0.23433894769289143,0.31971994413338045],[0.9272150432103379,-0.9928151679589607,-0.45715148446513654,-0.9444259977524396,0.6887618548079768,0.5148814011612348,0.8827085282623561,-0.558912268436909,0.8632333641546346,0.8362179370693226,0.8061675748581854,-0.0835372270378314,-0.08079364165999658,-0.411068369153444,-0.9321770161445464,-0.6145841008069515,-0.39075276374813805,0.45402838288227176,0.6228237677078359,0.4984585739745895,-0.5651308820952257,-0.753103114669528,0.15324300125565715,-0.28575757945083335,-0.29334459964969195,0.0963755969784903,-0.4886601945969442,0.024698330135523694,-0.08913952968680672,-0.3447862524764749,0.31735743567015406,0.7506747500420077,-0.7490800837141549,0.4558278269279312,0.5020330790590548,-0.295354813177664,-0.427732986212384,0.48572294168833796,0.8326755185422294,-0.9828146271437198,0.03633461526490667,0.3618116531404612,0.06827016838152486,0.03741450716739395,-0.72052440955077,0.6413789744085192,0.6442415869360043,-0.5217253334447778,-0.7189879782901913,0.15267323786036807,-0.8942757267770123,0.1062271777560575,-0.6104410422928472,0.9159963815283727,0.2807301050519788,-0.16022366502043361,0.626321100368199,0.023928933103087857,-0.7218378925402775,-0.8745315815112389,-0.976920797133713,-0.7754034863154633,-0.43844119304068974,0.4027337812088767,0.44951493841702295,-0.5646612069236867,0.5823093331237008,0.3890647875739946,0.10733803534039944,-0.33133556319232044,0.8809197452916478,0.6970397975617598,-0.0991937015323464,-0.1393800788888761,0.4598307080077054,-0.8666460302542396,0.71162154926265,0.23310331527021005,-0.35817574528200546,0.6203405470542575,0.2816286142461193,0.08879048176308535,0.4371789923333185,-0.7798032457669493,0.9026494848667732,-0.9450092532899137,0.6656592206264147,-0.38363561327850704,0.7853327983350549,-0.09755471917819891,-0.8056892986818527,0.42359671970366697,-0.4167867455380278,-0.7680588112407086,-0.3147638621114605,-0.7028999507919553,-0.23702652858462797,-0.07176994211539137,-0.9773646530691861,-0.6365569712989606,-0.17120484035666844,0.45155524446919304,-0.5054034987637721,-0.00982694094478801,-0.7581454004334716,-0.866715006402673,-0.1434623989489436,-0.5401823407322739,-0.16587458984384892,0.5722731588017185,-0.47787001604044876,-0.06863117531505036,-0.8570720780067433,-0.5634030526335372,-0.402247092533246,-0.947557093724567,-0.4462990995663397,0.013373726751257278,-0.10569952152399313,0.9916839931980904,0.05778352680392467,-0.46727891852254877,0.5517715339317305,0.24483309661446626,-0.20615581787434942,0.3211094842843919,0.5603095152783423,0.5160338346332045,0.007111386166131534,-0.546920457299455,0.3474932620997189,0.008826813408055993,-0.6867235423177293,-0.2646725613210014,-0.19811774508504226,-0.4586180834952862,-0.3127959348395125,0.39411369073583424,-0.9661343378650926,-0.101365144241639,-0.716585797181049,0.4537298505434726,0.33881812267304756,0.9384083863840885,-0.6662614459102628,0.7215829287356771,0.6145955700388658,-0.4557014980666056,-0.14490083488845987,-0.5344623138728485,-0.14975030490401894,0.8968136781776882,-0.920837025945959,-0.7444272509237047,-0.1982901391825012,0.4415543553247053,-0.0010059070175275078,0.9514895479618327,-0.197596444423624,-0.0975974445227776,0.02137876294940396,-0.8157881129329688,0.3027649635285608,-0.61422642103538,-0.11198514726367383,0.1641127160801627,-0.09515442577391806,-0.7549781858498354,0.07287118384222868,-0.2046027297590034,-0.3504148128207447,0.285899950877385,-0.8642175648988827,0.24286173823256574,-0.7485415435419382,0.17472222073930607,0.04632778691473603,0.21054271415385012,0.4347505330326352,-0.5169773656621219,-0.959290477847913,-0.9461691801736879,-0.07418210025435139,-0.6762016755092911,0.31137919154786536,-0.9111680578288351,-0.659239531546471,-0.216396160492567,0.22604204456854368,-0.8316629615688806,0.2743009809072547,0.6182813718775435,-0.8231051469998545,-0.24850971485277715,0.9571864698410104,-0.16800215053890596,0.7071586348717465,-0.3680537044116794,-0.06990267972325151,-0.48994308565342287,-0.7411232487809557,0.8362799649392658,-0.8675404584273194,-0.16127547117687277,0.035040719820459275,-0.3138981216403415,0.5678021015258219,-0.18857852351019644,0.9585923519220986,0.8984367589241415,-0.7827009601080737,0.2099205080993432,-0.3587883520015046,0.6616566726260258,0.2128314396861115,0.3041700778119999,-0.7594644375789449,-0.9810248986454386,0.658827590363461,0.4815174277263278,-0.9778151443384271,-0.47250373425064746,0.09751092871892877,0.9026385878282571,-0.9043868893291918,0.7750549581940542,0.6059017152483086,-0.3699258101273263,-0.40751354474431245,0.6038267459051584,0.5694617595206858,0.016834452511844483,-0.01111033880723395,0.37641886125681906,0.20701343871619848,0.7014686992932481,0.21403029083629163,0.21182860900292605,0.6067187165896147,0.7866051616721099,0.7721385522444869,0.1566941118371053,0.42008361629597085,-0.43314688988261935,0.6926781674312358,0.037176955396467516,-0.827234356245408,0.36850542665665265,-0.30046751436265484,0.756411762568374,-0.5674457404746068,-0.9105875753040391,0.4795125736419501,-0.7145961687669663,-0.9992373528989812,0.19372645782266285,0.09100984817887182,-1.0042222224473498,-0.6069979034102434,-0.038781924531953255,0.7604497786601665,0.6001369710239005,-0.0825792512395788,0.3029453861859427,0.937142025034963,-0.410618366550587,-0.28719702781345857,-0.36613677888403495,0.49523956967481053,-0.7827253083360531,0.8463789316304604,0.1105559238158875,0.8906757584908357,0.6748858497251227,-0.5157488723042845,0.15559481072814252,0.8647432378116876,0.7213031979037299,0.8330622090918401,-0.602957244554807,-0.7035093330776414,0.8162486165760795,-0.32230267372298127,-0.5932702788594194,0.9283652265136848,0.8357321374848772,-0.8498996846443039,0.506556056574552,0.7999941518781403,0.5518779425672409,-0.721055623031736,0.4494678857256088,-1.006056550502236,0.766951628652704,0.7881171191997519,0.4572764153962444,0.9764673483125438,-0.6068667574125457,-0.13008928449495183,-0.5519828513747808,0.04076098146127895,-0.46885949852866,0.0638346553389192,-0.1275234369347616,-0.3943750039391216,-0.056053193786738925,-0.2210348522411334,-0.3258771177242026,0.14487472873667517,-0.1215067611156404,-0.21484147899416994,0.6218278305394057,0.6156817123824274,0.4921469262881149,0.11418745064726485,0.10821529910799585,-0.7307831330493059,0.5199424662084345,0.6891903669622659,-0.7118670978153542,-0.5070669858799483,-0.4979330719493673,1.0216005122740182,-0.24552778295707278,0.5287828650480261,0.04440995308319917,-0.09330094956858437,0.8060308668644073,0.6018173575928786,-0.9383136380667852,-0.03012496930764881,0.9784926249575048,-0.9952293603701414,0.5841862436957133,0.5387199694366449,0.9790210606816561,0.8413137602375786,-0.7428411261505894,0.18589171447670605,-0.24350385353533624,-0.6055998138774245,0.2650801254413333,-0.11986269096516694,0.7065588433620024,-0.2491777997341167,-0.42830635383193283,0.22732683521379823,0.29249029920152075,-0.5010903654844079,-0.40131475388348054,0.012672178082316236,0.6472956005657197,-0.500121402076414,-0.9428186727097339,0.9108060775825751,0.13527030433977352,0.26319584872018337,-0.2965669934946608,-0.5172503588656636,0.3859006524879814,0.657488234245076,-0.7858275250686342,-0.08496471840357885,-0.5344461594867198,0.44776033595814324,-0.37480024736675466,0.8130617170620317,0.15948755987299126,-0.4008526667071191,0.20216302730884103,0.6557483208103522,-0.8616296535439499,-0.7695574543628577,0.9432965344341945,-0.20414074445735977,-0.843832551455535,-0.14529360245909717,0.24030345566409755,-0.6200976266344536,-0.45176973384808683,-0.37994616518687285,0.36106053585126163,0.10349243135419271,-0.11706950717860631,0.8163731078095762,-0.8639466908579506,0.9967799625941187,-0.6180356208714798,0.5115247650048484,-0.9597872228064426,-0.49181021311261525,-0.8792819275070878,-0.4805443175053381,-0.2393416945585578,0.3535863295056574,-0.5749487175684546,-0.6744012666966401,0.24959642758612557,0.3442692046760642,-0.05446961139867948,-0.5274717238602852,-0.87754769619578,0.9251759305763001,0.05069249588621794,0.10358831257156187,-0.6141164949006236,-0.14071713539631142,-0.28471012787999384,0.6434480562292262,-0.44795651046031737,0.7871758744278853,-0.19387921590189766,-0.11422264773824295,-0.380919870617115,0.6422507941296006,-0.43210555896684927,0.3241734871888807,-0.8092527234866591,0.04608945567080766,-0.23940301235841588,0.9582011980068601,0.9487575018348018,0.32253233587119423,0.526125267662369,-0.23821172112800948,0.44198596848358745,-0.32375019066596245,-0.620203898297571,0.5397358112645935,-0.6586418603765398,-0.7067167235961146,-0.07577514070611235,-0.8361781119094149,0.15697187262111842,0.39451252982542584,0.11074450594711803,-0.9811232594481666,0.5340333709102311,-0.21680889785133553,-0.5500165048774445,0.25505848250308777,-0.4884707762928811,0.049642526271527807,-0.2664988884059227,0.15898059816523477,-0.9109051173290932,-0.9103344404895671,-0.544084256257281,0.8045208080051851,0.08223398602855658,0.9562651124833534,0.06358557914623912,0.71385794393424,0.5944687023475621,-0.9807414373443648,-0.8124360129758366,0.14484773160798117,0.15551955026596465,-0.8021317022263085,-0.6454822298518934,-0.19164007106229983,0.12488036257355134,0.9449213687134429,0.43731590659838254,0.4517329600957261,0.7765395524358775,0.12461204245937259,-0.5366584107636093,0.14480577444764664,-0.08041930371757933,0.39330604457654134,0.627047112907683,0.4291439078883165,0.11658242100119028,-0.4724325320690941,0.3921333545466932,-0.16129479284811366,0.36257826444954633,-0.8378825782350608,-0.8706711784805112,-0.7305095211749109,-0.660405233997782,0.7404663932486357,-0.8717319774736364,-0.01698070583097968,0.5398056907793107,-0.51448967762736,-0.04454558974343206,-0.043125841106919256,0.7802444114240058,0.07438675936127608,0.12201238740637323,0.8622916667366073,0.9056721115704999,0.18685664897861404,0.4298571939930749,-0.0810188341634668,0.6068315841570168,-0.957511955496401,0.9040163979303252,-0.35521562245125166,-0.3535916586420701,-0.20205583435795615,0.3797143738692097,0.2898138646324684,0.021858594666527953,-0.42817066294486006,-0.08636007620340778,0.07386511962780903,0.2871341345755454,0.12546378751096318,-0.11326971705792895,0.5891983897594322,-1.033797140473489,0.7884888810800662,-0.6161712056727779,0.07460055927416985,-0.6534075686762251,-0.9828186412236153,0.9615315781830246,0.412003362285697,-0.09413027824328823,0.7171037947082055,0.9649700018725814,-0.2552456635243953,0.8796481661695961,-0.22127403890740072,0.30982570090129546,-0.8872815790152877,-0.670838291601727,0.7173976890212526,0.1637972333768154,-0.8035728130480471,0.8594258761227747,0.7142591365831076,-0.11264136384441309,-0.6178021071951147,0.34268168936184823,-0.855948005725747,0.1818778593191914,-0.01230335816971038,0.601696598378995,0.43115974892838527,-0.5106589162299624,0.5886034681625678,-0.1734389655844391,-0.6724937706651717,-0.15093686383993737,0.8427122682677483,0.8520675986383704,-0.5995081017622909,0.16005182219440844,-0.06672233866164373,0.963865949275401,0.8646690130126939,0.022847008293551956,0.5878446560493159,-0.8472778181293985,-0.6868136006607135,-0.6328558745639516,0.9318854674963761,-0.9655075391173882,-0.8567084263528745,0.06836385035923843,0.26858870474498037,0.2134577603210014,0.7266404193527009,0.8783423586622986,0.41207988522388445,0.8275982315221374,-0.3834792993519762,0.6579006491708197,0.27589645049105055,-0.6206067547500203,-0.8134105576987407,-0.8759542876166749,0.216661563317589,-0.13649381343082428,-0.0007747027172000644,-0.7328007746183945,0.2959717202072025,0.1139894212321492,0.08661284080747968,0.9724100784464494,0.1503113191499163,0.5671049377831859,0.46383104070597453,-0.031804315729072385,-0.4145451688553905,0.9294683410741991,0.8361278544867999,0.9198629259304506,0.3092675555252133,0.18796374670048366,-0.8475131557004207,0.15199445865191089,-0.3466842929351687,0.7552748907933796,-0.13994622239136686,-0.790896976470199,0.18765965910988952,0.5401501373970258,0.5917559877003792,-0.2575234003169951,-0.9090178919000677,0.3236252478664268,-0.6485696213913742,-0.5763744607007297,-0.33320770397921257,-0.39525635517928237,0.2855801223111207,0.004755534433846931,0.38897647497405813,0.619089622253606,0.9745681393687835,-0.3030740220876593,-0.8890481780003325,-0.1890642188523035,-0.1537721592534664,0.696246050649778,-0.44940190877547204,-0.19195616127274276,-0.09047326516166533,-0.6941885993325204,-0.38523137938163804,-0.02013295657504893,0.9617321082950587,-0.9202908574520322,-0.949591217616513,-0.36284347601178246,0.2803879976931301,-0.5066832696298104,-0.08929878956839588,-0.7958223693228154,-0.7887591064073779,-0.5705572888926899,-0.9180040468882822,0.2975970711928019,-0.7188876785767647,-0.5864739548585021,-0.8651103821072968,-0.7805187665328273,-0.7459557775781682,0.7582332767730096,0.9307833227022604,-0.67468160433733,-0.12351185878738533,0.7778173297517381,0.2555577185822624,-0.8924297132963445,-0.1382009779955441,0.46164917010310946,-0.006285148382141348,-0.9441685479603631,-0.7315068055859821,0.43952065882275976,0.8306200457726336,0.568132640462495,-0.09123451738044945,-0.4608943639405854,-0.37750648052379593,-0.24977642650808385,-0.3236369361487741,-0.819883779806652,-0.5521138585621989,0.10004771087684311,0.4680682282915187,0.25657923070018696,-0.006458913253424993,-0.6855988578042802,0.8987809755844847,-0.10059364869504872,-0.08709932416485522,-0.28256336220272305,-0.86158484338883,-0.19048407283602733,0.031552273333281734,0.4388883237245252,-0.16123680157907327,0.5368168071620493,0.3048617588463093,-0.5084377649904589,0.36191202932732897,0.4399444322589406,0.6006817293686185,-0.8351395709902016,-0.6940147415210854,-0.7758990562628857,0.3397895130443938,0.4250499029962196,-0.86092512033986,-0.45490052565092925,-0.4175950920599158,0.8060036195582154,0.4047752890977256,-0.12737298181708992,-0.9648001080539614,-0.24614643003760595,-0.6233088180581006,0.6397391573263684,-0.5272770250747274,-0.17204796839011705,-0.32621311836206157,0.29505533616073265,-0.7034369825561143,0.6492844457829671,-0.12238605736904508,-0.8250842443219276,-0.9001920129766084,-0.9534477849758664,-0.07483279613223345,-0.48917914658620076,0.20121643785459276,0.19979888427823125,0.6184917538434159,0.013898334852521881,-0.4412295313880572,-0.5064694821561384,0.5613343180762829,-0.2614904856242462,0.07260908800013086,0.409211889377901,-0.553615204626185,-0.5036306097501089,0.4400803656859073,0.13241007103024938,-0.11405030474808253,-0.4247442109423347,-0.4977756807937599,-0.9579527261345882,-0.5036789228379841,-0.6836548224325772,0.015390630817144358,-0.7844713334149337,-0.7229103925180872,0.280381513919973,-0.17672018015691168,0.13581654415593095,-0.36482326362241735,0.9063382058603433,-0.0939533589978113,-0.9692434156376072,0.6427784838412902,-0.3139375420110224,0.010365922270233427,-0.5351980055421329,-0.6801536461020993,0.5765630022164002,-0.18610330488832538,-0.13041661075325814,-0.18517173905030448,0.7783159954668557,0.8438724054425113,0.6878361325393221,-0.6475863223131544,0.8051381279887155,0.19468529801167023,-0.9557460599477619,-0.672615359862482,-0.872096482596763,0.1660954179027465,-0.07044360703577886,0.27173836348349556,-0.32697122472683265,-0.15725473288427685,0.9715051070185914,0.23217011530791692,-0.839009161520575,0.9151094975249728,0.8471517040268679,0.9720672647121877,-0.8448822635675227,0.09041833074628311,0.5824662923407111,-0.956124803305822,0.41023708705326484,0.41184092066152767,-0.20318546406419857,-0.16451198261306343,0.8960549810387284,-0.019873167198293462,-0.9149151992699167,0.1387631653997623,0.5491581833209662],[0.5342103816601451,-0.20092948100603447,-0.09873609107221837,-0.7390779960023508,0.7573744531581172,-0.27386889103950196,0.9555366694080583,-0.33385444806922937,-0.4944896849351732,0.14465988376815409,0.022621230067916276,-0.21690047870689977,-0.4777754209866254,0.12131468336141271,-0.09368068597768975,0.17900381742443194,-0.10815010893725452,0.10191331225620548,-0.14947829768505905,0.3531387568411559,-0.676749489683421,0.1286726185789071,-0.4558103115405081,0.2770539435103352,-0.9497978978762438,-0.925289708612397,-0.6334848095834626,0.16471211838043276,0.22000531091837683,-0.8717622520981703,0.48457531842695145,-0.5584863210702569,-0.48065739405672714,-0.4990772652514903,-0.4149534026905388,0.7390284132145002,0.7744468370071593,-0.021099506914039168,-0.3139269692847054,0.09632913989862835,-0.23426396249143622,0.7713135156903274,0.20712538517589252,0.9973276905967082,-0.8267256058277773,0.31979124114681357,-0.13818720183295904,-0.564611424273102,-0.8065892760041414,-0.8872542056298364,-0.4266547264535183,-0.8796402733613893,-0.43139837797478453,-0.1641759449979494,-0.7634782227762398,0.5085267328442606,0.12718613360974107,-0.20893950381439108,-0.4492736575463847,-0.46196045737769564,-0.025785567168809642,0.4415026911820106,-0.42947899064687345,-0.4458316048422599,-0.7928321239797884,-0.9565813860321914,0.9544405358218413,0.624485226345722,-0.5413761474257546,-0.2673493486382012,0.17717143045641665,-0.8034553018833972,-0.9888216643513916,-0.20572399558455512,-0.36073321786990625,-0.7248139013965808,-0.8329812446102881,0.956796620195151,-0.3165369348082357,0.4063338104294781,-0.43436487302715765,-0.29791077759287576,0.25046365122963277,-0.3652757024978017,-0.5365298293652194,0.4727167700678807,0.09591699724944514,-0.22738091448332876,0.9833383741654962,0.5274883180385017,-0.37369880119939064,-0.04209140763306525,0.503267847325296,-0.20793362694787015,-0.8801706376907314,-0.6360712597173518,-0.27200831607993997,0.2727491154385889,0.8951011036046403,-0.3847839343200774,-0.5858333632682106,-0.8330565521362715,-0.8301142489135056,-0.8411121141142913,0.0953906121532197,-0.41157938581523806,0.5859374337626893,0.5722562542195317,0.18008141217870505,0.8790659147413442,-0.15690492430582648,-0.022128367545162675,-0.7387294250612975,0.30133795252786566,-0.04422998641704057,0.9795401409698199,0.887157440041683,0.2871677192107966,0.7538562109314001,-0.5132566663410255,-0.6992339830000058,0.9595389903903828,0.9359068745588519,0.7061791674954901,-0.39894835117645383,-0.8977186719295208,-0.07377623633425995,-0.9065159790004883,-0.8067647890086386,-0.5842176146441491,-0.5398411893999869,-0.49421313175855447,0.7450094418424135,-0.3268193874288793,0.6258170770668208,0.22037145484918147,-0.08560521050477772,0.0385523865179791,-0.3739229126118855,-0.4682713590890617,0.01737441689234176,-0.2263942610475671,-0.7123477999797188,0.14208628035722357,0.3708884393660684,-0.8923467435706818,-0.919406683555476,0.3087153559807769,-0.008669524428835623,0.5214439870972832,0.5233355855089499,-0.275279297887867,0.5543920048565616,-0.5500152931159445,0.21240215414611097,0.5811571765406724,0.657812151074553,0.8031838435012282,-0.9188304810484624,0.3534897815263691,-0.3926303474731576,-0.7434890210271722,-0.37703685942322873,0.8112649026328372,0.09708773820231346,-0.01723440222900527,0.05946103062196966,-0.05916344913838412,0.5332706529166895,0.17802528562135933,0.1302992721546552,-0.6781484479438296,-0.11920133437371701,-0.8103508821890678,-0.729678111267322,-0.3279235203849256,-0.5314934304658008,0.318091055005597,-0.3878349338302531,-0.516582463230622,-0.9889450950651666,-0.07114463739025373,0.2786709201655718,0.7332055752820015,0.5309217495293742,-0.6377989309801348,-0.5661428523239042,-0.28138360903783227,-0.8435072813192485,-0.17041349513710385,0.6565232765710721,0.5101187855788324,0.5968343107646558,0.6781311550667596,0.6999171055845678,0.8375067022309242,-0.02397506081192624,-0.04617311266310553,-0.6071623759288471,-0.8063218341506319,-0.1962738565318064,-0.39930071543606227,0.099383850518997,-0.39114067587858226,0.9448535002215246,0.01595767372610821,0.7503781967249646,0.160359552796037,-0.40259630218191955,0.13848671822668887,0.6678344688278313,0.5779931621720992,-0.2522187661649284,-0.9756319793883698,0.5331145282526472,0.46407385122565475,-0.9499588629967172,0.6316052578023471,-0.18019838966257612,0.49504093495064233,-0.220095814265244,0.21335261963059043,-0.5368937165614778,-0.1437874488007315,-0.5293680632696889,0.46517966145828327,0.23105877617925677,0.6176313759330823,-0.8333766312592226,0.6112474203865018,-0.2384338616135927,-0.015495903392432493,0.3140356636359895,0.41552309662115366,0.060028006225709696,0.7587135823584223,0.0431022168643001,-0.6338498546850435,0.46631611479171625,-0.6188842785494485,-0.8685475889015988,-0.9134705624032848,0.8746156207906413,0.5197935117032607,-0.9937639649153269,-1.0218724247246722,0.25517899882887735,-0.6355161569112867,-0.8811252583482634,-0.6986050480723713,-0.5317220571102655,0.5866164785828101,0.7174377843793369,-0.6508642468476338,0.915542308526553,-0.8947794284383926,0.6653856918083934,-0.31903286343375276,-0.7340867998076824,-0.6346961916598175,-0.10722948928722786,-0.9756384512933459,-0.9821064482344718,0.6042064074214433,0.3167436646625143,0.7514091862247236,-0.7066839374765616,0.06980114765587093,0.6220516859321675,-0.9247035025405721,0.26247671752160484,-0.6203149795945508,0.21268339183791732,-0.7146230153018791,0.44906765678550065,0.3914706201418345,0.7249256861793457,-0.9358481450607677,0.5124199598654168,-0.49969970256067286,-0.5071385516496805,0.625821555318455,0.6630011224749796,-0.24489602770125474,-0.7582764566178305,-0.6036696801994147,0.5761889620972479,-0.728166780789892,0.12208391398398458,-0.4370276905822761,0.3461274385523027,-0.9457988353993174,-0.2389107460011504,-0.11144382598355926,-0.028786632249449086,0.1504590809516054,0.601255408259005,0.927837136322341,-0.8125771615998939,-0.6013941096535692,-0.45251361831051123,-0.17399112701568392,-0.42706152968224315,0.1304593331544506,-0.7578438971958334,0.8860619662113545,0.6961898420040924,0.3388620651530796,-0.6429509222772247,-0.3575723573183125,-0.9361568767166637,-0.7529152119878343,-0.7341318386774576,0.14576325411532529,0.49593991119114833,-0.5477114099346535,-0.8376046938190521,0.11511527200611513,-0.5699026821780279,-0.791849506733936,-0.7849630293570391,-0.09088462410084087,-0.2199633994231029,0.0008825109418390906,-0.9806492463396448,0.9525088266627704,0.3013095045938606,-0.9859826379411784,-0.0768771461581664,-0.8917901209084933,-0.11458968894830432,0.3419342826284938,-0.4225117340082944,0.8168194382714636,0.41268336961307694,-0.013765303048835609,-0.2709196584884217,-0.9445182937619379,-0.9185976235755948,-0.8867216173982526,0.4474217037993227,0.5137657238561858,0.10075440435733192,-0.5815098073242563,0.6563753285840858,0.3675698725354955,0.10577251897296705,-0.14359401075709657,-0.5510877087181738,0.00974467574615938,0.24416566294127293,-1.0092199206808838,0.8052793047328495,0.09924964650899015,-0.16463757933008644,0.6030272913596367,0.8903807243402668,0.5979208985526628,0.633886029564392,-0.5089178006258236,0.23980885023090223,0.4609969647842831,0.5672301786600185,0.6544157567994846,0.5778548295427104,0.7657780574583941,-0.941891409490633,0.3824926220356523,-0.6079694075280054,-0.41503052476728675,0.19038155406273144,0.18798145124553528,-0.5960028564972717,-0.7169231934463831,0.9001727126801603,0.19669169666335548,0.08435711336761798,-0.07909316332575848,0.5056265366768188,-0.2011904258224259,-0.15158782625152753,-0.37974334690983663,0.7649432211294077,0.07917518635817214,0.8704548938168826,-0.0038611647651045212,0.6652960105079031,-0.3307163718737209,-0.0601464414331383,-0.610525519694702,0.06464322909907602,0.8490763502493319,-0.6120657126326452,0.5799594141615021,-0.45630270424439345,0.44875754963100556,-0.4098858621785036,-0.04100277563024236,0.5463292484383271,-0.8643961433241991,-0.24540734772694742,0.9081634804473763,-0.38162116799834694,0.7439110682883153,0.27227645163090475,0.851872572463036,-0.3212487047167303,-0.7842917575304261,0.19779606417359777,-0.8196653628166343,-0.673602653233078,0.5223633322758207,0.9013649401355933,-0.770198415257298,0.5256682486609238,-0.1610408825101987,0.30537188507932156,0.8174472232204926,-0.3542339525220071,-0.9962878874922003,-0.026745514702632978,-0.9485322288365738,0.5037273713386816,0.8027812878340024,0.491244796047719,-0.3076771052272435,0.2623480114227196,0.8648252530517752,-0.7157080454764825,0.7117062805294566,0.16024430753074623,0.5708935284449614,0.07168529517449272,0.20111579027446572,0.11023122023409491,0.3344449895869926,0.5000724334006721,-0.3949361848321578,-0.785008318810176,-0.3801110612268867,-0.43904877925564606,-0.24189187741775595,-0.995734036728777,-0.5179075424360816,0.05947008491387417,-0.7787336335004481,0.2527917938308592,0.46637964965900514,-0.724291342507942,-0.7992610811129324,0.05073779497328346,0.43035038933144787,-0.10153704358932959,-0.5506550225353724,0.39172517842758503,-0.9425335362533135,-0.8355364185704887,0.05545023202449453,0.16469171266354132,-0.37494248864385843,-0.5879046990994514,0.26092369214825417,-0.43983273886628566,0.45585710746583863,-0.4366194656970624,0.6022091379220313,0.9015092816760681,0.04185050448371364,-0.3027853531776414,-0.6563229277619663,0.8142383802318007,-0.2585368537358686,0.31945896924712974,0.6884530453390532,-0.4938959580630192,-0.24849034024425043,0.9518625374758223,0.9385591463839984,-0.68302611150585,0.7518559872457737,-0.11000447695185465,-0.46061765541718575,-0.47152563349027227,-0.1310289599309695,0.21881404256018358,-0.9905766816282057,-0.5625190394150157,0.508553838211031,0.1995316472029867,0.0983088479888737,0.5080206380087207,-0.011036980585769749,0.34534236675435886,-0.8725708457021187,0.269847513506847,-0.11410274884858465,0.8624220461764098,-0.521431350981764,0.33420655332291044,0.13883878927466767,-0.6749477378098484,0.49738755853412114,0.7115460163460008,-0.594080366900664,0.01640448998345212,0.23748259203118405,-0.3916249396483451,0.39084507873246543,0.17152655634036776,-0.7672816425481773,-0.5608867861622819,0.3117341394327153,-0.5681181913628812,-0.08880918208951671,0.8184188532514721,0.7686820964707153,0.992348832937253,-0.7576811328842082,0.7685683295857492,-0.6162862136277372,-0.9214047007468028,0.01282920514013716,-0.9482322163860193,-0.5438146413245387,0.8958489332646378,0.9633062206749048,-0.2911964104468194,0.5648772264058463,-0.6035445562782328,0.14034981415424558,0.6903084442430072,-0.10564202802209888,0.36099505803974097,-0.24241000719622674,-0.6774602937462264,-0.7510931725700265,0.2207728905544964,-0.406097451631139,0.8009764419594312,-0.7917465358508085,-0.1011551318130229,0.4160364748029473,0.21267793853788233,0.822473971544248,-0.056215189802036644,0.8042072202580818,0.06893912594073916,-0.3982116274879891,0.36018169935371236,-0.8446384535336061,0.2785749677346618,-0.6905355972526734,-0.7544931069636376,0.1675257376459752,-0.36404216579660936,-0.35466736403014676,-0.7441541407480925,-0.8592585682808538,-0.08264272682215301,0.37926455577326523,0.8011277051826329,-0.047138169438134536,0.8996128456929119,-0.10375822733875124,-0.31244293632578823,-0.6266442114055729,0.11383212182405174,-0.9773249123961589,-0.016227249114408225,-0.3255826217036792,0.4593880602320161,-0.6704671511456938,0.6570567359827046,-0.9547125058339146,0.9201654547310242,-0.6277196255480298,-0.2231127979266828,-0.417844427801044,0.08561786639791209,0.150486441883449,0.5207786022942013,-0.34393008496751815,0.019387607966115297,0.09819982442348484,0.008261219294834185,-0.2661190955262763,-0.2915248656512969,-0.7228493318030802,0.5164563020719699,-0.15667282551014727,-0.7765727725868506,0.502584384652248,-0.8872384647322097,0.33955557670008396,0.8732613106376135,-0.8098270717843056,-0.5655570723062446,-0.48557131255507463,0.5164250663126551,0.8737894756487334,0.4511986548350299,-0.3833671230032518,-0.3102060680162404,0.7028945879831411,-0.7289691176534971,0.9220342551708195,-0.8236166565534341,-0.4065364730879931,-0.801031773713432,-0.2476023731746305,-0.8193073855138977,0.41039837746117075,-0.739196470660761,-0.9318522868764668,-0.9706889894732125,0.052633179207472125,-0.637924511607356,-0.48332883904092405,-0.5322347822630585,-0.9949031555088135,-0.17091432267397047,0.5430945149613668,0.023708191642262583,-0.24298774709743226,0.2736936931396903,0.23443888424481946,-0.8037889789920599,0.32086866848397266,-0.2182688497152538,0.8750339934287241,0.7034105263362345,0.45976151418694755,0.048206091069798236,0.9611466109956363,-0.337962669294389,-0.48793981360987587,-0.1352659741608513,-0.7928059580056436,-0.941726726880405,0.9944129786509034,-0.631211325280559,-0.8822688681697985,-0.6948784753467613,-0.48575248401476046,0.2669770167576666,0.21784674386626746,0.3000916193822457,-0.18091220568478392,-0.5516686322635913,0.8793540604267442,-0.47842598683234344,-0.8780968477695438,0.20041448352284094,0.888054235195935,0.7791949878372966,-0.67492794180376,0.3351999719312225,0.6498509863936379,0.1063164737304436,-0.007794714828820319,-0.1413716914070513,0.9860900892081351,-0.8831230697709253,0.6829096986525157,-0.4720489112826922,0.5202038591790838,0.2607246049359161,-0.02286928362070085,-0.5178310788075593,0.6266850387418756,0.5301371052462156,0.56921335609259,-0.7099384831934401,0.9714248344993055,-0.6502263641956594,-0.32428682697956795,-0.414753082345307,0.2473032333585886,0.7544928018174042,-0.7730209428470438,0.8354163489347984,0.21032299699458182,-0.3266219776891591,-0.29416455856803136,-0.015865840771205966,0.07524325926173121,0.984572795995439,-0.9366293003153373,0.45811627267603083,-0.6037283196674078,-0.03768832183259797,0.6684294063562138,0.17903002449249983,0.09821226702949136,0.4828445181556224,-0.8548440267276133,0.33159683262357115,0.0219674652162265,-0.5380449112303136,-0.8369611080828756,-0.6559042893770979,0.7207131130469255,0.1699603549577242,0.2302739413686347,0.3975221306240603,0.3744048505278631,-0.896022049114794,-0.05586257365121657,0.6995884570246766,0.16228017061864533,-0.8841063222317236,0.7307250431792064,-0.6332978247941801,0.7513255217084831,-0.1443255503444959,-0.24577526940728817,-0.8950568184774632,0.010121605812939805,0.8626468213956173,0.941655160042137,-0.49683440984386995,-0.31757876864668644,0.45313019643090363,0.9502339884126217,-0.701061682377606,0.45783672246272733,-0.2821760706425809,0.16272150509662708,-0.06459600426524537,0.4735692440982082,0.23051126921101917,-0.13556418138014228,-0.876753932748101,0.5125450556882858,-0.23825016618066547,0.38944352933924475,-0.41100080763343455,0.9257475317104219,-0.4962826959730024,0.19891728706245265,-0.8414689846521218,-0.7874183823692051,-0.13104067973204975,0.19449426141310966,0.3137961147378539,-0.9653108811290819,-0.046575493937101316,0.2751216706877638,0.43843813360684214,-0.6689574958350758,-0.2171158879474948,0.02476592106374964,0.867012748393702,0.1973376167722547,-0.2474145666469929,-0.6598148768618879,-0.8544346452751932,-0.9437050240867682,0.9287183018949712,-0.7119691771991832,0.3166843603520637,0.1694355008284935,0.11248537982589046,0.007743303436760229,0.902167119601956,-0.3851222421869056,0.750990478061706,-0.8862496343560249,-0.9899795812493046,-0.15360904126148747,-0.3179321802067638,0.34282321304937063,-0.4195550652043278,-0.05619395413970719,-0.5711004063995035,0.5282010474752639,0.39414555486944014,0.8688241530625254,-0.9161416664826803,0.28115350608589784,0.40242698301845214,-0.8551669093158032,0.06652740532068258,0.49671987222548664],[0.613387578705844,0.9852105519263161,0.12842407907080888,0.6338395469747722,0.8311342403292192,0.5785508018991878,0.3463391179527613,0.4651050249289064,0.5753304646068336,-0.764260191468964,-0.004932723157652141,0.5551478029146946,0.3110375697760932,-0.6934358404166727,-0.5239875949889141,0.16805042170072726,0.1787677403148753,0.08455813833913162,-0.5557343615849235,0.2613015356380748,-0.5945020520268578,-0.22600127614296905,0.43576786592230254,-0.7867887470648904,0.7897842615868242,-0.2703071504518655,0.5890201209855817,0.4703519737509616,-0.31246824626468017,-0.2710629166366312,0.2431599146915837,-0.3843067766957473,0.1991205892280199,0.1488609954187008,-0.35789696103433233,0.3002480038682118,-0.25785168015810944,-0.43519122818573486,0.1855070802261609,-0.6324902939644723,-0.166107933982802,0.6277290587749601,0.5194239123318656,-0.0965700270520888,-0.9805721932014653,0.6455073945231601,-0.17295911620804386,0.037611161681391184,-0.7209040872127525,0.8290223532759203,-0.4138118003646438,-0.48201587484674224,-0.1904417436057222,-0.976213419017915,0.7283803761794396,0.9577336652711543,0.34401906620893996,0.5883244553762239,-0.9810978424003531,-0.8747716311980467,-0.7668208929653657,-0.27150194265138516,-0.04492110511781311,0.837356519248813,0.9847024524516956,0.16592204579548175,-0.8661556904224992,0.9881815769634503,0.7396970253775085,0.6398980574873625,0.7929601032049552,-0.23769051068484692,-0.7135224224824515,0.8156694597031852,-0.13871241581834087,-0.09806331646920935,-0.756572551416773,-0.17340667700694135,-0.14732266868365176,-0.6744560574262973,-0.06007975633908824,-0.06657024603770623,0.6033849139289229,0.34975387763539256,0.5837587521223235,-0.22708749345167023,-0.07585218724678366,-0.006914515303561242,-0.5782658488735191,0.5674537441390273,0.8603423684030295,-0.2745587292075357,-0.6044152160230598,-0.34169923150531484,-0.6655916481705673,0.14399372213236653,-0.24312475828282237,-0.7745235480780235,-0.6840101346167615,-0.38253118585791446,0.38890816213516216,-0.8419414875817803,-0.6035796669818835,0.03179312009932374,0.7243128973542661,-0.27085075405604087,-0.9265199904151481,0.08350771984088184,0.10927323181888975,0.8300049142409875,0.8328951733491148,0.197809124307605,0.18811573085195477,0.48473768885075286,0.5363325800038798,0.7880417392147181,-0.6667182620688417,-0.7291954724185019,-0.04605543922447455,0.4756093511865014,0.5624077301767596,0.4426088302258618,0.8597987581666946,-0.6044494547130544,-0.758381694215833,0.23693212089900606,-0.6993010948021182,0.8575177363355779,0.39506477493497777,0.034473154257443406,0.4637597381011836,0.46229866300878036,-0.8605347265562517,-0.3821537911894625,0.025330310374590017,-0.04279335258621586,-0.7622573819624276,-0.5622059433435935,-0.6745943875444547,-0.9816765599275308,0.9409217420561955,-0.8260488692465993,0.3020854672607234,-0.343465956297291,0.40253774237779394,-0.12184318120123183,0.9763284582258444,-0.2732714293767797,0.08272551694367102,0.8723809442558608,0.6753130665245536,0.10290081593184011,-0.7593705347305965,-0.6527405201209108,-0.6389501931306104,-0.7015090306379194,0.7920268823058716,-0.40664467846889163,-0.8772532397536096,0.16782465797656368,0.08379904799840372,0.9548714977312251,-0.11510453717631695,-0.19743059079862754,0.9310780984188506,0.18706120861092576,0.04915503808577769,0.46164242424186464,0.4419816786520565,0.1724440060475927,0.46504821351428527,0.364808930459568,0.34269424990288566,0.4199743215246106,0.924866837994396,0.4739232586396147,-0.5583222204336769,0.35699938237332646,0.11242031427948308,-0.73929603188193,0.9120888709769192,-0.11949503685616351,0.8536866591263602,-0.0520873220900092,0.7797836549645689,0.46136648851234885,0.29343368690154903,0.869780497401472,-0.46266480402492843,0.9158067949518968,-0.11850491910667947,0.8818964089482838,0.052195442362712494,-0.8386241326694431,-0.8083312496012556,0.6440028731523952,0.3886367042101053,-0.5538899059010265,0.7109134223315872,-0.4633488500954785,-0.9173079362599085,0.7446046804092649,0.2231473969389481,0.21819700520300087,0.3201162554233576,0.2922517602360013,0.30371349324360797,-0.8229906557103764,-0.45645954435143454,0.4731744357402466,-0.5146721835448813,-0.8736361062368104,-0.3037944537013981,0.6154195798378527,-0.8285026395501799,0.07004830925835014,-0.46942712127899333,0.3633290578480217,-0.7517320892545754,-0.8049231162055082,-0.6118572398472057,0.08042547347364483,0.7141941960915885,0.6384498810512015,0.01881349856287695,0.7698215705881739,0.2563246415116569,0.23667712696096196,-0.8640377982232849,-0.4310909642012151,-0.11058034241095895,-0.861126226017514,-0.07748076771847273,0.022999178358952443,0.7428818784546547,-0.5549428367597267,0.3126253693412213,0.7697623002313239,-0.915408193742047,-0.7791947641652489,0.789169462150377,0.923246474508109,-0.7840700922962893,0.46169693311631077,-0.40985206734820806,0.6578876258017126,-0.6851539845389975,0.38965761723568204,-0.8250250718014618,-0.39599373441287355,-0.6367021715643729,0.10589621797926707,0.6334572901094253,-0.2263022264967204,-0.8760731557834577,-0.796108115572509,0.9701649167099512,0.670713563755203,0.5269186415950746,0.08829502691675904,-0.130524009939294,0.009581077264619146,-0.9942458968964528,-0.984682403586844,0.2597246934205194,-0.09348505748972888,0.12857712454917267,0.23810838060887593,-0.8289543312116188,0.5175788322219624,0.020444526030740037,-0.9172017439417044,-0.09141038012660332,0.28168880862700185,-0.045029980979487357,-0.7274117199223076,0.8297318130528752,0.6810789597788385,-0.9624954072480947,0.7250538011964704,0.7451307842496009,-0.7030531840717653,-0.5295155019651476,-0.5638656861677888,0.9740211062385856,-0.9098854393283508,-0.5796969213892053,-0.8863164798195926,0.500259416627062,-0.6201617729110015,0.4901398791449734,0.7644526770287181,0.6960119444645468,-0.8517562097229815,0.9456642161450244,-0.4696824172275635,0.13227202535090174,-0.9635792992263349,-0.23280848346397587,0.36569782541927054,-0.2570230488778316,0.16872727606064064,0.017677648456275702,-0.058980950831164516,-0.02473069315575243,-0.2957971127781364,-0.07803053521194836,-0.9472636776326584,-0.6750384916339014,0.8814165289879976,0.9062440793121276,-0.36492026439626196,0.7269194641135531,0.7435434371138945,-0.3598850904585155,0.7326414456884619,-0.9935579709751607,0.14667035991024907,-0.2641941740218157,-0.04006213204445584,-0.367699991028188,-0.6100621338478487,-0.15552265728044953,-0.08712996128067398,-0.1858146532582891,0.3087279137563891,0.545073558920219,-0.9454962497590315,-0.6739627964393045,0.6594782909952336,-0.3446313662205596,-0.6221989170217557,-0.9661451940129787,0.8587397752616858,-0.8579806122245607,-0.5317793450180348,-0.5468253905323381,-0.523876133263355,-0.9250116204739927,0.06651283024893448,-0.7628311641174672,0.2596232480253893,0.023719328600710316,-0.7410009799468474,0.6564608537981446,-0.3678233029700655,-0.564930716620537,-0.4606171433358432,-0.8148877446942268,-0.28913545264514684,-0.6485642143695943,-0.06435992477616094,0.480116502403679,0.7083733283806943,-0.3228219375375605,0.3415151887036195,0.24409514252298894,0.7582820752158393,-0.25870227792046846,-0.03413199125571912,-0.8517998627428311,0.7937782030378272,0.6683456289787258,-0.3615533396558748,0.39371686272293793,-0.4935494334827104,-0.19864844667265202,0.8725295690823158,0.1356122394638744,-0.9314693900933196,0.2979799024909022,0.2822645427021379,0.4891656074588296,0.061804205431879956,0.4715120426186844,-0.5996293165326779,0.8451876136828052,-0.682773517262302,-0.21724978562695857,-0.612225201489971,0.7788138606058437,-0.365958982588899,0.31684897422840697,-0.5128053930889226,-0.7835915421647313,-0.2505947606560109,0.8936297362998677,0.4818429060069755,-0.7801834965628888,-0.25079826952304934,0.5508989529437386,-0.9775784869440716,0.3260229657392242,-0.5015076206349374,-0.2259488204659994,-0.013588613041329236,-0.5180483613186537,0.4845251925040198,-0.6193908186547704,0.4757542506407729,0.4110296347648077,-0.6832269238344357,-0.6799705862192107,-0.10648119093634244,-0.29385426612305215,-0.8554690099196178,0.6574147939011336,0.2069449233304683,-0.8811078645861322,0.5645571811599929,-0.3249131688518159,-0.9109975860961965,-0.48352328762022684,-0.6640156159093833,0.2690028391799791,-0.5620511740849651,0.08114144963064851,-0.9622361727013282,0.9478639229745954,0.3238292530324678,0.40745923298188824,0.915847279534634,-0.9407760440030568,0.9446516109888417,-0.9741101146944592,0.8276943023382624,0.9518467055116573,-0.9356982592597952,-0.9002445110029537,-0.19533477992754542,-0.6540427959871957,-0.0483921402091795,-0.4599975740800091,0.9163790189346495,0.864485683780035,0.17376656022639927,0.19372061772414048,0.5121694232623816,0.7913797342951167,0.6575882687320478,0.551480331319595,-0.4314199286702197,0.29229467071718346,-0.46981673264482343,-0.2508776678267835,0.288065559362642,-0.6236895161032505,-0.8598719786843176,0.8240346393902138,0.4149363763085381,0.4960207669969465,0.08550947536264122,0.05752992414020648,-0.7857873033045465,-0.5587734484738127,-0.5800839766945963,0.9452611995282081,0.09093738583221103,0.8832959286718707,-0.19615486845248137,0.06013835168317728,0.16585357731148434,0.1256085586378034,0.18219484806249597,-0.08583345408336648,-0.5756573500845396,0.4485427998758846,0.07594980344521447,-0.5492430600876862,0.6549462063704613,0.25251517114735356,-0.8607945420402523,-0.9626708667198421,-0.7200684411413673,-0.9967429718982779,-0.4578567976222825,-0.5551415700485207,-0.3340921023276078,0.5812782527718292,-0.3416774325554927,-0.8396424026513658,0.41559294351503034,-0.010957892833826593,0.0014672113693956642,0.43110100010067126,-0.30501141474632437,0.4561606623076882,-0.4501885309046064,0.40972884486784933,0.5646534467197091,0.9692914397104663,0.20303921456361695,-0.9679462627388152,-0.4053553291123012,-0.05010237939078858,0.01770659503158896,0.5662425912138656,0.9001045984492108,-0.5943493262005453,0.4359153406273431,0.7657326238272778,0.21936488106534072,-0.8124145507360865,-0.681264001303501,0.9374849267224254,-0.6162736581817305,0.6124379712840515,0.1337267290909476,0.9311797089893317,0.8062935654918382,0.8206501164726002,0.5479757503193063,-0.34269103778575183,0.816770021496114,0.35524119994410064,0.7891751506115006,-0.6830738566993975,-0.22220386720348587,-0.2300124639079599,0.8100041767032907,0.4732029812159351,0.8467833909339412,0.6991198417296811,0.01753362547341727,-0.003938923254117543,0.08085774811564087,-0.6069596301240843,0.06641185737061783,0.7466118598394992,0.9159565877472885,-0.5972499605276664,0.45624577667849353,0.3986495089980675,-0.2080565874973277,-0.622206632665694,0.35309829745468063,0.6423091505485881,0.8567014302019996,-0.6370695789828912,-0.8214750637826638,0.6946093698460002,-0.9790197833573016,-0.06448702814528823,-0.06281714813142782,-0.07835777710788756,-0.7428337316190338,-0.7489899018654466,0.6316727148560546,0.18707207391235187,-1.0245068142085132,-0.850941248041612,0.8437050362081512,-0.06966722288960026,-0.21210385142088656,-0.6995194081182603,0.18666140920247026,-0.6829127673207183,0.3394076100568789,0.32103232499538503,-0.31889883647938255,-0.6707966807706631,-0.16149336289905225,0.33245902014447276,-0.5843567736551266,0.7340467675504014,0.4125243037738668,0.24407987937066042,0.3273030021655788,-0.733808869501835,-0.20391899689865306,0.2557167393698409,-0.8716326800224883,-0.5348419573717319,0.40959711413299726,0.009976206333860243,-0.683840587869119,0.4006572647200816,-0.8506792392194651,0.6695041753073604,0.7014694138909211,0.9620695640660242,0.9741185482080259,-0.12280983581755536,-0.673579334489811,0.6330034893825447,0.194203610562224,0.8727999513641641,-0.14359519329260007,0.15069629381105631,-0.8685069251802631,-0.031364665038999255,0.5823771990382874,0.24577577459959393,-0.17034327122638135,-0.677737346432353,0.20054182401488532,-0.20419752956737702,-0.2863157555196057,-0.8052699059398747,0.950220927796437,-0.32677840990279744,-0.75558928255114,0.06864703916964408,0.574268545134074,0.5638128751798298,-0.888724145016097,0.04657091423264906,0.023272275723325332,0.3709057808267844,0.7581242957497992,-0.035460838280548704,0.24423498421080125,-0.7943045852433898,-0.5788706844019981,-0.3671451521251559,0.6275095244064115,0.628302172535844,-0.7015316132084073,-0.8812046194130105,0.5541814862350108,0.5091054414626257,-0.8205092360414652,-0.6586799043219329,-0.3249522909052929,0.15234646542812608,0.002198110993677242,0.09543664419139115,-0.22433535235766716,-0.2060536436560964,-0.8027589335414008,-0.9893041109144499,0.9189438823761826,0.8940733703734031,0.19825730587048512,0.28853718766684683,-0.66994549004504,-0.9122191951780462,-0.009787076720055684,0.2726093577613066,0.6205214299209184,0.055953346143402735,-0.8531190843529566,-0.7515060386346021,0.9959189765799401,-0.0955878314877383,-0.44603495828927375,0.029573195269126627,-0.36566497349536237,0.08721500863076857,-0.25308797749480694,-0.1932437678121217,0.8002925409673748,-0.9167322031142588,-0.44677408049099865,-0.2351394186981312,-0.9126528444118768,0.9041383269130242,-0.06896795641669198,0.15159825157018136,-0.7250767375185209,0.3935805848034006,-0.10583438610883335,0.6322834432790664,0.08982108329222874,-0.31912582347118207,0.5987993942979718,0.1013409213770612,-0.5653619125003184,0.6553204448425517,-0.2352367586640991,0.5785018131676933,-0.09255054613272051,-0.039904411128592,-0.6117061977829623,0.5548910017295623,0.7106814308196088,-0.1708718976950016,0.6686504318487501,0.02105417329037599,-0.1600751906021694,0.09236292847492375,-0.3098674321303464,0.5039158347995857,-0.07635735184747214,-0.5980591224446938,0.5112295046776907,-0.779842930892101,0.9884222748201119,0.4018601877258427,0.05718689061589676,0.24162054680098521,-0.2594376532098482,-0.018498083295467437,-0.41338321991824967,0.6470963931412093,-0.2017792068072641,0.46245360146005476,-0.02548631873602858,0.6560535621401677,-0.5042024699966725,-0.325954978555413,-0.2746479009176328,0.6749372156159548,-0.5615537359708118,-0.6367830171547496,-0.8889820221781294,0.8613940837289195,0.14050266244394197,-0.06698101047860992,-0.279043581271339,-0.9312147325852258,0.545325652729944,0.7324127737153631,-0.1996052620887444,0.35720311225660434,-0.786358510620009,0.4395334875960645,-0.879749926916552,-0.3999487097974906,0.10124045464810266,0.19741017813128756,0.6199004617602071,0.2774952383914139,0.4622453369737789,0.44411199295934795,0.6811418131631877,0.22145651624076024,-0.5589593769867465,0.4673929512480459,-0.9519981094522314,0.6497503359432679,-0.9766909781229528,0.9350026414109405,0.42345830964054104,-0.1993392988843351,-0.352829207297306,-0.6878397414091196,0.636911946929848,0.5566134686100899,0.9827321606739687,-0.437869637640638,0.031113435448533747,-0.5666758040542828,-0.6376759155511126,-0.4806188141576836,0.1621270667160741,-0.7091080752805785,0.25377025107481627,-0.4599546393525745,0.9645843690794443,0.2778127471612857,0.9600640852822417,-0.9268013784984648,0.22157157944998263,0.5804773264670975,0.14448684867149186,-0.4146013084176281,-0.3772998832715069,0.46064656942529014,-0.5368187892775715,-0.3930078036561091,-0.19530465961237642,-0.03919875943041176,0.8237704493193485,-0.6533900870866023,-0.9078410129030265,-0.6160907221722729,-0.41548328796196005,0.27730040960579017,-0.34538714808150733,-0.5685587218221922,0.7008360644761038,0.15414756107261265,-0.8538340530943068,0.9355136547682962,-0.8595688327654244,0.4509766994966151,0.8547914671999566,0.8848640076586087,-0.9342384149782426,0.7054322095436829,0.7515435685182745,-0.15497008867936968,-0.05287743627404229],[-0.22931969937389995,-0.4390150640947694,-0.7180953011898774,-0.781440384559152,-0.0274402466002428,0.14378999721728647,0.6138265435976393,-0.734943511797225,0.34672719530308216,-0.38275509834978916,0.9457631357321725,-0.07759362448236073,-0.8099208853258086,0.6535589079214352,0.8166749807859595,-0.8536669820749587,-0.4974160842573032,0.22420020249091754,0.2919429482142317,-0.7945892478817322,0.025168236506676323,-0.6516798232628704,-0.2769055486297254,-0.812014244423036,0.8969194202793758,0.474218925879232,-0.03379149192945308,-0.2895148713768889,-0.14793555782683487,0.25575794965666,0.45583736147218623,0.05159893305443042,-0.3073265192871131,0.6400113764046682,0.0903396632726059,-0.7622541747187328,0.7907627679297855,-0.6582332096050387,-0.4036849300515338,-0.9462926228412961,0.033782436353662515,0.6727563338319228,-0.09665586008499454,-0.17478696430801102,0.5954152737180789,0.9861001048836543,-0.6117873503361169,-0.7933520263620693,-0.3236949047249489,0.8878485380360142,-0.6150218039304458,-0.03752619417441361,-0.370338653286193,0.7984909542067142,0.8354431057954694,-0.2618321602660414,0.4701209149759835,-0.36493976125548766,-0.999374645350144,0.3704543097082067,-0.21948747653749257,-0.8357084155605672,0.9516226194633965,0.6733403755104987,-0.11989179314076504,0.15293078591653764,-0.6465673483796797,-0.9056475311577862,-0.3653983702074657,-0.2673740758346251,-0.1827204421530239,-0.9643022154637665,0.8261991650205824,-0.9338680669021573,0.3791258618342364,0.8544432179293865,0.5897968561612643,0.2684604208645431,0.13771043773494093,0.7800065365045233,0.793638132387235,0.36381260382203706,0.2099005746227709,-0.6477472546033489,0.9172976637592423,-0.6428461169861159,0.15305240013688026,-0.4133067231429717,-0.36887466136567726,0.9606206129752302,0.32393487830716605,-0.030395878618736095,0.5424124069620304,-0.9903604288780039,-0.32283617992742597,-0.7919614635623522,-0.13534460677179047,-0.29379888763310674,0.7811905164955886,-0.6615517513688199,-0.3680534761597243,-0.8961750548573343,-0.1004714229811932,0.24957523529269576,0.7422247216737822,-0.9186311343583814,0.38864116637433677,0.5417730450993378,0.71809256007216,0.2885391063617493,-0.2955181252586132,0.3044772969871725,0.625600856520192,0.47963375929322494,0.7335347389573914,-0.10685203706713331,-0.9245848078538332,-0.3060776306662197,-0.5205034868753529,-0.9772659455634755,0.006013169073100995,0.7815859525994199,-0.8952649516610636,-0.8986390984405855,-0.33082858912070734,-0.608653413841149,-0.11403699622426806,0.318019656256791,0.5162032525868517,-0.666660652462229,0.611052736631831,-0.060856508673882134,-0.4037463542499858,0.2510092552729545,-0.5140513502538624,-0.5620227117904532,-0.8783965259160308,0.7025770977563082,0.11098369238039307,0.30684898850548237,-0.4588262026977774,-0.8898170179674318,-0.05608410802485109,0.8378748085839356,-0.04868989185771649,-0.7425060806089843,-0.42260080949902157,-0.02417812486505304,0.21623679296636542,0.8557750333637358,-0.08786587634258164,-0.17554270644749284,-0.8047353653737396,-0.024774181437504005,0.8981196828693376,-0.7075250056426292,0.7724521878509443,0.21471832064672317,0.4052719280891394,0.6357081156388039,-0.3010439501669622,0.22505021124169594,-0.6188066864422417,0.37753351078016545,0.24124058547890748,0.7777644214050782,-0.6396329199558849,0.096407235734989,-0.02390554665080069,-0.05875836977303983,-0.4227599376711111,-0.630300501211595,0.9225551101794937,-0.5346237806507402,0.9325708027767167,-0.8123732194656357,-0.3119683269213794,0.3642789355345671,-0.18732495261918047,-0.34551938174284125,0.8038500550478165,0.7289228033806926,-0.8260246452865294,-0.9235596602919501,0.9239810188728307,-0.5430869746341069,0.07086516254419276,-0.7666453345720701,0.715434518164498,-0.7669548725559557,-0.47318697395750203,-0.8388032821037836,0.32744843028354437,-0.8450271471112638,0.020217172861966944,0.8046257759912581,-0.2000415297363971,0.7624951313327482,-0.07825272645428984,-0.4528046976246715,0.49732282963534086,0.44271075373278246,-0.372756820913006,-0.5069671217489319,0.5822041182632721,-0.4396702634840645,0.6524416527649438,-0.9742658278162062,0.4010627836106505,-0.47593904711979296,-0.08873492808546832,-0.9201003572963369,0.5483708419117667,-0.8940948490654768,0.988961622725996,-0.6541582816566028,0.3599687397389615,0.7660511594656612,0.9180207479478075,0.8964088086671861,0.1954076924283104,-0.32285669333740047,-0.7953579205357554,-0.2633374232087949,0.28138677236549414,0.09049597520958841,-0.2753249109799685,-0.4520418370898115,0.6393856121223352,-0.19585022173625866,0.6124167718435919,-0.6021483812369305,-0.006231371450754398,0.2770858096814207,-0.7536121250666707,0.17118045916283972,-0.03867718721891359,0.39205628953483507,0.7354902986512678,0.7864260528906395,0.004579231023539471,-0.8282267823286363,-0.5094747420917108,-0.17629344466388958,0.41933955470083634,0.19206800155546608,-0.2106122417649719,-0.9468641233291298,-0.3132667233697144,0.9953806523312861,-0.36675135420361893,-0.19100671129853675,0.4204779893748616,-0.2443525629648406,-0.11880035529612233,0.11779523589655275,0.09152728014868731,-0.22477867996874043,-0.7994901351590831,-0.7675478115553714,-0.6625885523493156,0.450664731093233,0.7158637083560283,0.4148412645076313,-0.20010642639058734,0.43081623759611204,-0.7618254698917407,-0.5043379793094325,0.27260045274964423,-0.8432435883649491,0.795899056990892,-0.4727135495806744,-0.9377595155210614,0.9331639274399125,0.431651074678954,0.05875470167103117,-0.5621681400418669,0.7020324946182982,0.32138427473557746,-0.9286345301020877,0.6300607776576967,-0.12425493051497889,-0.4467768862376416,-0.06948585995560023,0.38379605918856924,0.12015483825268769,0.531359395308686,-0.29779326240364234,-0.16825409308504713,0.8582137507805665,-0.5256323021719708,-0.6338486649233234,0.3272196601125845,-0.8347462444082522,0.6809183123151433,0.7729042383337779,-0.3009355053995444,-0.496526722152104,0.4548871390468382,0.2620244888510606,-0.8103853140918832,0.8460935867232056,-0.8307296024358701,-0.6024542989953547,0.23196168409479817,-0.8596349604513756,-0.15717449412531517,-0.995718841894226,-0.11013123901127075,-0.8901458984292594,-0.2971315028874324,0.23223256282840074,0.07503881451527784,0.9740425942815378,-0.15238515252723586,-0.6654816993147059,0.13958309197555585,-0.8744573316683848,-0.3231110720748942,-0.07562596028279525,-0.8916423741735012,0.14178824090026362,-0.856933764228586,0.4788622469049301,-0.1907073357672134,-0.719345736392911,-0.03419463070326888,-0.47405700369692677,0.07825514412501652,-0.5403251805093422,-0.8880292456087735,-0.6114508796237046,0.3032375023156069,0.6585836803655768,-0.9397777313641705,-0.19405896510598142,-0.370573952745052,-0.45441879105928074,0.18030607916030572,0.9353881279566073,0.4214939775584172,0.5234706315918313,0.5758912050507341,0.7776134867949445,-0.5493465715518375,-0.7731676872331915,-0.17806573040717089,-0.9727457080227977,