{"layers":[{"learningRate":1,"weights":{"rows":100,"cols":784,"data":[[0.0004151693440563875,0.08352987421500391,0.4404093501064201,-0.2141589313099561,0.051074827325763295,-0.5723929809017165,0.844030942982978,-0.370266308856694,0.6980551237198998,0.6708985233072964,-0.9391651047020555,0.34303175821490983,0.8184106991429632,-0.2552976343010598,0.4633984684595793,-0.6191099092693602,-0.283810183180381,-0.9042355053273159,-0.6707912703943695,0.9816052576231686,-0.5464322738977585,-0.8215377763989684,-0.759555531550455,0.5577158475717328,0.5498423872214904,0.5973178869714748,0.19827427291917443,-0.9925889168840922,0.33747391647831826,0.8088007683622549,-0.795178809657469,-0.19050345367316135,0.5517136409933148,0.42988969946567357,0.29147978577793854,-0.14198100603953723,-0.9537697309056257,-0.3024010197710951,-0.38653109767535065,0.008225104543336581,0.7881145881663758,-0.6157297298686459,0.6252312714088091,-0.24184095846619869,0.9891024377084112,-0.7465134264065929,0.9743008933632615,-0.5164242078227144,0.3056369780655346,0.16568066162142614,-0.7526754909109781,-0.9349421236592259,0.2988526092204289,0.7946098555350689,0.5061360627741349,-0.7028400865762721,0.05736312418447165,0.949227177417654,-0.39734263349889076,0.45143081007518804,-0.8225300588066506,0.9415052756530824,-0.29405648595901646,-0.04719260785118662,-0.36157697562735613,0.6054732003103278,0.04788615749045544,0.9973773248900382,0.8863760316738292,-0.5636169379370792,-0.07400925442520156,-0.23559972593548828,0.6382642198044377,0.13248868516201,0.9433898507234683,-0.5889500708621589,-0.2903116731476878,-0.23301624096744833,0.7354478601798262,0.017185984400748477,-0.25658130345812546,-0.6946318204959843,0.06243753411345798,0.5450440395504552,-0.8922232836977955,0.5404195907894445,0.3310714685619587,-0.3087145768193804,-0.09824621543400713,-0.7408368492143764,0.16296834369458235,-0.1416020764162491,-0.4207278013701945,-0.2250155761983068,-0.577804536450639,0.9385985556142127,0.6450312405121741,-0.37969675116777424,-0.9516569117324827,-0.1063185442552699,0.6167949696430814,-0.2649708715950274,0.37251167041488636,-0.6729095350899148,0.7125125799901788,-0.8883600266133884,-0.5536484901247984,0.9435731914678342,0.7535634353468876,-0.3396617656462819,0.3401310736954106,-0.3832414876776169,-0.7295690105326789,0.8636750009622434,-0.7550886093786873,-0.20336089639165245,-0.8565329527624348,0.3002228306465544,-0.8717237372345319,0.4653658993472609,0.7102104286395612,-0.5435780630613074,-0.7192338076840543,0.6446496947892282,0.8504970350137828,-0.4516385985885877,-0.019597590419555378,0.29496040252085165,-0.9115024203535761,0.23021700122741376,-0.47154507096964493,-0.06911056146474535,0.6233999685106442,0.9464219229103659,0.09377973799987105,-0.589447675591547,-0.5572084187252426,0.1307691602144505,0.4102237490662355,0.6244501879658184,0.5603882640907196,0.889814370960682,-0.9791085226927985,-0.4057560569138552,0.12278860904581057,-0.9640868238673974,-0.17109206205841554,-0.5940474593403784,-0.7904252379791643,0.41577949758106403,-0.6176527448858828,-0.38101925627375244,-0.03320585489933611,0.12634574383283778,0.8007448541539016,-0.4195960791359025,0.45796181233040567,-0.3449359440728622,-0.23400907140472493,0.13347536869281787,0.9692501568790373,-0.7502872065261973,-0.7583271910828125,-0.744440061591634,0.675835826207777,0.8705971477042302,-0.6372210760531942,-0.8723988967634115,-0.4277988755809976,-0.06349702298891646,0.07826535860000217,-0.17780886134191842,-0.7555691352840784,-0.9112067707823999,-0.27853219918794236,0.15558141921395086,0.39940844722277646,0.719954422184448,-0.7653962271467453,-0.0713783781475999,0.1207063474510267,-0.07967610528180277,0.002341585862660772,-0.6801510399413024,0.9921017319170151,0.9323646863696814,-0.867197686847879,-0.6425837449539838,-0.3089098287670477,-0.10836210795340936,-0.3022283532289203,-0.575801724716969,0.8074884551612813,-0.20451680666661964,0.5604453731403023,0.24036007809092075,0.1031648705688859,-0.8016247650783428,-0.9423621714223218,0.22555816439821097,0.29100060492005986,-0.6193365071926477,0.7906311607834233,-0.47460150332079903,-0.7065175585280815,0.025135010931143037,0.9957982036968447,-0.9501902583950588,-0.8084193251475505,-0.4828256013510054,-0.0904249736921091,0.5139842871720497,-0.7591960492674673,0.846674889800916,-0.6687244011449345,0.9366214840441,0.08316714724504876,-0.3430785491335777,0.45979303180822556,-0.211638560324519,-0.6251936089792149,0.8771039800065523,-0.7817218859647572,0.5438862276864351,-0.6849310489092884,-0.2598534343148313,0.5148581779206793,-0.32926326011789797,0.19904780302365924,0.3088261593206932,-0.8843848250942656,-0.31054365356811015,0.10348712307756755,-0.08190918738968037,0.7924806589376608,0.1627617473640729,0.024215082464493533,-0.4824418908706402,0.5286056204671539,-0.5289703039101491,0.1283429485375186,0.7703053603114898,0.6809526585818516,-0.6038175220254078,-0.22487271465654854,0.9090252798313488,-0.3955168713090929,0.1448550630836416,0.04807742866419451,-0.8421819204283656,0.6567662414332629,0.6644947726081583,0.9577836948679974,0.8068735085589043,-0.1647857509405477,-0.5177095680697503,0.050669424030459966,-0.9661951464770545,-0.8386584311172576,0.7477960133744572,0.6760616639418359,0.7215169481253922,-0.779035039972146,-0.42330410865437473,0.5511351941127838,-0.12643905348251536,-0.47534359717961067,-0.7646401654864703,0.014722604357858663,-0.7989035094104278,0.7276624274477292,0.9341095350577229,0.3860742813747117,-0.37067019964551123,0.46980347060444705,-0.35190445344267696,-0.031056505801166256,-0.6335210799215472,0.007983643485857339,-0.173827463597235,0.9474661513357949,0.6360474246789538,0.32402813558757515,0.09183130502958647,0.26781515962019437,0.16119053657624988,-0.8360929170501454,0.332510554184967,-0.08720273898460339,-0.4007679068319206,0.6346707064672595,-0.901956662445848,0.20494871790272073,0.6023305955234198,0.20681131103943526,-0.43757079399935334,0.2346718262919583,-0.26335541102578763,0.8959249229791575,0.4264433570154605,0.5968640845810476,-0.8646266619193969,0.3685116959902295,0.08481936592072659,-0.5236429934807578,-0.16964724993617653,0.17267221274800137,-0.14280281782616466,-0.47034484854708447,0.10339752147831716,0.25375948711296825,-0.1544837472361814,-0.26925799855384364,-0.3357630329383225,0.27013484576319335,0.46622660795598775,-0.8631226313802077,0.1848169612338844,-0.5203125843804801,0.6587491880446332,0.47100387022066004,-0.7211530259263591,-0.03245672816016973,-0.6111060116260889,-0.7241162357263244,-0.9798348791846218,0.6131985971813041,-0.07645840375592884,-0.12556765832307076,-0.9247851580426912,0.8199374347024111,-0.9848468595386577,-0.13199197675607754,-0.026735526998159287,0.12544501156506183,-0.8831577576579188,0.3403163454096587,-0.11647657637953213,0.5108285210828658,0.1322469035742455,0.1130002502163326,-0.8705801949913231,-0.7703482322214086,-0.5476203322702039,-0.22599945547397973,0.6220945095810478,0.7964426180294369,0.8486328020272856,-0.9072876204156515,-0.4523519902468658,0.9560864976698946,0.11856093252658073,0.7968342312548687,-0.23874688017566043,0.5383762286938376,0.560072022191013,-0.8870323871318933,0.6991978985868247,0.3245405167926592,-0.9692729824232904,-0.526794293016053,-0.08673970811121157,-0.7651516585899403,-0.7270347400534569,-0.04438608262505639,-0.03220912510837959,0.9971904736701722,0.5142109055601285,0.09624772722748227,-0.054519027828226325,0.5792933992072198,-0.2813482304747148,0.8081813413555161,-0.2508212624706505,-0.9922522095669625,0.27988788303086437,-0.013924811127578896,0.31759084664749865,0.313854095637314,0.14659911604534867,0.7690019271552826,0.15271534679202184,-0.12468949222697721,0.9326916055018717,0.4633257421873683,0.2879793596597399,-0.6664534545662617,0.8901065585520005,-0.5597992213318328,-0.15016468852811293,-0.06481238904586073,0.8208250872689189,0.984063002577273,0.22010887487522934,-0.5636331233993177,0.8691146025911851,-0.6374460476614988,0.2772701931300904,-0.8476167467132232,0.4638260931545036,0.5971975862856301,-0.045178001654841295,-0.04648402681529656,0.7153008847384276,-0.45011275460138406,-0.9015231215172925,-0.39276957060796536,0.5266484338649181,-0.1223405688394114,0.899384334122984,0.010160047166350394,-0.9179966781268207,0.97998604831933,-0.6061282500913562,-0.5198188911919912,0.018979919588089977,0.039706761023909465,-0.6866991078611782,-0.6021552980968239,-0.20676815557000472,-0.02591820453175986,0.35980480085779165,-0.29469381933558747,0.9942704528998954,0.7871603438292051,0.8252197642670869,0.759418605237134,0.5923278358173379,0.4329243429753208,-0.666314244139516,0.757800918914589,0.5871967718029066,0.8400897341705664,0.8632112756290128,0.709601997364058,0.9008744369480473,0.2669624880753068,-0.8151468978371059,-0.557594090319507,-0.9515253925436072,0.3317568815563616,-0.8197288094080531,0.9137470220620806,0.23570954594192717,-0.7072750780344887,-0.4365594505317727,-0.4531473735346263,0.919234745469689,-0.28279517466202453,-0.8090628993375817,-0.5839029634391095,0.7546681889031617,-0.08006583164372998,0.9269458419186298,0.5544849380615761,-0.43323162403621096,-0.6021530238159142,-0.5393394543922672,-0.16597378306353894,0.47548042341268076,0.5807427758610197,0.9222508800566909,-0.9145699806571094,-0.053424756116156345,-0.02515834643004398,-0.5331517293712811,-0.25436017372392794,-0.2998360962001585,0.6155613809764356,0.9838507177896156,0.41530736290166603,-0.14450236656819282,-0.2757302484362185,-0.5593283089552323,-0.07919905980888098,0.24369688568713332,-0.7928109314201892,-0.1592471765695045,0.509436771440559,0.17120391061564,-0.16535180989442955,0.02530896292204643,0.6278144218165852,0.8988547204988462,0.42820894340097065,0.37045197181678635,-0.8616285679117637,0.6751653898655056,-0.3434470886934532,-0.32931332521724116,-0.9050391563781077,-0.4284303186256248,0.13164328782539136,0.37426071298518404,0.3408024104394202,-0.620922514947706,0.8010368653551517,-0.7758644489703289,0.8372232815446303,0.8924633867396105,-0.9738984505359322,0.8952813185312967,0.6712191441519142,0.11067763841371292,0.9138089858158978,0.29642793459235683,-0.8002869406811493,-0.5795138983984311,0.007309836036696105,-0.25953731716407713,0.7893696946001184,0.1722202074245597,-0.19733001890147622,0.08226652224073591,-0.03760232380927959,-0.42299395979477705,-0.3922262896227449,0.5477321109961634,-0.37226383965827453,0.16961201527012085,-0.9038130768276786,0.33561452171401573,-0.9609704315775992,0.5274441302060285,-0.07354381613297652,-0.5329049531578924,0.943071507453162,-0.12235746735142944,0.5897851588007025,-0.8715871169442684,0.8888733785985043,-0.4682024366018336,0.11795407049862039,0.6684396551277789,-0.22520560610366758,-0.493369588184565,-0.3434988334879763,0.8386267879706593,0.8654714107432802,0.09122357469597671,-0.049639201042465754,-0.7314182014260947,0.9452112594502452,-0.19277053875240396,0.6838369235325512,-0.4784740966720672,-0.8766520342996109,-0.963156931928874,0.693410406596889,-0.22787334603404563,-0.8994904994022802,-0.12055723416344585,0.057213301550041784,0.30020040058477016,-0.9824326607439484,-0.857879319894219,-0.5735966750558106,0.022139704262943205,-0.5940388369208445,0.032215883242524335,0.5108913095230938,-0.410388933483687,0.8479653360223995,0.7009872182238994,0.9094342602024752,0.04603698669605726,0.8850665385881449,0.9432822135744712,0.879122623848591,0.9071156088373846,0.540301473152287,-0.2734512967035178,0.7197004535597216,0.1430560602477203,-0.5674394958470503,-0.025378109874813662,0.15767305862993677,-0.18090024308904015,0.32107134345996186,0.21307258976963034,0.17485419329157237,-0.431557590179668,0.733008864744825,0.44057611884276193,0.4821633920083328,0.6600863502207592,0.8844825262085569,-0.2362965899152627,-0.7378912703307106,-0.1876394378832411,0.566508664708878,0.3624932776376233,0.2359409265556236,-0.3672688375287743,-0.3818017836651892,-0.859939052159099,0.24562150713500855,0.5884246943638021,0.5109918599470884,-0.7759790390796164,0.7548016050265477,0.9441262246836754,-0.9883391937659954,-0.36367854140235567,-0.47147164525388846,0.8288848493981142,-0.46464373988311236,-0.8595009584365709,0.6124648087220064,0.1483350531969565,-0.20422453316021905,0.6996221976955783,-0.559939499924536,0.575007476172571,-0.7176111136247112,-0.9564056618528274,0.3678759472957398,0.688176738638635,-0.7074138350292443,-0.01505815659868448,-0.4088592372889912,-0.800096386556221,0.5576261368034627,-0.9631723864698563,-0.5756454480593141,-0.011540854692675333,0.4952595476749949,-0.5375485537549713,0.28995547128197036,0.7836991701197168,-0.060805934830235116,0.32338593089283,-0.9127919070691698,-0.5514152431570739,-0.5199292681891302,0.6004560731682965,-0.5892699305124367,0.11648522927457039,-0.2407384260255898,0.060760833326447106,0.5739995912846663,-0.7061880093972266,-0.6443532096206477,0.4949015893748685,-0.3258274154860299,0.24628459530348668,0.8031278094332772,-0.1917929367853608,0.8645219898650568,-0.3886754867429793,-0.00024200806401036208,-0.2972311418886195,-0.6805477871611912,0.6774448338051792,-0.4509358964754446,0.904536397359364,-0.04915055216427843,0.46736763778780044,-0.5265558873459366,0.59023933515442,-0.13512933253296894,0.8512148181453849,0.4437121802658679,-0.3353539638902979,0.05757604030336472,0.6073344050018639,-0.1505465150357015,0.7706232700888678,0.5115040087898333,0.3011783411136091,-0.4468528915012939,-0.0032587946997999495,-0.48867095245954006,0.8657545598365606,-0.9509383049816917,0.19432388272710943,0.36390875408244755,-0.8608855729545255,-0.4205827201424794,-0.7972916321437915,0.9888304720497407,-0.457757030991796,0.40662261384502985,-0.38955895396718593,0.25985426638646814,-0.8714685447732267,-0.7199401201212257,-0.4186307075387055,0.3230174921973402,-0.3403945928710086,0.44010682176557087,-0.8852323506820047,0.1945739227161054,-0.9511710252403769,0.7487712515875367,0.8196385367709413,-0.28522815158098647,0.5628412921186277,-0.10777667047437411,-0.0964108020129455,-0.5560428562493067,0.8135832877306237,0.2650059322885392,0.5196901665107201,-0.3387199713916549,-0.207176410278604,0.22831074604887736,-0.2785213849442365,-0.09918515811589237,0.6567972555163779,0.12935066091019473,-0.12493006173063823,0.05058012064308404,-0.9140486740784546,-0.6130386083344245,-0.39693479719873465,-0.6599673234330553,0.2525849643481581,-0.8395476899525749,-0.35555365071907374,-0.18314595660206479,0.30079880026127315,0.11607295352272873,-0.5341405682458236,-0.7476478617482596,-0.09860148229449628,0.48471592101520367,-0.47740779858568017,0.26784238094001145,-0.2760236896289623,0.1351607886004511,-0.6775160090730492,-0.7832950020985501,0.5899095474520095,0.5860595956717511,-0.695179425636582,0.3601050665761203,-0.01878420585590799,-0.04891532506428777,0.6325277880388724,0.25976587091455583,-0.8519989519585986,0.44169665427917115,-0.7538195405599389,-0.19095763329000523,0.561721506866007,0.47535920154154465,0.7061089711533315,-0.6226174022978821,0.3513231937232657,-0.2998695921426724,-0.17793307047053597,-0.24120513953479383,-0.3824970060263837,-0.9550585337753223,-0.3519699347946026,0.9403423512668878,0.8318040974822694,-0.006557839876334182,0.8235596383301251,-0.4027417058177245,-0.574888092048,0.9053777549259294,0.033672870858883375,0.04168127754376627,0.4042023892045088,-0.7248785292099749,-0.7319043401095602,-0.6189546174916205,0.600244853704007,0.4451218293232291,-0.6728540976082122,-0.11717942343191501,-0.6141075103244895,0.8082372313979018,0.6605148339698226,-0.686734173539425,-0.023357509110703667,-0.2877809869157244,-0.6617851132693602,-0.9253085908272456,-0.011137876343963349,0.38015837195155644,0.7254872498112395],[-0.6592597291725446,0.9449551251803583,0.2557693606515836,-0.8254875409219493,-0.4706118207767691,0.012498814660659718,-0.8025431976518438,-0.8677996320604766,-0.03415049421433647,-0.8008939156152528,-0.6829790377207705,-0.4344323933584282,-0.3545653350409679,0.4107326701484997,0.828137408997947,-0.09965630092184474,0.4653506602000803,0.4927397889426648,-0.04006421718198938,-0.2787335872448602,-0.9042765695562482,-0.349335428931036,0.42310307279788706,-0.9556751541791395,0.9814961684374066,0.10252176697701332,0.3793608548006877,-0.0827669417833321,-0.5711429239684933,-0.05071634612550069,0.7236408179398537,-0.6104539437271108,0.08022914009192217,0.812252130766562,0.16181063001956453,-0.4950062745399655,-0.6174328579726271,0.2387988406866599,-0.10638097299197513,-0.6613448190779887,-0.43197129521990263,-0.13859127677752792,0.25563777080652006,-0.19703920908402406,-0.5250639964759993,0.8015856115077726,-0.5450818832823026,-0.8239212537544711,0.3091542791868034,-0.12557175440325796,0.5447335371524948,0.7502208448276848,-0.9979834202788691,-0.2580655229287814,0.2020918796030733,-0.7337301026679692,0.9724405479636165,-0.2794252612278103,-0.32778931568631275,-0.6400310656671357,-0.48299426380055177,0.7250091293368444,-0.606340009242174,-0.6821489874226514,-0.15936316425419728,0.513116958184979,-0.5227738403417579,-0.6125519748895005,-0.9724297383611304,0.31695118034729886,0.4492492848944871,0.05905809125358408,0.22949978329678705,-0.6688504723633445,-0.19143836933149658,-0.11000794454839768,0.11102976709105006,0.642586512131897,0.02905151225293201,-0.2139954069413177,0.0012386804623440995,0.37181932771975257,-0.002101108415885289,0.9620643062822354,-0.3583772566663419,-0.8071640267341986,-0.14397092991541527,0.07009506017630418,-0.7812018455756116,0.0697834753361275,-0.29083065859782664,0.07115038782546979,-0.5200040501747023,0.2668457238603348,-0.7311802532626497,-0.6205316327304318,0.5713119170193699,0.7244422780647488,-0.33132952447048325,0.15297752044880775,0.5435633781923117,-0.847112304361967,0.06402590944844491,0.48786238377922375,0.9739620191194889,0.6028176694583118,0.8989793682201532,0.026698050388073824,0.3883387463219403,-0.6217951749317803,0.037538056328648484,0.18757800445695416,0.07443957137242618,0.09481952151921336,0.19573321627826168,0.7718124314141002,-0.33885712977235993,0.831518974175284,0.6070610168210542,0.13304083688289703,-0.7578038538806391,-0.16004111848927316,-0.22527191819248715,-0.04612292098614601,0.9046315950984876,0.5146265522707015,-0.5312643509513644,0.4193165502022241,0.9074796132435543,-0.9459698946820297,0.723245853862596,0.5987129774409503,0.0782512669413431,0.9256428935418777,0.8539959352377684,-0.28891772014149275,-0.6183770833800168,0.04040740331992776,0.7480865513935391,-0.7721835898540981,-0.7134943248091066,0.047331273133052854,-0.8130653600094795,-0.16419315794898548,-0.0717816242498075,-0.18344129185204805,0.42303339432272313,0.4253436111059168,0.6696354950645422,-0.2317752823502608,0.8102021965578796,0.1057765238823077,-0.9432681282822588,-0.5678117365404465,-0.3805790685016269,-0.32462397623248906,0.04740146340839746,0.9737443259116167,-0.8942053484568323,-0.9348005743626083,0.09072073191762864,0.697991713033588,0.23276931100200596,-0.6617037207404451,0.5068594128059214,-0.5359733544175294,-0.4938193007291156,-0.2918657948770358,0.316659855564942,-0.19855175472262676,0.0954197069341638,-0.13121163324311436,-0.9894565345760518,-0.6796820795706865,0.0873617255528929,-0.6631771244350224,0.15126350304071579,0.47849123619148415,0.006080742767622074,0.341955362125408,-0.8553268083032951,0.312121084311508,0.21164695357838148,0.6629721480292337,-0.3549657471578108,0.04925759078768477,0.5861206764213573,-0.6802370976549511,0.8816735933045872,-0.20627350588965582,-0.3570493108554999,0.7319373747271591,0.09037423508797193,0.22711462823615758,-0.08401336918015234,-0.07418808464560733,-0.6186754224429145,0.1599649956611957,0.20975047204339248,-0.5109705475910746,-0.9893540751880548,-0.0778077311681301,0.8828209691903419,-0.3787798393214265,-0.5993177556767729,0.6323212538502464,0.9112852720630484,0.18553651399131516,-0.06997908110878877,-0.4960614464097076,0.8024678022209005,-0.8610247945268393,-0.7495775831497656,-0.2748290492563634,0.5991416600114318,1.0057307797040382,-0.19775987136274809,-0.9012252296671477,0.6632480060556959,-0.5317714469815931,0.5793190351623041,-0.38737040791937494,0.9140163517576507,0.6097601545920099,0.6301533974260929,0.657225797635729,0.5997015912585613,-0.37592116814219967,0.9332774278211841,-0.50694037374873,-0.14030560261630098,-0.4356805607394638,-0.7497207486670456,-0.9713957767220085,-0.8808329161334297,-0.34599940661051987,-0.038646047590021666,-0.8766402123361604,-0.2934483148892771,0.7620351902587073,-0.037756975011520026,-0.5007516524333973,0.7150000959078873,-0.34045154160533275,-0.3081739886646563,0.896664588981466,0.5970962158798618,-0.2047375808887839,-0.2233422297117449,0.710095372308527,-0.08639745648060781,-0.9968462749837612,-0.18595692827851895,-0.9625111998989619,0.18559836898713522,0.6831174534669913,-0.4829699578476041,-0.581614242138862,0.6362899896656655,-0.510833536666389,-0.06291117594157711,-0.9498976592885996,0.5314564959806799,-0.15006629863144663,0.9609648899807324,-0.10149996189304115,-0.15959662698613308,0.15536344061807464,0.032667323859635604,-0.4163081528504124,-0.29923870756805937,0.8622950294120805,0.23193850025652973,0.9546906186921708,0.7598868641938432,0.7165216833130601,-0.09913986010762121,0.5314270080853256,-0.5846215464337825,0.9769652002854818,0.37020311436427233,0.4145550499666797,-0.31089609649483574,-0.1678620923222971,0.686865680979995,-0.4800003930163982,-0.10068395111779882,-0.5910641554035682,0.8237370743092307,0.968674203641801,-0.13232584623536753,-0.010781197128236171,-0.3024455520502087,0.9158779389166719,0.4784031583077685,0.6889739873442161,-0.953841523875229,-0.3111905025539012,0.7975580071563214,-0.3496767766194948,0.08391793441535854,-0.8492021165359283,-0.8347171062059813,0.08875669229974514,0.10049316110170059,-0.12425003494728548,0.39687664623764984,-0.7548992954712435,0.44489886367790277,0.7202175814791558,0.21337127644041853,-0.7205490934570151,0.5847506563547478,-0.8310412362126206,-0.9066374704703839,0.15886280375322484,0.2487933084096593,0.35360700547240737,-0.7964103389244582,-0.6594828058430642,-0.7021955108468856,-0.4121347930204057,0.8859687794141257,-0.6417520918534974,-0.44046882656856995,-0.36875130685255836,-0.7319485289416052,-0.6707318072431531,0.9659088048382665,-0.5608944293710498,-0.7117441159498517,-0.9924993252690477,0.743763442228528,0.14044935836947303,0.3104462413649851,-0.8684346316669571,0.49239636252267216,0.2931735611895694,0.3874634905660659,-0.5487015147204849,0.19718042318402176,-0.033493633941177735,-0.526414839581099,-0.889222210539886,0.9391215602757429,1.0005015337391332,-0.04113641161733548,-0.6177857763151905,-0.3933032737191569,0.5059927252667763,0.7799813496043205,0.4317284943101282,0.7578860912542802,0.27993805818485573,0.30975483259637615,0.7124517236180834,0.1361327318558074,0.10233740651683497,-0.28432151689645613,0.4463234975174606,0.6127705991227606,-0.9243742238021766,-0.35583434467400243,-0.5321573314996768,-0.6824578631665523,0.4993385492603961,-0.13634992226721998,-0.41020716063429413,0.7066688213691232,0.31099510383982554,0.5175419178534287,0.3302944765364043,0.7245972433567909,0.8090605563867614,-0.8084661466374647,-0.7853608101899494,0.14563892909154316,0.7664750559343321,0.8548032930531114,0.43013472976410294,-0.27393346665709184,0.7869992973308003,-0.5294109160631676,0.9631398066734228,-0.405928632334468,0.4507289884034189,-0.13216328635920804,0.3507908541244893,-0.4675301255246058,-0.6759119613760158,0.21509741882698208,-0.8866310748799395,0.7208572116790961,0.9264407496162752,0.8259932430614758,-0.11094634639742702,-0.033153424303645276,0.35934202291708106,0.596242557259618,0.37987048569181914,-0.45138162397806625,-0.015688946260104912,0.3764120607360707,-0.46182527482791413,-0.1254164209209751,0.4341908962226667,0.6325030311545283,-0.9804433168028664,-0.4779263650457589,-0.8598213786747559,-0.6569774855080249,0.2398504605787201,-0.49561951226325773,-0.17131832886875684,-0.874944446137918,-0.6436816942815153,0.004106673358573065,0.03632072520567187,-0.6394652928912103,0.4866767123278546,0.9420770192259438,0.9087886089022672,-0.23734177896365072,-0.20461854037739544,-0.5094718660595197,-0.9607075520933388,-0.1554389896796169,-0.5954530945642582,-0.7008572370023717,-0.11603211241649432,-0.5265623161522401,-0.17293084986940394,0.08975717879911897,0.013097648955580226,-0.9024426861241259,-0.8129427683073596,0.7127114924609357,-0.6818116452988189,-0.9897905895235674,0.9857603313379507,0.07359760606871682,-0.5587282053342231,-0.08662002831346137,0.7030397853653536,0.67896115388585,-0.8602251718361296,-0.11412293612332114,0.5611967214688924,0.8915150805126153,-0.5375218251937355,0.6348085630974398,-0.0012100733175652856,-0.7893040940179652,0.7684544040128286,-0.6465390891108838,0.8810694291789365,0.6064632405539282,0.8849244518936343,-0.8609473732126626,-0.8732494341406107,-0.31706685649734495,-0.14999910175717346,0.9794029615923738,0.573219556418522,-0.7648554767804754,-0.4063495404743964,0.425646888249575,0.7202128716501401,0.1693527940938676,-0.6870230635714539,-0.23284986867364757,0.764619503245239,0.18849208560793418,0.36238833480840116,-0.15189520008939716,-0.5942537924162883,-0.25693702652164196,0.1034257130776024,-0.529871003655058,0.3050370422244937,-0.1524696430504715,0.4024861985395285,-0.9119359743643666,-0.9537177520608455,0.5532899319351956,0.0011181809918125753,0.8928274654527477,0.08029478285139445,0.06142384583591254,-0.15090522057423333,-0.7079987067706448,0.5889133175123245,0.42563692609278675,0.9985601761645578,-0.781330714480348,0.08370342800032594,-0.9013567515108608,-0.7058101583200201,-0.04872848430497981,0.6717504164706578,-0.8241992829546736,0.16852887620648627,-0.330983438815283,0.9119632733467338,0.2181475711602303,0.04997346661827251,-0.5129892491983554,-0.3791503987577811,0.8293460859335098,-0.6203206139459535,-0.5817191115818376,-0.27806248420033824,-0.38538793224751045,-0.6431637974943417,0.2515565491710888,-0.8115026502956603,-0.9847554793599113,0.043232047877122017,-0.25623804932193117,0.8307750966910372,0.25469573036140375,-0.5183248676651889,0.17938993588446925,0.9734540853903186,-0.0920544604211976,0.19219719030719,-0.6388884880369136,-0.33309779420919206,-0.47636655172165243,-0.9048356763331253,-0.5404456947424703,-0.8197002095075745,0.3935336168866206,-0.27407789824044926,0.0011082725265416649,0.925057450918604,-0.07665824844952507,-0.2243500179928773,0.4392035548050292,-0.8046526317608024,-0.7121066543719843,-0.1041522932565912,-0.3397746450155342,-0.11030121244746272,-0.725540172098622,-0.6190841019590346,-0.43337269523811517,-0.1721710374152225,0.9161158833518362,0.6264033208090181,-0.7604367828817485,0.5288995862758108,0.7865944449472613,0.6779422565678648,0.6396227591237122,0.22429013632511624,0.3221024906842405,0.9061657846375453,-0.2191817227584152,0.4418652434966033,0.7183226415454245,-0.7696041967972911,-0.6370825982009545,-0.6857416376586731,-0.8686728267826584,0.010089959863406585,0.41101288715464,0.21370756700960145,0.24236170647792474,-0.5180820476347863,0.8282051699814874,-0.9455329933656985,-0.3584353711753123,0.01604026907459504,-0.26681297385604175,0.004923072498548624,0.5867091994557186,0.8232486467896313,0.451117156039076,-0.1663363670566058,-0.1503270284160667,0.0535441640769716,0.9242255951610248,-0.219547253617415,0.2676425500928974,0.9487481646612075,0.6355477668512983,-0.7866200921374524,0.38935815903710846,0.10599616830372849,-0.3450330648816138,-0.29966127138913157,0.8063685719620128,-0.30582925840873026,0.6914060621056256,-0.43844844792519644,0.7161777410291238,0.4634244010162204,-0.3461263151945785,-0.6785136566595211,-0.6706341664366494,0.9689689050368424,-0.2583513387086078,0.22142220735577048,0.8054655575825741,-0.5836141847630748,0.8442839425561074,-0.7845697021977752,0.31014736700253254,0.5727292201316057,0.16187714996904345,-0.7646869980608066,-0.014403115439282299,-0.37698979719321546,0.8709494759590486,0.3355043029445093,-0.10171336732436265,-0.7445175715509782,-0.07492205116263095,0.7556049138541372,0.8849595557887358,-0.1626763852316161,0.3120409428832477,-0.3390354981830994,-0.293680556789788,-0.5940629697781504,0.5375913523921076,0.9437466637889853,0.3196340186538418,0.7299150733393723,-0.7007670959319741,-0.2733243827951478,-0.4888149880622717,-0.11142466940935297,0.42099477969454996,0.38763504361530254,-0.5070509358184041,-0.959495175871655,0.9232685082607173,-0.8352544549090486,-0.9432916897583539,-0.24913991775085575,-0.39472313769651945,0.8286153743597366,0.3039207473014516,0.2776021803679214,0.46732324245263923,0.20759594700856532,-0.12456821706140002,-0.944253010255465,-0.2438102244201122,0.46371426765403223,-0.6915999855867069,0.678245735404894,-0.27221815799714455,-0.5992814028550072,-0.05483605811942392,0.5167503414810117,-0.34400226694998665,0.6893970689244323,0.3314612073293365,-0.026122439288399267,-0.7299735041069207,0.9258836297664953,-0.029003463417754283,-0.24820425164667137,-0.8325982008894828,-0.7135585974988632,-0.9745015627527178,0.23740475768409297,-0.5182531769046239,-0.924946149514049,-0.9959864125662197,0.6486065034890203,-0.5485027038492096,-0.7374539865839069,-0.11265477058470197,-0.9485479696222857,0.2317259384283022,-0.5560838751160944,-0.9946768656462568,0.19211167324055406,0.5293838716677832,0.38253008960127866,0.15028612044494521,0.036151564752013865,0.158159881463425,0.6284500605225939,-0.6779501970988346,-0.15995646569816002,-0.020311876674227142,-0.011075934911813554,0.218035601242752,-0.46914013605305316,0.47735605110137636,-0.4012103804400948,0.4693375357168743,-0.20811066970516912,-0.7203145078266435,0.7246710307162609,-0.982632639614756,-0.8180053739892497,-0.9934863842501476,0.35113542845969903,-0.36508441214461707,0.8454120322162506,-0.062272126358169366,0.08052351931046875,0.010562877643238808,0.5235632244998205,-0.07518692198546303,-0.30411729153031203,-0.905903783162723,-0.7813231210267371,-0.845044794856888,0.16543881976639319,-0.6375357088709129,0.6234701477150162,-0.8421497500546241,0.24030381979775983,0.9361408922998007,0.15809607242944734,-0.03933832691909522,-0.3882299358791679,-0.9091839202181511,0.22519775574168044,0.9608882495183844,-0.5532003947385395,-0.8486915076476556,0.9787277794978237,-0.8719744696438063,0.22242842741681734,-0.0002923124210552075,0.9021301427549555,0.8133381349775197,-0.018371009484331235,-0.02807208935729447,0.173135790541304,0.22636768569396673,0.40518706391537673,0.22748200804601382,0.695793382637429,-0.33723257410630136,0.5378237976616669,0.4992916804924205,0.8469703972173405,-0.38528543338729226,0.24818759614532127,0.709199916131479,-0.976514989502443,-0.25152098570522075,0.2970442723381268,0.5222367164822441,0.5504752405736721,-0.8239540884753702,-0.7260611169719948,0.9847249496512598,0.07114680483986158,0.0613818027022921,-0.5676650464636954,0.8537796416981873,-0.2702237298098433,-0.895238223218644,0.7386423484800759,0.3882361374083043,0.6162644940035755,0.6497787651449762,-0.6871530509037793,0.18965229708678644,-0.2617321180221177,0.09671098957341684,0.788871101014053,-0.3833415150069932,0.6401871404628392,0.8173817317027372,0.4091187838359578,0.3932895498240665,-0.8224024617128154,-0.9869740854253912,0.6438519409599537,0.9635343929625328,-0.14608925167607456,0.5908306517884432,0.6681314589573555],[0.6871392222278829,-0.2710532255028859,-0.3733923783915172,0.5640425135206919,-0.9024013090221512,-0.6046254720155644,0.49177110203880714,-0.09585857407598963,0.32268390433976224,0.3311658954066061,-0.8342070373813937,-0.14670566991866352,0.004884951399253268,0.5622904695409674,-0.693911701015296,-0.9147041046588082,-0.8525752433566605,-0.9002296729544867,0.9905659862025202,0.5362980874871357,0.2041513028599966,0.7782365652734198,0.812848703672699,-0.227364203472185,0.7891350834868582,-0.9838250819971566,-0.4325428756911691,-0.9385489696362654,-0.3807959554324545,-0.47600745078806295,0.44865267466709113,0.2816613600089797,0.9438698000713113,-0.3622985428937082,-0.47929694146030233,0.5567054341236197,-0.8201161447128755,0.688328750777838,-0.711868066352944,0.33230908815967686,0.11649441766198798,0.321582687356079,-0.17502467488503326,0.781526122912418,-0.5384638993923931,0.5119095133731917,-0.3408125201608323,-0.184257748025765,-0.9921764758974128,0.805850399935681,0.12259159385258434,-0.3327371496710918,-0.25475918712011714,-0.37523644607939977,-0.44399944719311524,-0.7684058943136387,0.19595426656741566,-0.19655993357181867,0.21250495774886868,-0.36969359471600427,-0.9685113880803753,0.20386715111924092,-0.8021224669218707,-0.6575744966084418,0.3447758244622059,-0.8381253301157501,-0.029203946838523454,0.2985667724137686,-0.8652344240837442,-0.8762055106318916,0.9321183950238527,-0.6356056125810388,0.4146949380686486,-0.8424476146650929,0.9010777869866206,0.7915504001922793,0.3099748357821692,-0.5274328007291902,0.703423799808021,0.25040919191732725,-0.46990436886444353,-0.07268438730735971,-0.7508387169329236,-0.17094945601769762,0.6953081311847016,-0.26351239099699697,0.6960118707949539,-0.5539599077154733,0.3659144182129994,-0.6346638863815124,0.8963099594078163,-0.2983690447055012,0.3126232656108563,0.2098976178916283,0.5788400106196492,0.03357311014665987,0.12186271198981169,0.053305379917734985,0.7522218013302537,-0.5693221594126429,-0.8334610742136088,-0.9812353673895311,-0.8627834209671804,-0.18084276097810692,-0.6033322105702044,-0.06496830498842288,0.5471955569364493,0.0925086088921856,-0.7116667244483863,0.6120809031698107,0.7375817791101023,0.7736303687266766,0.10175792911190307,0.9098204620713455,0.15745709588067358,-0.2808193598271118,-0.6707103531230647,0.014286272213884121,0.12316397223019804,0.2861649195801568,-0.7130746693757346,0.9050696974223862,-0.3882628444784153,-0.6235650649926177,-0.9047106631908557,-0.08366465928840719,-0.11757745237347932,0.4940625691965462,-0.9325704354428939,0.5431109045967062,-0.37189676774244135,0.2718463360654127,0.49718267941944827,0.5229561027091139,-0.9995149398589938,0.14029009923516744,0.7869602341732844,0.9846109256963551,0.06415070830095315,0.177625865260421,0.8298756971024148,0.6846083804418441,0.01110309078534355,0.20513601279212335,-0.2279092129541933,-0.39211399353572585,-0.9088577882268924,0.9633271071792167,0.9712076305447876,0.011772757974595205,-0.8833218931750193,0.620743917209118,0.40231175575619255,-0.42016366554293116,0.020900178179731374,0.9237489032005888,0.800001676581395,-0.5508682443301661,-0.08727886993425515,-0.15007430832650728,0.06691767735653575,0.8067504639420718,0.01123155665341845,0.2420045395426806,0.613158898374428,-0.5417317355228457,0.36106261135233275,-0.3816695551104532,-0.8141639317792846,-0.8331670037334975,0.49589532419780724,-0.797955106945754,0.6880113007710579,-0.5259017794222938,0.7055678953747866,-0.3831950053128197,0.8780968510432805,-0.8012089859655598,-0.8289206407062634,-0.8601126020880367,-0.7007090338111555,0.03181537239231785,0.06285533214684345,0.5119895423036519,0.7413727926685165,0.03328223661898009,-0.711032447633797,-0.14303193289117205,-0.23491442231239457,0.7809074365624995,0.3849219896272616,0.7970844399122361,-0.8013498054952204,0.6920893564352752,0.8276536837650252,-0.2101682829679672,-0.7667182523661937,-0.06270478736974017,0.2031032925955829,0.23387514419269761,-0.2123531123123994,0.03570643375940994,-0.9260533068263626,0.7290986058722984,0.7887446212544656,-0.48215091159878015,-0.7365272519822524,-0.9676132055171893,-0.9651179588040621,-0.7945955948855231,0.19130825813255123,-0.006483825453034197,-0.7888483340288375,0.8777496161690143,0.8468289650567102,-0.7886693277386575,-0.06446768351706259,0.12035907782074536,-0.9734114355539646,0.720259741106966,-0.2885988910319419,-0.8932989737134678,-0.5964344990808925,0.9889864331032259,0.6568894328109374,-0.47790467368122735,0.24697304643788076,0.7210795888856518,-0.5363045526882514,-0.5580909204081328,0.16374149103418079,-0.7494785697606334,-0.3629745763382766,0.7615161801794503,0.17723467048626976,-0.7940122850969936,-0.2362025348309534,-0.2949850818496934,0.16579348794447762,-0.18444790844351233,0.5859087010349138,0.88665006276484,-0.35056746274479883,0.9946567502216512,0.5314548861561654,-0.8365171278553687,0.8938260901527798,0.805845262241141,0.3829692940066649,0.7013791947618331,0.45361824597042677,0.626695562042586,-0.9671799111351729,0.25761162209524446,-0.7854874732459081,-0.7027681790945706,-0.5927719504808774,-0.7416729099380661,-0.1954623574427501,-0.9994596764650243,0.9213111988433073,0.5453457373213028,0.3155759254965265,-0.7428106491755675,0.5396556843434344,-0.06227619520511258,-0.5186790282347662,0.6001463494754329,-0.6565853989835013,0.4428690285211618,-0.00537211421232751,0.5889495920811286,0.003560443786785593,0.931859722072948,-0.047462087965077275,0.681039178300844,0.052706279325116956,0.9272181161082251,0.2521900686842078,-0.9551562486829388,0.7359017094455429,-0.37623296273337514,0.20043350035156715,-0.5030565368716717,0.10797009294423887,-0.19601607855916206,-0.18031227232510405,-0.7261789674284576,0.6181383388447788,0.9207135284236386,-0.43117706230498565,0.8310347485367645,0.07764883013016244,0.6795727545422993,-0.7688086460850744,0.8314717502381476,-0.3233123371554247,0.18292627921033291,-0.2256495166460335,-0.7769215809299799,-0.9316547137851167,0.05708412017027584,0.22404886113655462,0.31224840515622043,0.5476577256480812,0.7162508314952332,0.9203338403997305,-0.3642436275148766,0.11882070786986132,-0.03530510777450635,0.7693126408492934,-0.9324229532930781,0.48222388520150133,0.4071228864154284,-0.7981958236136331,0.9107336161513542,0.8494780689373166,0.3119502299508902,-0.765107563122258,-0.3157624571903255,0.7133137211448061,-0.04891968823761928,0.24823227314701868,-0.6516750411497512,-0.8268127619259409,0.26135624981788497,-0.6738192896440403,0.6890748277199809,0.6879440523858037,-0.10696133526833086,-0.6262473092918848,0.11282916731261938,0.9128301939408758,0.9170998481751478,-0.3427364029150799,-0.8563419104266021,0.6473328066994632,-0.6994543310700876,-0.30102093717201406,0.2890479571702824,0.7404292504537455,-0.9016336031017054,-0.1517517004983315,0.31925692541684303,-0.7358629944916171,0.3296607225550604,0.8495117660820286,0.1888017420115969,-0.395571923787639,0.6903153554706447,-0.5553790554949929,-0.8348118412237273,-0.8230158567845095,-0.6051304132343088,0.5896012354261789,0.12273771772540881,0.41127136754270627,-0.13868858953737126,0.6851095896625048,0.7184005696592339,0.46978418565694335,0.5361312956472251,-0.7208429919363799,0.6643128862374117,0.5612206919074914,-0.752958046966409,0.9408898653000235,-0.27636077993588226,0.8099778872465979,-0.4744524883355284,-0.0067969334257220555,0.9579953373432226,-0.3520037945981306,0.8982230295997591,0.7604202533723267,-0.0040666315744140175,-0.2881483347332933,-0.5451475777257981,0.2800544629861997,-0.6734959697590606,0.2644190439995922,-0.3279275983592645,0.09546619849323222,-0.4770739317894566,0.57578661736855,0.4304966329732918,-0.17560662409003114,-0.17127783158476806,0.8974385124315836,-0.13163162030765507,0.19723105875668345,-0.7665116973407025,-0.3084915016108307,-0.9546048038827126,-0.4610941170606728,-0.04306665058803705,0.8144238157114723,-0.8680974037885054,0.04249484038976881,0.25968892471826105,0.9597226301071318,0.5595292638419771,-0.143003961424156,0.4459346713779889,0.9871152774459673,0.9763653723542648,-0.566946105952942,0.16433775135889375,0.3189253904668805,0.5457410729696129,0.41760564382922627,-0.3243923294249473,0.3125970466415436,0.2773333534377014,-0.6324278153137773,-0.15715696712130311,0.7298135619958415,-0.06255682527642703,-0.15061240813414534,0.13549483760085135,0.8934235719082766,-0.33138675373085613,0.6050435106623313,-0.5330989903054749,0.7309757224880984,-0.19463688880776928,0.10636705954353641,0.8797890423814675,0.5679915670253581,-0.3218120393855226,0.9673715183877566,-0.4045587201761991,-0.37875139769599864,0.5333480506234443,-0.7860474786893383,0.13628049699381892,0.5706254845440518,-0.16108875509344303,0.6442762100885242,-0.5185840255789795,-0.39466368599463136,0.6582213357692581,0.12776921179732412,-0.3651730815492251,-0.39513455661324715,0.040601634523568464,-0.1941591059003902,0.07986650632946146,-0.33530504253547644,0.7090845163276946,0.4200950209710017,-0.9855033318823838,0.435553341525033,0.4179916796157744,0.19514481891724245,-0.730031864605341,0.8237228485850585,-0.09044071711982779,0.5699431599668715,-0.7667611547296438,0.5526178011323877,0.6826516153199671,-0.20483228137152262,0.2683256634090583,0.7719128967013738,-0.11438630114691496,0.5348606911742817,0.9732883042526661,0.08467151456271753,-0.20918375136557166,0.7141478528269194,0.7946771047149621,0.6885959869150362,-0.0929581433956761,-0.29430700239605745,-0.10521689358027775,-0.1632584894317457,0.9161774933721913,0.4094944393329185,0.263310641614523,-0.6566932392259366,0.12472025654740326,0.1802063174871314,0.88187718877738,0.7835000150847087,-0.873477044350778,-0.019746927565595235,0.8812174887968865,0.4682249438251391,-0.9254694084957561,0.46290180707398165,-0.6836937356730951,0.03529859647173558,0.1500059085623281,-0.2795792909044274,0.31329923339817073,-0.427771491489332,-0.1714212877605671,0.7587989289076758,-0.0980673103661979,-0.47894746768123475,0.020183730247705256,-0.057181186371884074,-0.4781089490642447,-0.3428298398025338,0.8315250843155462,0.3342058851497147,0.8938843484603294,0.33623980324871283,-0.7560521021141954,-0.32059322768884596,-0.3715671704143704,-0.8827874174935519,-0.5666915528844404,-0.5477193360220383,-0.8848408335218377,0.25536488536705115,-0.7421364577866622,0.4393278145924068,-0.22699298772556475,0.2723961521753264,-0.3992093733588279,0.5353065548999866,0.47907406422727483,-0.22977983790807158,-0.9966244848926319,0.8725263127384791,-0.28836160582228626,-0.6016536300657197,0.6941966272774067,-0.8420343415160318,-0.5316007220253738,-0.4733377875343887,-0.3322815467441389,-0.924945563525176,-0.7285007255377862,-0.5094015397448106,0.7540720280307053,-0.4455171435892566,0.3289308584821234,-0.15640865675899077,0.2686871428115645,-0.6356894086490932,-0.9766762116150026,-0.3084506098149553,-0.4554037453923439,-0.04200385072677059,-0.5047334839658582,-0.6054182103807939,0.7482475072903659,0.1396160696134187,0.11711688423492286,-0.9916209877107738,0.26452078494524794,-0.364693326093053,0.45392743741669456,-0.8724941975390261,0.434858827149065,0.956323710744281,0.6402391457917442,-0.8047489641234891,0.2561627419461705,0.1679876276350405,-0.7813005012315513,-0.6924773071572417,-0.9101062024107308,-0.1775281532043828,0.63902862052206,0.9119926421857145,0.03946731824760688,-0.7257096935555962,-0.08517390885207718,-0.4406704513126639,-0.6449534069218155,0.7216093677800871,0.6747521594085694,0.5576151561815373,0.5941962364622784,0.1877699457821514,0.7723154787644302,-0.6319908296820289,-0.7870960622086827,-0.23879687002949623,-0.45622676638202453,0.23109143355833028,-0.30512344744101716,0.6682551064761943,-0.5677979642824931,-0.9474313516333273,0.37634241745060537,-0.8735402461647528,-0.7733264593121705,-0.4929937591882063,-0.4382421637763301,0.16396795145446544,-0.7597823818287699,-0.452305173780378,0.41284686851224045,-0.3378897572331137,0.9621452730554774,-0.42607252928773914,-0.7817195576255034,-0.226247842245795,-0.030964106861396126,0.3840507170070966,0.7998243941153059,0.6227784709243298,-0.8767401610179659,0.19147130858272865,0.0065958717044889426,-0.9724151828635028,0.7924695966653625,0.916515368707473,-0.5697400205060816,-0.010823550752004696,-0.4428717952676786,-0.6878523545791548,0.10248230178555184,0.7567196583484321,0.3286945296587773,-0.70681728488946,0.9298848555743393,0.19619087904905,0.026726886361111826,-0.7206841311579584,-0.1735022027417012,0.09265482771366348,0.8420938469261213,0.3273874685966658,-0.033436280876857224,0.8209748889509022,-0.10042866661969105,-0.6563680336022444,0.4911037411561163,-0.19462104434437585,-0.6513376005387593,-0.17088910789522638,0.8551949672095933,-0.6254294732101497,-0.4123345522745532,0.5015465365574623,0.6228371306327656,0.5526458706829604,-0.6075992032490682,-0.0175894412934281,0.05150074611499855,-0.6604414429788141,-0.10738256608539931,-0.1369709169091895,-0.76681030138399,0.05088307820494176,0.8001161254768214,-0.7466210039325669,0.8634959675958069,-0.3277667957600834,-0.9137651499823156,-0.5790293801337889,0.506375969569706,0.18051703862824514,-0.29717224301429873,-0.7338568791208924,0.17065860815796666,0.607210566603064,0.784249275322532,-0.4346865699355704,-0.2581517819389729,-0.06827750623613404,-0.3061062233469869,0.9592315753512013,0.8381324497682798,0.506827072532479,0.6373796407639705,0.94215791135808,0.06336441509059165,0.2304704012523171,-0.18409669589958444,-0.32402350676978414,-0.17058045124017146,-0.7548923357672035,0.43801955964738987,0.8679687876905969,-0.2612631906531154,-0.2947111775622744,0.9245171687091394,-0.2016786887345219,0.4619598792180568,0.5694128185048795,0.7243950226333962,-0.7115459723219606,-0.8029904627058962,-0.3034332696017205,0.4429292939812541,0.19327604132483822,-0.06969443792713248,0.7343032828824496,-0.8623195332831846,-0.8768120374048092,0.7280001076434295,0.661599403496997,-0.11185301078294385,-0.6189142262783309,-0.46513890742853325,0.16289445795968982,-0.10099181184627115,0.23034607869527024,0.1319538341299782,-0.35689511915048877,0.0226922634371296,0.5707271237881577,0.7424028739383809,0.25784284144289427,-0.013632470621920734,-0.5152538108597033,-0.11959667412046526,0.3551457399190211,0.7733899930829126,0.06024599977526827,-0.9063204242840219,0.5891196446715931,-0.9284718542261925,0.4987510420347796,0.5515588376798468,-0.6056567922077805,0.40271884894395527,0.6788473940164916,0.7912634612298408,-0.7331287697719464,-0.03235227173974131,0.8753027114833132,0.405546955977933,-0.8193563623411775,0.3091547520801132,0.061551145676370655,0.1057681273499207,-0.06568134017693916,-0.8824823004374118,0.5065085924899636,-0.9884218133199641,0.5928338988166025,-0.8674648158045173,-0.664443744444728,-0.40174926204031625,-0.32915158221083685,-0.9226767127938763,-0.7409715039173453,-0.760887272856529,-0.8773295615279132,-0.2263716588392346,-0.09689399677024868,0.02364363111137857,-0.7212772786609092,-0.9413543574844772,-0.5247375732509343,0.5451498018364749,-0.2955616384519404,-0.34339552009014396,0.7226674134173896,-0.7370456073987119,0.531592899130858,-0.34282691614844474,-0.12677359598213034,0.7606129297055424,0.03862668055758656,-0.8944255335618507,-0.30955199797580457,0.1884116660734496,0.8248324784553125,0.5567423615527551,0.7018272792998848,-0.42805544320672606,0.2734549528717203,-0.1671694510744577,0.9202757443467786,-0.05868937896873483,0.8888817992479336,0.5587015880517083,0.22876135544172094,-0.2256845889226473,-0.5414817883718173,0.4911553631045096,-0.6248865831389425,-0.1432867315994315,0.16826314491839778,-0.9877219258803853],[-0.007236977073607154,-0.5651749883220432,0.9739877470457041,0.30542192990669426,-0.9559320527201725,-0.6335183267197788,0.21024577473001793,0.7350822483094324,-0.013598625794692065,0.04471424773568122,0.6223872195161495,-0.1259045247528361,0.1817017114169408,-0.49440915129134844,0.28523241306228986,0.8605399225601174,0.9791927163492287,0.8752629810795192,-0.497676539167204,-0.008814619287289549,0.6989438309316482,0.9932499756517785,-0.5754546969992833,0.4883695766032017,0.19720269917457722,-0.614388921397405,-0.9822147692289978,-0.8246638426351365,0.553904014472133,0.009217576798095983,-0.8599268587802213,0.8900457333608736,0.2687328480143494,0.2461337559278176,-0.01693338137682643,0.7511179469901799,0.2683051225253368,0.0911278220346925,0.9251947100895355,-0.9088860839275967,0.8972890517888126,-0.9077406053089083,-0.4401131283981097,-0.49980233946137353,0.6588515825318524,-0.8062137247799979,-0.6413634107469592,0.43979944044786157,-0.6835661556825507,-0.9198719015900392,-0.7985374377719361,-0.6804968757302428,0.23767583002628712,0.9110417981430143,-0.9075433303204599,0.42860848603688506,-0.8452137272345563,-0.0005948889284046466,0.18183230932835803,-0.9154451168432738,0.665974923096917,-0.6732227893093996,0.13808546704890778,-0.33314563600204483,0.1780269911915835,-0.7024870165390191,-0.8944364214614433,0.13865822009535167,0.8999084076382773,-0.029252738870171324,0.1195657255481315,-0.970613970602948,0.324335133848728,-0.7607305686530843,-0.29940510782721,-0.03856510285877812,-0.7102243828918957,-0.14362282715238317,-0.6979323792016756,-0.1437101003932728,-0.049819836200533096,-0.9487516361296167,0.7607349439611282,0.19557702433787183,0.10333513228852276,-0.25119297586801226,0.8621924489226327,0.19052771656362566,0.8206385664741469,-0.7411679473851613,-0.30826292873296346,-0.7780393606418623,0.6576999582330632,-0.8625972626587912,-0.3594990780023952,-0.4237241654816635,-0.2959744314247006,0.7302264707647756,-0.9513000237129234,0.6835162795314152,0.2887121409404113,-0.4215599883485405,0.0020400174833951792,0.898460203113499,-0.580416136455089,0.8191800549933239,-0.83161025411508,0.14910994307629322,0.31385759889958065,-0.2743512617001902,0.9148762243153623,-0.6903873548378234,-0.290613285765867,-0.2060050733350267,-0.3531309537355254,-0.4565438154282666,-0.1840773828323643,0.19420306863477155,0.7130685261733971,0.9644271665457849,-0.3228701440541797,0.9263921634200729,0.12299875870678711,0.01727270625874633,-0.5289122594729583,0.6237152687963621,-0.22464881217399332,0.6241065086367813,0.6711069513548507,-0.4335220551498339,-0.42444851386259097,0.6476079215632238,0.46651008815834194,0.4196450383348753,0.12934270366619538,0.7912337188594125,-0.5883859978981878,0.25415979454111115,0.6531389427757235,0.19769356619684686,0.03586883681224906,0.43325273196935843,-0.808205325683371,-0.9329071869787855,-0.09595218997661359,0.9227452096769095,-0.47906570972216356,-0.11665707302652262,0.8491196325756287,-0.7795060858771619,-0.7208483636583862,0.04728633794945282,0.9537343272282778,0.28027444621660047,-0.5105424262697781,0.3634797260369425,0.2954752218976432,-0.5554338017776528,0.3423768156667353,0.002454752194016429,0.24041656751156537,0.06909753692980238,0.6152541063805953,-0.15931193554302156,0.818389487965018,0.5453873338666675,-0.1473187802657474,0.13232355566387444,-0.20460186151935034,-0.9658913747491602,-0.78621042258071,-0.48753753435246727,-0.96350939753775,0.055769618194827876,0.6026848095932604,-0.17586466347653973,-0.7313092925613912,0.4292914230306259,-0.006154342784124142,-0.8121139932496741,0.1027751125156409,0.5014028023255823,0.7395947766881661,-0.07482276074328228,-0.5754335856885574,0.9218506091893511,0.478987497759261,0.8862852141252512,-0.08533367799819931,0.9515674236372638,-0.9355381984337808,0.24415902246740348,0.2512794055031984,-0.9444350670583028,-0.04961732162570032,-0.16286180390482308,-0.5843293297011698,0.5470065102837554,0.6437819314595368,-0.7995767465170132,0.05396388873753002,0.24402292640455128,-0.7996265887823824,-0.5610566159951182,-0.814335904592684,-0.2211457465327574,-0.44580449755446666,-0.433526098647116,-0.953465329039339,0.5863753455045451,0.5368191393769686,-0.07930521792313357,-0.7423230133033659,-0.4539438010554431,-0.4885644573396446,-0.6784626453859971,0.2967596333030606,0.8217673414829112,-0.46842680100437856,0.3336405828024791,0.23239742509411343,-0.7481317303948263,-0.22780349912861597,0.25249359266298965,-0.46648275218907864,-0.6634135702086144,0.48102946840436633,0.5217026064654244,-0.9303437086777685,0.4493147809097737,0.4943998007512169,-0.9200771908265671,-0.5970779153815303,-0.1670160574798579,0.356782084064931,0.3535495260465517,-0.11200756623641697,0.7383142181569441,-0.9253623240907071,0.933438478140372,0.3568246648444646,0.9144204047992426,-0.03414963144572979,0.11335634698846529,-0.10983052562383584,0.8666885080671908,0.36126543360161983,-0.6687253906071344,0.10167575753238367,0.20444804179548948,0.6380390585532654,0.3987269332038741,0.41941138268630107,-0.3923312915206383,0.16625366837575584,0.9545684183284835,-0.38175622095555145,-0.40795199143589245,0.016229516537420885,0.6824426936560721,-0.3454514912917342,-0.370710916547322,0.856566129934561,0.49722777565568277,0.8842720680602594,0.7182818954494136,0.7609438532993053,0.7683069230762676,-0.04783169959735971,0.04803997588700156,-0.47696655119855125,-0.17473158721710827,-0.559037419916707,0.10887937627916168,0.790359270512792,0.554088039106631,-0.23882907381561358,0.5714763241272585,-0.31842851689086604,0.9523325934928684,0.7687266587682724,-0.7847023009770786,-0.7056205605439372,0.9435291219568291,-0.6883044755405269,-0.08531904595029947,0.9181667944683833,-0.7106809156008134,0.5222953757381651,0.4515064145346167,0.4589112207226903,0.8514582117431896,0.3012992884841735,-0.11351835086676962,0.46956052794315556,-0.718227801041775,0.7778514659033241,-0.049060457564157875,-0.874711682776578,-0.3505806412510318,0.5542588923463713,0.8715781167042753,0.15319142324159163,-0.5761634611522028,0.854729243308463,0.49116024931472246,0.3540830602111713,0.9541923791919236,0.4092004029695375,0.04812545368091792,-0.7956804852604904,0.6702794974983568,-0.4698744099085924,-0.7641237027511332,0.26201867661965883,-0.33458931971179867,0.17040450370954854,-0.7024585268771234,0.8918903430150766,-0.14926182734564206,0.5828387550607695,0.38982097718939285,-0.7739399046802118,-0.9400969130182326,0.10903389658818444,-0.22709732339184063,-0.2966305861886543,0.12641952954929564,-0.2648338153233713,-0.7839806080274534,0.4241750182126004,0.06529787716571667,0.8549861492408741,0.29330891429195205,0.42930435951120005,0.5323717215673618,0.14839026717827686,0.5894064785801114,0.2180158518313724,0.6032676744497661,-0.01045978211441156,0.2943183841721908,-0.166665023061317,0.7380324809640666,0.8964135598786322,-0.15401228110954424,0.9647725682037087,0.26445604608312906,0.6315428901300235,-0.8248458996111705,-0.1706518244886042,0.3242920292434536,-0.738814096915346,-0.7084796341384214,-0.4979892534185081,0.23791513810782858,0.4796265822516546,-0.8604328228229513,-0.872720290964649,-0.8071076635768311,0.20432962744232075,0.007615568516576854,-0.7784526287384441,0.7784079303990925,-0.9522712287618624,0.4788087242661643,-0.6444624449923153,-0.2349518890657584,-0.5359976793451252,0.039396703173025176,0.7117525641757803,0.944879277057305,0.4744726775409097,-0.05249593947470671,0.6547215614714551,0.014247432629973631,-0.17805835198293127,0.7579044844477677,0.40810288613878315,-0.6571954930960451,-0.5904836785184717,0.632744388125596,-0.7467663540811166,0.69215003743278,0.8575054289756688,0.5665147392347998,-0.737148504023589,0.1387296848985442,-0.5226062410579582,0.3243558456849982,-0.4868479173674296,-0.31924373000957695,-0.18552410714153966,-0.7698967139308137,-0.7713338356100374,0.198535204834093,0.008392658139186332,0.13387881399046594,-0.47546738883785633,0.2402359486305665,-0.41608151959997464,0.34520363787455827,0.6384639798911329,0.8418576778080309,0.39368023792224566,0.3597300076113767,-0.9153409958824017,-0.5567414515097587,0.1648952387346439,-0.16778564534057244,0.7123639740511561,-0.9155919018431381,0.26843184358273425,-0.1832542088690672,-0.8923198747674755,0.08700178417861704,0.7342210664632445,-0.3168449386371295,-0.7794753101726601,0.24602742885487494,0.8615656914207341,0.9114040188242263,0.17540372592531384,-0.5643093355207603,-0.871811267661375,0.7505339341137913,0.7918340012118655,-0.8021167794156187,-0.8145494549360831,-0.019726338941657325,-0.4920157644599309,0.6608825344520335,-0.38396875863992347,-0.07658587181941595,-0.41529679088089555,0.602394279587203,-0.6642856619650144,-0.6294260137028836,0.17738652338777597,-0.9207384628452208,0.6233957325841188,-0.44721637890694443,0.19821581575298242,0.5053961567410985,0.7243565370792142,-0.09853018876958908,-0.6712454503863632,-0.9646846373110542,-0.10803571648144938,-0.78426303230055,-0.4609341204975568,-0.36587832894449335,-0.7312587771266369,0.8875367484987159,-0.8811188688176168,0.3074309917361799,0.4114822308398614,-0.03199326457516334,-0.6974430725745256,-0.47025626216189576,-0.2567296230760424,0.2562129462011212,0.7258595964388407,0.33924683842800946,-0.1624290434119448,-0.030751242795299102,0.38698434959091693,0.5467572839285716,-0.7360367097957066,-0.1958047007577379,-0.8270837513085373,0.9862579246432808,0.5293815544467839,0.45852339948599097,0.43642158683619403,0.9889953024510292,0.2970092141169576,-0.13445801441696137,-0.5138452137315976,-0.23176116994802154,0.5852292985912659,0.066434890256593,0.8101547674665627,-0.028708081523968684,0.680597040808477,-0.9103030737479354,0.7263935392220865,-0.5758037549632309,0.48102914178773504,-0.11261374764920953,0.7669174758200307,-0.901422988915518,0.9526515362410143,0.05803448763701528,-0.512153006425473,0.8686482021310182,0.9788621421228786,-0.5013056312243804,0.495622720750058,0.8117304760975385,-0.339345210444444,0.6268681020442517,0.6487723213158754,-0.22198453486707592,-0.7678027924703006,-0.29764124026231187,0.6851054615687535,0.047006614809935954,-0.9977304171782264,0.3695729753685848,-0.5897229971850414,-0.9791373930800514,0.9494676332872314,-0.3619683478366774,0.5658458302155407,-0.47030755675994573,-0.2518359993436748,0.7096729956297066,-0.5113632412503878,0.0006368375054713228,0.5760340609766451,-0.9258140505847003,0.14548028423543494,0.2503324287072255,0.2618465416549102,0.6540410297080436,0.15166076607998388,-0.3162981107799038,-0.41667910485932264,-0.5092750438390912,0.014467706582587336,-0.2768137719430861,-0.552654530817601,-0.82041491271471,-0.6630959467674562,-0.9624955121548115,0.980471330066794,0.6788911164978303,-0.7692486976656339,0.8398552608071443,0.167321051536581,0.9786059653799171,0.3728778173113175,0.5097524898013738,0.7891772215178605,-0.6794611422172744,0.21394308261288283,0.8509622004891754,-0.15792743661123804,-0.6164000690942821,-0.7449669802697014,0.4140677263776039,-0.511058409298212,0.28933332329350253,-0.009842031281305206,-0.7353793120226764,0.29245841099880854,0.20146801814411663,0.5802719508069787,0.207801052452818,0.9702679337313698,-0.8124121439965486,-0.3999634599356212,0.1741785430506062,0.2679887942926662,0.4613605266370567,-0.6750411936448893,-0.06315807999813648,-0.2141195145294761,0.2539770091770883,0.5396650822258947,0.4562742168804213,0.371710632237361,0.8094188270917141,0.24490503441038425,0.916207239510122,0.6555997069725686,-0.2482136815707697,-0.12064345765486403,-0.32224440762704976,0.6383635920949158,0.9270442592194574,-0.3753689742316566,0.7224739539699421,-0.8351305661932589,-0.09033876931124452,-0.8430775502800114,-0.9448224535083032,-0.30816357253901305,-0.7335437559340012,0.5408601161907187,0.36342699234021847,-0.26470278801914127,-0.5242783482655787,0.24310661875092393,-0.8680183755584129,-0.8347973225221114,0.7088750492833374,0.3561093900362082,-0.048750777554847614,-0.4465635499709306,-0.9359692994450375,-0.6832520921779557,-0.5379717060536666,-0.9713488263882392,0.4446089887886297,0.9710138892979053,-0.775437164700407,0.7614333646693354,0.8651042161570279,-0.6498076588685575,0.5175428393636046,0.0516727943341353,-0.500995759399042,0.6213966522331074,-0.2847522088706098,0.7460470902547516,-0.7514649375917668,0.9773250200418531,0.10773573733323971,0.5045127125970841,0.5546220906663147,0.8991060641305405,-0.04045808330558211,-0.8898557190724268,-0.5025808128616059,-0.011215697387980008,-0.2081061117434907,0.9900129094433451,-0.42088425028137877,-0.36087884946192655,-0.6763534312369778,-0.9343227592019606,-0.6282191840722003,0.8323684067821361,-0.01303934020547752,0.06476571836186373,0.9739058115855017,-0.3820723928703549,-0.09266572485131341,-0.24277702361193887,0.5978698360626842,0.8131619137701525,-0.38902821144779987,0.89974458985452,-0.5371748151846454,0.6732900424147714,-0.12694012855492742,0.3295737157897961,-0.9728365246933987,-0.8697911123161796,0.9186275941594164,-0.22918947331731265,-0.9929878881947414,-0.7767129355559228,0.6417660972587256,0.6280588048862811,-0.8629766573105344,0.4064499433819742,-0.47539715089479306,-0.586713588185178,-0.0662955199508006,-0.6221689452763457,0.7535610116952275,0.38865170042267483,-0.3348505458874742,-0.09097658025581712,0.4282282811227649,0.6217622879167872,-0.42279334306630645,0.1291501735822389,-0.01652940687143367,0.03793225600070249,0.30181941353230846,0.297593716937377,-0.34730665083410805,-0.9047723829768437,-0.3960769148537049,0.770318341887537,-0.24792402591632673,0.6980074701672933,-0.002650532758666436,-0.28078192824592585,-0.32678338000758,-0.5217831361301432,-0.2129647616939554,-0.6831724524922088,0.7729409592176105,0.4298457487445146,-0.2010240662965883,0.8767040884571585,-0.9154539292982088,-0.01285683649514402,-0.3514580356973309,-0.3931645444062153,0.39286343464827045,-0.31787475136640264,0.44222029821102815,-0.11815485431919992,0.6738648696180234,-0.11311868658058044,-0.9132293044841449,-0.4345201971026449,-0.26506349685702935,-0.2524737623853941,0.03206718494154481,0.29680478413468725,0.5044824792622209,0.25377627770003686,-0.11688199287709539,0.2457925869095576,-0.2491411457116109,0.15153370430577606,-0.708673992939965,0.8607969554131326,-0.9043201537884452,-0.8214002544294975,0.5176233531330074,0.8589939968090042,0.45606770220252946,-0.7187176129350958,-0.5664738116392658,0.6633071374233284,-0.6833534733256013,-0.4892419008534241,-0.5064088489941607,0.5779208463647416,0.06634890909055535,0.24892255510986816,0.8393187493072571,0.5168227465674033,0.531847936430379,-0.21192279186247243,-0.6199353780484067,0.7791895193734422,0.10681161164358244,0.645478079157067,-0.3156057945009478,0.04060708849122316,0.5130901513774866,-0.8629044694168195,0.5936432144235462,0.7183632864758005,-0.04226346364000136,0.03874804883320231,0.9744927128775213,0.6513183067641135,0.7879721631027974,-0.1579839323079919,-0.41967492799728934,-0.8214630565293315,-0.9694279735131621,0.6997982977243824,0.9481661647109036,0.5560025944304283,-0.09482829490252564,0.7437180092302054,0.4240260372485838,0.6370958620398852,0.4838840608935744,0.8154610432775913,-0.29476808030519885,0.4502558815498787,-0.0984979714233285,-0.7393672656267598,0.5401660419156937,-0.6370063330445905,0.15302955430786236,0.09011082948003724,-0.4938961632189205,-0.7887573686553995,-0.26097917058386644,0.07369418162555386,-0.43305000718360365,-0.1388185771491086,-0.23059552459318944,0.8933730107779079,-0.24316359985970282,-0.4969735566067617,-0.968271936709892,-0.727314853531495,0.8399769788838451,0.6804154202863497,0.9089149914390515],[-0.8331974767399934,-0.44160836487130606,0.870566305988945,-0.8630250155696517,0.1929071902687225,0.5078676419534753,-0.19997090115943505,0.3250630041490772,0.40440237172838467,-0.8770816122301741,0.3464231641827493,0.20628791446380923,0.5892820333745101,0.8103009972179835,-0.2881273107893185,-0.533147685779642,0.5008718080492365,-0.8033821853169867,0.7889874556993046,-0.1509684161496767,-0.016854534364334484,-0.19878257070049443,0.6899141698046547,-0.6659186892133695,0.17885885053179829,-0.8565233512968784,-0.628891547001095,-0.9145686112369944,0.8552593664139763,-0.3228908318643362,-0.23123649349084419,-0.835192172012698,0.7975338859654273,0.8396666277829028,0.5339781727771826,-0.4975859081155982,-0.7659045216826943,-0.5377115247914621,-0.4422718568489139,0.14963243846795926,0.21725662010430113,0.7216136052371485,0.7903737153103738,-0.561636446584282,-0.2684999698863235,-0.7012535897050713,0.016186708172479136,-0.2483101449025642,-0.6402276045107995,-0.26504038259251494,0.6598435979534103,0.1811006341918402,0.5668238511643993,0.5803274120404165,0.05809772542207803,-0.20428486820928882,-0.49144753471024183,-0.15505044823433511,-0.027785225484195486,-0.006834403179669213,0.6322588508350919,-0.06896046466935823,-0.4991638885308003,0.400468711238275,0.4653478049378177,-0.017311419144893758,-0.7009976207120885,0.3457133693643848,-0.5427950168956901,-0.4144738053758723,-0.43945712616251464,-0.6357948446416923,0.7528593228278931,-0.9543742917939421,-0.7389912068521837,0.778539127748072,-0.7127051595326668,0.694976120800245,0.12595067562394036,0.6176873519856616,-0.2877402267031868,-0.7271209444486946,-0.41341419254641343,-0.15675949855369886,-0.8792845760109125,0.5443378995996015,0.5692949313726423,-0.3780016275710625,0.27166489281315576,-0.5375473886611264,-0.18859720401802482,0.11339898633871703,-0.7753989790794944,-0.6142254738473971,0.30565393972590504,0.13544893931446156,-0.7608453847159029,0.16069796249026824,-0.27190331439716564,-0.48191635282548306,0.9655039216431863,0.15080635486001026,-0.938027786916432,0.6242648020915511,-0.8861635265890326,0.24766406302952104,0.17080975043094115,0.5594172011645102,-0.12233134911831556,-0.28562547570143737,-0.4234818490926835,-0.48975793649033594,0.6095597208579551,-0.7711592744910605,-0.6143367569250873,0.20704167205098445,0.8588824925926688,-0.9409893891930703,0.6417480039192065,0.6408498358735026,-0.5680939635089972,0.8883755402415101,-0.8922834887953774,-0.8104648848630478,-0.031946079448257336,0.927969601106729,-0.01443142990033031,-0.8190865749915224,0.519830570743222,0.0008962313077648829,0.6650796140012585,0.15356378455493425,-0.19553991971018192,-0.23864636849768672,-0.8827388206885214,-0.0015673472264534638,-0.9317115615582066,-0.2118694600057256,0.1672789987261618,0.23646627347963411,0.5480868341776812,-0.21102065162868344,-0.03752449722095541,-0.6890122368881997,0.17180676107082782,-0.9386821483106518,0.6292431975589836,-0.2745219361446889,0.8960505713728724,-0.28819085150679724,-0.030025044902906917,0.6519233210047267,0.9463385354352881,-0.6089070178482947,-0.23671309018349823,0.8527224760106086,-0.9297384935388759,0.36448938888130283,-0.6862116992699266,0.7109618831473707,0.39301296862662666,-0.390128882674328,0.37075849047453585,0.8712504396864269,-0.5215162059351144,0.842081838705095,0.4548092901276428,-0.3709869370875585,-0.5945082070979577,0.8534580602810573,-0.31253801923746627,0.016146712767650673,0.8609424659479938,0.17824170635677683,-0.3649017422859018,-0.44772684465545654,0.3818808181281298,-0.8434518233113537,0.5150359889281458,-0.21041692817286772,-0.9039519451659688,-0.4666565697561331,0.3081218884950942,-0.835756662121697,-0.06847265467190362,0.6784445519257986,0.8831376455605611,-0.22829644139668417,0.9087147056528115,-0.23292393412204143,0.8764600235004943,-0.22352633853080875,-0.46992271922191753,-0.9489460877837042,-0.16982837107822224,0.8076378215751623,-0.7125933972046328,0.20011171158766894,0.2287490666604861,0.883416404748222,0.31756638126459313,0.494199851650473,-0.07048264041231755,-0.9925704889251651,-0.6916619049241693,-0.8541061206309962,0.9494474929755635,0.581191551491215,0.08973382373372411,0.4505734215567335,0.4449146917855612,-0.49427950363917866,0.38584207733192694,0.9332714530367618,-0.7176933063721295,-0.336268763012033,-0.6656288921588472,0.5514104453273766,0.8666931055359641,-0.32660138849703824,-0.2939861095430949,-0.18373670794216235,0.6120214429223547,-0.07234530098196945,0.08904747996121376,-0.771591453912936,0.8573335370920812,-0.7737002554695698,0.7392262593887863,0.9786469362040188,-0.058128510305646586,0.4236162574737841,0.6160860389158199,-0.16542641435112962,-0.6007851456776278,0.08402756793122736,0.5050573379400691,0.8470720820113978,-0.24671562377808093,0.7163706113360064,0.6164292671687687,-0.7989190638240394,1.0042240406569898,-0.19235249978143476,-0.9468617624669784,-0.8139782611170552,0.18879191513705584,0.6534901527119379,-0.5350910573698013,-0.46938045714135423,-0.17239640510655807,-0.18200343596360957,-0.4213516010938676,0.32716358757653907,-0.9636240235163371,-0.2773831028264966,0.6441635473000383,0.9860678914127564,0.13600200151495834,0.6117495606417873,-0.28602126667050426,-0.7059941568509057,-0.08091290497007782,-0.3859475175844955,-0.8147461071808347,0.4845300123512911,0.25362741533911565,-0.8630889192161769,0.5898192526638196,0.3055569107148827,0.7557623539947358,0.9820699453962273,-0.5090153330924089,-0.5382872029208665,0.05430125606701122,0.9197507585933811,0.13587829673445784,0.9969290748903767,0.7564960850131777,0.9012689404891376,-0.9660322444356515,-0.7997329396606054,-0.027331499865798303,0.5254060731578425,0.6561059353091379,0.9809073064262807,0.028132123803876308,-0.7247580989895702,-0.05479479394964852,-0.46409114430985043,-0.7477651483234593,-0.780607294887377,-0.3780265812794464,0.47938014024518466,0.34578354615261364,0.7347183081577847,0.8573212595363712,0.06879721288111068,0.8117807431354086,0.9745425008350372,0.3529132568566587,-0.044204895728239935,-0.4483715157909878,0.003448664461551232,0.03994041964531858,-0.7478594433782302,0.21564084175287324,0.711275667735936,0.43480395452407317,-0.5296065056704728,-0.747460920592689,-0.24368368833304554,0.32268549092489596,0.5915492823120309,0.39432497370511355,0.319584440448255,0.09908774832980302,0.5404355533235583,0.791245518636719,0.8020238685436597,-0.48646340831177676,0.8053133370706874,0.8175494585500607,0.35350862362575824,-0.25210910943776094,0.7028011402223249,-0.9161894020793078,-0.5784772003832649,-0.9656086745415412,-0.0016970937481600597,-0.6494240985587342,-0.6135777495997599,-0.5242411777076863,-0.2546233358029202,-0.5539330592523086,-0.7574898065264248,0.3037875899489433,-0.9865582656922194,0.20865231560213182,0.48412354452595185,0.12476820730985129,-0.10168187661759243,-0.19897754728964193,-0.616063264986185,0.1577839166295549,0.9362633911066922,0.4325333201791062,0.07454641791957758,0.8419808458986526,-0.047191949305173495,0.251555982023567,0.24209957917918268,-0.68151552035783,0.00831217624930834,-0.008661902498425673,0.6801892042485695,-0.9092496911045949,0.6531896110097376,0.5916969702227729,0.17170966931506593,-0.36699532151640524,0.5368463995831889,0.20510007435900812,0.9873494213334482,0.8209020022283711,0.7337226370316654,-0.7176313243199264,0.6743350869650834,-0.9330208033650209,-0.8644760928205639,0.6194834832756789,0.827335237853869,-0.1725338923453277,-0.3353788880504682,0.18335256555734553,-0.12640082822043028,0.49102802164187215,0.4855929441039535,-0.7560722846613801,-0.8167406469113795,-0.7771190956350402,0.43124709318456284,-0.011785990720462988,0.637774931225055,-0.5106455052169389,0.8404171787218226,-0.8440502191931737,-0.4123235469754496,0.5737756652564743,0.15087248480283844,0.7252646749107781,-0.7195929470510118,0.7647450257292756,-0.22842392254036392,-0.9082392373866828,-0.6996027288778323,-0.9911185961999112,-0.36519104760696275,-0.9582138654043157,0.4830582996638308,-0.677147470585389,0.08738708602846797,0.22924845976068894,0.5669574782568481,0.22007040797839414,-0.9379041293466188,-0.7476683085708079,0.34544658914786947,-0.7674981740574939,-0.21074060595250083,-0.38142174122531675,0.06663897997024804,-0.1674039484428757,-0.8900697702529141,0.6977255397301638,0.3551465207140527,-0.36446710985585096,-0.24714383814083618,0.015448973508917607,0.6807055981135015,-0.880481398114414,0.982812201260808,-0.30831535715767,0.5802420548866325,-0.22215671960767372,-0.0783510089724986,0.8115835470969357,0.7304246654429006,-0.675232091833274,-0.16027410255664618,-0.07449108168417748,-0.4793955644872934,-0.7102197820070901,0.00678713283819808,-0.9058765457910024,-0.8995188783199033,-0.6725368699912404,0.8188658472089084,-0.5350355293684816,-0.9235893372381586,0.6428291197419572,0.8647985220469819,0.2551503209793713,-0.45188402057496946,-0.36281163276363415,0.9475354989375173,-0.31531763133428026,0.7830296259543816,-0.3908614690263179,0.9583584337561457,-0.07578879490058288,-0.2883150950081661,0.18522617393223004,-0.6156845642609565,0.21821387157071,-0.43986293321919206,-0.21634638151117974,-0.5335073765437028,0.22833842348241162,-0.9837994988022398,-0.6245827900678026,0.5070586655876045,0.9760701409739658,-0.86778509742574,0.3461294120353414,-0.6257470169423321,0.20759400731650673,0.35498944685794726,0.37521350401462306,0.20232563467651712,0.7791661480804513,0.6408013482968995,-0.7381543962440813,-0.3355129598185167,-0.9444698211067384,0.5081824242161517,-0.5948188399957948,0.6271267259332931,-0.0901816860502227,-0.19545131661839,0.23486102791677732,-0.19604763567969075,0.6522192122966799,-0.042557001476601734,0.5756338759363099,-0.01259810708725034,-0.8267941377906701,-0.42200256426242333,0.7151596594320714,0.2311605136175724,0.28193127208570695,0.6152168849497723,-0.7096135076190045,-0.1738909785920761,0.660567294609721,0.15005397711290375,-0.077131227680438,0.15827347612898177,0.6248874612212467,-0.13410125850125182,0.6671461608627561,-0.8955577101447418,0.29696738537864276,0.37160325497728897,-0.2156795431249523,0.7380528650712548,0.7377630215605819,0.7041961794770004,0.22775259000946368,0.7329579149666442,0.16135624727953884,-0.9658283852719786,-0.6218699947400346,0.5291350600006404,-0.6372266232119121,-0.06304865279003677,0.24622415019796945,-0.6069626109204288,0.8226502877452953,-0.33436320860977803,-0.7188999997331228,0.8073937380388208,-0.28530392289342116,-0.37189364529442925,-0.7815354839542091,0.7910006245076074,-0.38450619481547677,0.207334906384775,0.9248934713391367,-0.45507188734438175,-0.3635604655459561,-0.18674958061295222,-0.5303745219029623,0.25913142150686586,-0.13241149277412934,-0.055434295202013484,0.8548080869985393,0.7852794678890476,0.15359149717974807,0.9189669609051119,0.1495762690187063,0.27817350418816295,-0.8659549141199221,-0.38854909037962343,0.8762257571132787,-0.17815225145573751,-0.2861925979224823,-0.7811508479620625,0.690780104786584,-0.2860001590440172,0.4106947001087219,-0.34968305697808194,-0.3642612234399385,0.4341323016757709,-0.853786536908328,-0.7147540416376499,0.9148463823602107,0.7950094235215266,-0.6764161049823123,0.08166796608410865,-0.019676001377847196,0.22456465260498915,-0.55895761242695,0.550843330364867,-0.6606595911074811,-0.24365567781805936,0.20101887707762978,0.8834142195027646,-0.4232873182445366,-0.2826904080630097,0.7829513178724995,0.6572635743036458,0.31776924475635787,-0.7177652099537536,-0.4033860678450475,-0.6484586340298674,-0.6941887315627084,-0.7655742708597317,0.12279268188791181,-0.13280662893081646,0.8368744948953739,-0.7954030932685314,0.6351516548395746,0.10581404619609414,-0.1882352278328061,-0.494457562594782,0.7485833098324606,0.8264120730004803,-0.5083222305653092,0.40346679514990536,0.22179843593088489,0.8515815164705693,0.6604720707149792,-0.8245661482086836,-0.3535295162758609,0.1482461924191831,0.2331760056285395,0.4838556894315352,0.672116815000188,-0.3761385078858407,0.7869447780791577,-0.8410908581820251,0.8700034701192169,-0.3451518529481831,0.5155523689804977,-0.9372181479250636,-0.8314514770898735,0.1038013512952573,0.10713531583091607,-0.4575123139144659,0.05171210909708579,0.6215415116182874,0.36598680148267615,-0.26745170674213403,-0.5385277792320307,0.18407844133053297,0.7192617510989829,0.6784557376836879,-0.3530158176181115,-0.9482713913583525,-0.7793793003582294,-0.9981774537027165,0.8512421628881904,0.5326625395176683,-0.3055070783890904,-0.9585055340011582,0.6052751183994179,-0.8926641374924695,-0.9900576750364012,0.5165070559743195,-0.9533353438072626,-0.2115533084567043,0.8380210314236408,0.1458317794483973,-0.9101515818677106,0.33586359365795626,0.2907669588072448,-0.7733096901232912,-0.7712496170278276,0.9027719384085722,0.7660707334282724,0.9916215693357522,0.05851473996348178,-0.17980740831917297,0.07573780993985224,-0.31717688760871,-0.9278974906276085,-0.8458496798738588,-0.8827777729158525,-0.26695957954283117,0.6433019268655057,-0.28576899660689964,0.43023085343157835,-0.47087089276784727,0.4214128035146392,-0.9220939422227165,-0.8163792377479152,-0.19380111821809493,0.3502260860795381,-0.6906569097136396,-0.03294350735078153,0.21267024132922419,-0.9785073023094795,-0.35924587022599896,0.8314582657211731,0.025988157132340373,0.02067993172105398,0.3055183057915398,-0.7134246816275378,-0.21458318155257938,-0.1524295393788635,-0.11663640113074791,0.3415483747118544,0.7682078414986018,0.6567932646232877,-0.4951609458225237,-0.420060852325925,-0.4290155299383866,-0.23981403396273393,0.6474704305544665,0.7059511473197784,0.9078209760527973,-0.4802706617803404,0.9118108569194877,0.04178546016098466,-0.6128982831870755,0.8247324196471177,-0.10937462035846236,-0.9219419913622063,0.04893632653381465,-0.9461549118591399,-0.24954660127211847,-0.18046163205156596,0.5338947295595085,0.09845784321842155,0.0985793511607378,0.8547642057986051,0.8455728421008293,-0.5552598892302836,0.6624443532058,-0.4562300054896724,-0.5039320754009866,-0.7136377410392956,-0.29527801095908757,-0.7142079368720315,0.93632047691464,-0.474583491634855,0.8837323836341753,0.5927067982652449,-0.8554694047257138,-0.8555024384753362,-0.8082546719159565,0.31007496757680286,0.22716263137889703,-0.6931690905727771,-0.9510058097732885,-0.5482861936572921,-0.4370931943314021,-0.5025471401551984,0.9734116897202045,-0.5943949363464784,-0.41280042719472076,-0.9648093019983097,0.7580808835358464,-0.30582863341621014,0.6652828277653953,0.936171407030423,-0.9397077213354361,0.38141876523857876,-0.2332313458869213,-0.8976185620501562,-0.3879189180180478,-0.41137789927005963,0.7420520446788919,0.17427492503556508,-0.8699292316335989,-0.9627801806624547,0.40573662501306346,0.49138029894195606,-0.8908963194203929,0.7002543012677234,-0.5644743704112183,-0.7674048060017364,-0.4367932371025664,-0.9467006234584207,-0.7457112410915162,0.2544292231733904,0.6640370682687169,-0.4546942248610186,0.9573582221974073,0.716645811675134,-0.8037921859177466,-0.275698753001552,-0.7919181892248277,0.6516844234349382,0.9018557618562566,-0.5662061948206478,0.15266068976979597,-0.3652286629200989,-0.1888206851487344,-0.7326390550717883,-0.48558902348938826,-0.9809052035512735,-0.4084699078269831,-0.6559213643920301,0.12979411252540096,-0.7118741046042136,-0.4028260781917212,0.15934873453476772,-0.37252551756627383,-0.4450238912921747,0.4240371297299039,0.4202049416728961,-0.6371652651623596,-0.4156897501562664,0.5163880946447672,-0.5979655425536841,0.8420498619268342,0.15240866993502333,0.9782809069805816,-0.6063255398996112,0.49836932175578763,0.9345818702471762,0.3574926607853657],[-0.5983504270721349,-0.7094879788196353,0.37078159414502876,-0.49825768695188,0.1637052257753968,-0.11034568662207667,0.8130087973718956,-0.03755905967565365,-0.950174669498502,0.6617371233955547,-0.7538776869627282,0.31627521224782473,-0.2799680420975883,0.5256183660484517,-0.8729132272661513,-0.6051273629698075,0.559123968116189,-0.2520793279333038,-0.22285390335566424,-0.9351238714894707,0.38753601413435046,0.4944353165299029,-0.21930231410604328,0.6545441294301,-0.22127012579290906,-0.32459762125386726,0.17759719807289986,-0.7872791626064743,0.7357662503354527,-0.8731108110715127,0.7368059310819906,0.1271589679693963,0.9755059954052405,0.4997913421930211,0.6951068899258286,-0.9374214569004953,-0.7312870150250541,-0.752576777899884,-0.47067558946481025,0.6026028555690965,-0.7491803923897216,-0.2277763934088748,-0.6811861004238167,-0.5210586866777174,-0.6653687364080478,-0.8340649580146744,0.03343981102695137,-0.15653396160490596,0.9472444605156967,0.013351796567692364,0.08018039426555434,-0.10240686584969882,0.1291521565853988,-0.4689994737419676,0.10541614704542468,0.02157099199808954,0.05447162060765409,0.48212712402321856,0.0918049072457241,0.7286701008670327,-0.6010338314073773,-0.4462972501803306,0.7114748199211389,-0.49986413327091306,-0.6701086301608812,0.1621916284751448,0.43720174678750556,-0.3275860649111637,-0.8167085735405246,-0.17974205911136387,-0.7027401090435488,0.5857564248457918,-0.034572654796281736,0.72906078179231,0.8831798576899408,-0.8585423842862658,0.37569792853506057,-0.4012479943407903,0.3208692871538914,0.05841312072788085,0.6309633242612236,0.31445765492931566,0.8000420619672655,0.9725422136089965,-0.991099809092058,-0.9970634009237074,-0.513426245148124,0.5127713675986936,0.42339594090243526,0.2318887507902807,-0.7151889652742982,-0.6763509356269704,0.738080698416725,0.956796658618531,-0.5491838178514894,0.6655717110156427,0.23732076855180395,0.7400464023521693,-0.6458069257814247,0.528181996694345,-0.11767053570413478,0.006608680077244789,-0.18162039790374854,0.9138059881522804,-0.2967446387840398,-0.677102439428384,-0.6586197978956312,-0.667015991661791,0.2303425337549534,-0.061721369634183176,0.779483562932711,-0.0040037886824744184,-0.3257126932420289,0.9178335961296056,-0.9216287944114874,-0.8708591610618011,0.7351455135159917,0.5110631137666131,-0.9780316075906494,0.29970989187809804,-0.5477553331864207,0.2693768122898681,0.13461638487397476,-0.5157062870106879,0.6654523554446792,0.6900609688817891,-0.3401046370737962,0.2228094831323041,0.28483684126303144,-0.5653983819466218,0.7672084500970678,0.1229565208350829,-0.5458900144905412,-0.5117174283124113,-0.08778513931891041,-0.4190127848466889,-0.9830059439900971,-0.9921011240661697,0.8085431794765823,-0.5314305149699141,0.6986954267302705,-0.32105190637418524,-0.9016417235894538,-0.29969811083141007,0.46512888254441,-0.4037361904337371,0.3731654510795832,-0.8986237203638181,0.18102054676990909,0.2806315945698832,0.055394340157834954,0.026502213275436094,-0.9016471288030792,0.2727329113357974,-0.3737205270302698,-0.5370733635310014,-0.9223681172751934,-0.7932073498468906,0.5141502383234664,-0.2801062100982076,-0.934594263892586,0.8621517985996138,-0.02229240006001235,0.5097945731526143,0.44007587808305715,0.21347210023654073,0.6403801319558728,0.43753145881724187,-0.34649605088340785,-0.366776054106408,-0.3318936012802154,-0.25701228196062376,0.9123162582685436,-0.03549071822035943,0.5399549702805619,-0.9458985994442735,-0.1925214538387567,0.10200753889348299,0.07791445204713404,0.8153840360827843,-0.7355374679528072,0.9246074753833657,0.8923777394596022,0.3200172107290434,-0.8203184266399437,-0.6386035892192186,1.0021480687015185,0.09557321834056978,0.30326470323901944,-0.2557069341432479,-0.6671195984206261,0.41144119352459463,0.41268114272812184,-0.24114480489014056,0.0784483849798332,-0.816447738243764,-0.5870552866866396,0.30185187331142727,0.1334037812608142,0.5044600881021082,0.32089103433536764,0.8333787495961095,0.847951336886414,-0.31699398793443456,-0.7306436652467928,0.75966899285548,0.017428566146682933,0.19472836595355478,-0.07775823644872214,-0.4657265353824361,-0.27026451057170836,-0.9264913199163883,0.3821479141528576,-0.0617520912951371,-0.5262714071541048,-0.7186931605633579,-0.8399052834215114,0.7542924533737709,0.3558777596403708,0.9410642479809757,-0.17295068857510776,-0.5042849342723206,-0.19019432269564485,-0.23591727661012074,0.5709633375502197,0.6308094192288145,-0.858723867923493,0.545824534692652,0.9329145687358704,-0.6071597780799419,0.03536111268201614,0.6968160726953324,-0.632167581329336,-0.5076195596097415,0.6028147473179185,0.008762765854498816,0.5064397352442351,-0.528052561412746,-0.7992919868202194,0.48313351352587297,0.9289493343300544,-0.5490240300634809,-0.23627112874878395,0.3360327576861704,0.4530486240208867,0.9813469763431738,0.002953249748419183,0.018995999134799657,-0.8869025591145987,-0.6242833770786183,-0.5049638736972164,0.16549100949822382,0.6442562267375087,0.4025437728218675,-0.49310299654369016,0.6684697037148659,0.7735173104261083,-0.776526812998389,0.06163274639833771,0.38695244020401853,-0.07703004500239406,-0.12230319956261171,0.29744657293407295,0.1256007426305717,-0.09830465054754783,0.8750161041027301,0.752131010707439,-0.06336813221753826,0.4687482895914528,0.6137119134804909,-0.06131650045485194,-0.651785145890625,-0.23553754957282508,0.10049468463001139,0.4067143130874166,-0.367936513588321,0.5246005429004907,0.8795791597483107,-0.9296929283887736,-0.8886776060447032,0.08059490897337973,-0.3293500377595642,-0.8492522716518218,-0.7533511749315409,-0.9659420923110182,-0.1596480014413289,0.7697698002394602,-0.8850900985349904,0.9059419293557024,0.700676003313776,-0.8424820817708144,0.9897075600866055,0.2085605639405657,0.5215164034148698,0.12984093987339268,-0.7359255865476074,0.4820876036951202,0.32054333863342643,-0.09556126319890255,-0.41945124104365755,0.4144730205781671,-0.16611364194467002,-0.4252182826061266,-0.9992267778438286,-0.2274783638609521,-0.6789671202598049,0.5304206684907227,-0.9665928047995256,-0.5408306146125472,0.12643901881381492,0.32168341034255743,0.6018681792098858,0.4117782289717127,0.6063251529759272,-0.2750227097797313,-0.17643870970727227,0.8591230022545285,0.48809614110950245,-0.2250671167235595,-0.4227311839822326,0.5381771323722524,0.24230589477868186,-0.0043001877719251475,-0.06887004109784284,0.43306154843326633,0.25529006122033443,-0.6773534628155232,0.055662078926909886,-0.662113855242711,0.8408013753459772,-0.29132720005664064,-0.9143150500257975,0.5306083142032363,-0.06093509385249929,0.10826878809217311,-0.7528624736776517,-0.11086442720791112,-0.18608569515553786,-0.785461423367833,0.523249313176785,-0.8607361219326664,0.4061113682460934,0.4296711984107537,-0.06382780109499979,-0.3289887558205905,0.45625526525159477,-0.8475628952288599,-0.19815873275579787,0.1241229897518625,0.45428678906179076,0.6608116659449161,0.9820471562891493,0.6265123205487708,0.2500433915674379,0.7834715488526764,0.2388978981564589,-0.22145479464429121,-0.40402707278933353,-0.8670297139956782,-0.8244511359461058,-0.5080005594591666,-0.25756061865149205,0.02294656924754701,-0.9059777688847199,0.7602461424284539,0.6523430926930813,0.005115913780157744,-0.7638575321181931,0.7892558331999409,-0.6401457816691171,-0.1669607108469765,-0.9645583526932292,-0.7612925636303314,-0.2715170349387805,0.19618806014266355,0.8608664131734669,-0.6814406476040735,0.7454234561141366,-0.6666772522933502,-0.9393030046864252,0.9024388910892841,0.9302120394266027,-0.047195053385569743,0.7127761867935919,0.19765829210130945,0.1603944370354691,0.020283249698101764,-0.8633081877432325,0.1103084372690466,-0.49803188524046416,-0.1196344504665241,0.14201393980408605,0.637334632767494,0.5800629942898161,-0.018716001704599083,-0.44606067283770634,0.26219936933866395,-0.40797679063356684,-0.60020401514497,0.6538501438907713,0.5962509758108453,-0.5999828243366919,-0.05968298766368676,0.35061652538749355,-0.9066834133011185,0.8611490985225936,0.9688795888444387,-0.403829161877147,-0.5081769655672033,-0.4581842163938172,0.8074604333718357,-0.06723393068588461,-0.3737999987130761,-0.5165922020099318,0.9749827963681189,0.8853843718744487,0.3377482011950024,0.02055498287776203,-0.7998165637060528,0.22552777070180596,-0.13815547985295185,-0.8158843767611859,0.02142118987153241,-0.1735184144960974,-0.8932858445880961,0.34740961950355026,-0.3439931949319679,0.3805158818013616,-0.5258483697398421,-0.15380471143348307,0.5186744459513473,-0.5757359268605403,-0.25494863064849066,0.9780586600867214,0.1495569701465076,0.8117645528621154,0.9033978878531179,0.27770900514489916,0.7004245253691422,-0.4161278482830512,0.12861264386793772,0.8038820482465181,-0.35283231911881857,0.4040656129372424,-0.38032539295085455,0.6628024952946614,0.39903882944850944,0.5016898288829239,-0.29725547615324066,-0.8732713367926555,-0.5400980831287647,0.438160794739924,0.5380778028686929,-0.5050610532812356,-0.7352378742457685,0.6466825163651082,0.2509181402937079,-0.9027590281042646,0.941504968235852,0.11782056153491408,-0.7005400053575042,0.39489423199008084,-0.5476870229099358,0.21886662414777253,0.9928087752752172,0.08643147549512914,0.6321996014101381,-0.902408704640437,-0.35385339966492746,0.4030569864453805,0.8553738970080665,-0.5235663919273055,0.16876942297054942,-0.33894801327200064,0.7469914244518328,-0.3888741086951488,-0.7714904429315026,-0.6755944541631909,0.1725446308709162,0.09056143836716313,-0.9319243233592278,0.7430773640384332,0.3131116606086842,-0.9454663020372033,0.2647818663634353,-0.44678635288978824,0.6655514488820028,-0.4331930598095983,-0.733255136061033,0.5588881147386231,-0.02915881140490424,0.7282519039397036,0.5143507434733622,-0.1307300724193839,0.9077542388947886,0.4198753276368756,0.4520708380356208,0.2791591542411391,-0.4744908926294482,0.495798660064203,0.6707606540690523,-0.3432189833966399,0.16869976033073808,-0.7193086422802901,-0.5830088824517099,-0.7167515280191035,0.09623113024211483,0.7207087169528505,-0.30618476041223674,0.8554793670283807,-0.7164443017588475,-0.5013244213610645,0.8382514538651575,-0.8132901561838239,0.15590363417517716,0.8329086830695633,0.6813309741054634,0.20632540090411386,-0.3061255926172611,0.7999557604786773,-0.7936865960711851,0.1321444563510354,-0.6054590186229167,0.5408439689187868,-0.21992097423664952,0.4241868429628767,0.11755330288345904,0.37815605886958165,0.7035152183396503,0.9965952839547034,-0.4198094756597359,-0.7288757344662127,0.3553547314801624,-0.45454697860508064,0.6985569463831811,0.47745564733574275,-0.41606922560787885,0.20259441700817588,-0.37992843987589064,0.7828993051988259,-0.555755516055081,0.4734625885235176,-0.060902995085420866,-0.3124386081517758,-0.860415527866844,-0.9685000346348968,-0.4777899292609952,0.14960556292374225,0.7205999056742229,-0.015999547496617736,0.6580527931587083,0.055015010239824885,0.5743094953117502,-0.5136804700959207,-0.5303797973543474,0.5498368419787161,0.38077777624820347,0.23860809983718712,-0.21774332775727734,0.163269860947179,0.14271767026755633,-0.6505476217233959,-0.5120731587141183,0.09551492237148285,0.050652791011619236,0.2871870731396971,-0.41251290026365917,-0.15156797447252682,-0.9716071798650983,-0.9849116104388511,-0.676833565441472,0.5289209469397186,0.5417635150489516,-0.7347055493958374,0.8940749095839232,-0.4183875750340712,0.21206306187679935,-0.21270817888943017,0.4111532075303133,-0.14233696134734908,-0.9130456869311758,-0.07499884021570535,-0.6930231209403881,-0.3461949801904036,-0.8990420177254332,-0.8282398481396491,-0.3361644019294028,0.7987338669787194,-0.08698516516035681,-0.1786046067629692,0.1483894726287005,-0.6994192920245923,-0.03181533569972661,-0.19344660221779672,0.27554990477427155,0.8372278427557335,-0.7001454891558522,-0.35704489064254313,0.28724192423295386,0.8960403910449589,0.8258582466911236,0.247488359023007,0.5752705549858445,-0.7893292333268518,0.4281127168214173,-0.10531057438780994,0.45330220237561114,-0.32362927595691965,0.7565083650238829,0.8214977675942876,-0.16136017193237784,-0.5345998463012598,0.8182627488505809,0.6887164218691697,-0.2934726672668009,0.35818533559321475,-0.15754828193362513,-0.5234239147525339,-0.7914468530618537,0.7298958253687324,0.413131105939077,0.3136565727795384,0.8144743249085731,0.05016589880096949,-0.5604494159036035,0.7303615235141705,-0.5802268799627747,-0.2815256625054836,0.39880489286815185,-0.9339887030991896,-0.5320274859610825,-0.3509997383130902,0.26012198834699257,0.7884299393273969,-0.4952585032347807,0.1397084940601284,0.8649685978838675,-0.7323407259243151,-0.527749314412385,0.656431863280543,0.41001924504494625,0.13087199697541285,-0.6121325296176532,-0.8828116223245082,-0.5902421373491764,0.5680653935003916,-0.6583698173113812,0.32207972762008286,0.2885812217183755,0.5984008806007743,-0.5042315459226592,-0.9222696756851215,-0.7580266363303824,0.9776171139148578,-0.9788440683558013,-0.59691821343991,0.8765081008583369,-0.5725272152847584,-0.7741436623246465,-0.9808599789870391,-0.14421575533101055,0.2186199604722426,-0.8745651936617141,-0.5837098525252867,-0.23121398022299555,-0.0547210724415077,0.09218062584813858,-0.5239925832729093,-0.07536774735719654,0.7762436065104343,0.7647966043049692,-0.553466979789524,-0.11746510098715213,-0.6267494204528092,-0.5342239395871395,0.68370956541869,0.8716782513983314,-0.609612000256126,-0.19673281770740064,-0.2754667594337346,0.4664803406233102,0.7767032205707282,-0.15727466626235473,-0.19245315301391405,0.9300834459620377,0.9813936778069889,0.7898873254752725,-0.524280014056707,0.327527378640499,-0.3048695169542348,-0.9822811583580395,-0.44785599785129254,0.8596281210107692,-0.9810407955187612,0.8867144855707925,-0.7490566195481638,0.9050717677172511,-0.9173446061773869,-0.2117196045175489,0.020755034733190847,-0.6298988377046095,-0.8595131076424458,-0.7169918766102863,0.337056307960077,-0.3549850307657172,-0.0008360088701340196,-0.9998478466308107,0.27282163225585654,0.3951199361167532,0.6776251159429901,-0.023072763371722243,-0.7180793609000065,-0.8537399064279723,-0.26349272494334697,0.7009852027910225,-0.501683450025422,-0.07477720715006915,0.48842284390279644,0.48647073897910026,-0.7228774691933348,0.48074439233761934,-0.5132504396741515,0.12376691035431886,-0.15024474508106733,0.9642844428254023,-0.225035678030856,-0.9077232893892133,-0.43836493872318405,0.46587776351166443,0.7005710955069153,-0.8479119674516591,-0.9906518944408971,0.510001855911411,0.4732805461461673,-0.46490139357803306,-0.8963852025002126,0.9527018575266272,0.2829850369592529,-0.5549976802347151,-0.16745639744650154,-0.9972564408205549,-0.5039755499869827,-0.8128468610197821,0.031582148253566214,-0.2770674197127734,-0.7128314772532218,0.06888420829154722,0.07815293037831506,0.9415965027487951,0.26941128166426687,0.7785069284586035,0.5692001665070316,-0.9195869418010738,-0.8846874240069091,-0.37676828046649735,0.27054331046213376,0.07745227642097063,0.41023173908868227,0.1213936087524421,0.25251808329342085,-0.12991255473660512,-0.879967033568851,-0.935975692977169,0.883916607391726,0.5206561644499739,0.736296636744096,-0.02581992729467597,-0.43436600741561104,-0.31127228122386885,0.23758853800174684,0.8167491394930351,0.3973323742157433,-0.9746781946836567,-0.2422161539102432,0.7158009338813485,0.3933196153675915,0.3154937640255775,0.28524178147412504,0.21989573610098745,0.4662605552338044,0.6621367813024812,-0.256718113736909,0.8019004885857259,0.10318308015925703],[-0.7183436605961937,-0.9033573517559836,0.6300105983087012,0.004746046270331039,-0.28352354882367514,-0.804317770400464,-0.7314383081628928,0.6681654294163071,-0.3470071214707451,-0.4914241367570753,-0.5462100127714713,0.8518268074999109,-0.22543437385320964,-0.19137670688748765,0.03260624458363193,-0.10907207276213171,0.599341447068118,0.5916412966486861,-0.2728814239384634,0.15512419254641063,-0.21305235246858478,0.24664387940654997,-0.7868376072722194,0.9471088628069921,0.039331294110595216,0.028581380475343643,-0.30485859666752946,0.9272444676515565,-0.26562286882176434,-0.11223057559308414,0.8282102994876377,0.13990736965422101,-0.3140586030591819,0.20705254811203533,0.1202729364491093,-0.9012784722461507,0.761034342162497,-0.5335808187061915,-0.23552281130100328,-0.6986941127365607,-0.7703174704900482,0.5887098169688203,0.5457170194951906,-0.4848868107077897,-0.5782213939469072,-0.5525371308117233,0.36611977443551647,-0.1193821661757406,-0.2535899859535018,0.22582380830709958,-0.05676228197278732,0.8668081859656267,-0.9504190533500414,-0.06370243481131377,-0.21776435745313583,0.8353342945516573,-0.5077067149712793,0.7026274316033954,-0.19917714555806443,-0.33262517116154733,0.9218143877362581,0.7878006140399041,0.21274198040027725,0.6560668163739232,-0.3386907312990086,0.1054475401878503,-0.165002417532925,0.6745112405930733,0.8884864571114681,0.3133663087646448,0.2289864466685989,0.12758818737295474,-0.2807519829366237,0.028090825739866775,0.023437327534746536,-0.7018360732424176,0.1727617265495116,0.9950767303008452,-0.9601541940565324,-0.14954600612386626,0.3992137563013318,-0.34221278509013686,0.2819269329681564,-0.14459309228572348,-0.9977314983192613,-0.4969927842428148,0.8033727770528643,0.7748478107096868,0.48944204613812925,0.5112160713455034,0.140721304147835,0.3952467162015507,0.30353844753016457,-0.89315054391004,-0.5105143582322049,0.9620747046395053,0.745348924179631,0.4254211111455981,-0.21954511575171898,-0.1542141103896988,-0.3424272873473292,-0.6232142814230993,-0.7693485611042135,0.8755449925227472,-0.13286435310745626,-0.9866622394371674,0.8703078033187324,-0.971175449537431,0.7387533656790994,-0.7317030435365424,-0.83836557677972,-0.7579316719352245,-0.24442710449900407,0.5564510165257102,-0.15128426702833409,0.10352925104725541,-0.7384393805681877,0.18006568701300774,-0.6613639321348641,-0.014783439867572579,0.7920877189643161,0.5546248830107436,0.9167801949945376,0.06883948614764579,0.1679956690292368,0.27243416775625673,-0.6391354048913491,-0.9103165841293036,-0.9661955780199977,-0.9692117451115819,-0.850162116949936,-0.9840088150903517,0.8283538774081673,0.9102535513525232,-0.8248612797517207,0.7766063227841946,0.31322774021291,0.15977403429614245,-0.9844436071816829,0.3422668560000015,0.7181464302076934,0.9406071978399901,-0.5985035738639772,-0.5100760555784047,0.31149379355677054,-0.8441995283506403,-0.6185122681979558,0.8013500624488192,0.07630190207460608,-0.7246612790891884,-0.8920667998805514,-0.749241124307704,0.8940099008923104,0.8874078801403318,0.8636335202209756,0.13661918361349293,0.23596954414141585,-0.703708887186039,-0.11583539392029914,0.20296528572151512,0.8528340732815534,-0.21762773057864326,-0.7923937685898417,-0.666084251556261,0.6409685338159941,0.42442043019544684,0.3032621764916832,0.4902548028712794,-0.11763491399787318,0.6295366572638086,-0.3412006011125328,-0.24541666701662157,-0.8171431822463641,-0.9762745935065146,0.5165590853394688,-0.969375190362705,-0.273766898078246,0.6092543646937129,-0.6166845200379723,0.2904062350528611,0.8336557472988402,0.08432766062817691,0.12761692639182026,-0.42773833664476407,-0.24461694253566096,-0.3541126047357452,-0.25235652744478826,-0.698881699454829,-0.908015645743219,-0.3703963983998456,-0.5556814338513436,-0.24566685267379826,-0.009167158820517773,-0.15640462436738334,-0.055507319235929664,-0.0835470200342825,-0.7875053672161281,-0.8536046773644852,-0.450593158730491,0.7530221236404402,0.04986518944306255,-0.2020455293207219,-0.6165502506117968,-0.9426603502612731,0.703567152066072,-0.7128723208583154,0.5299039941278938,-0.733494381431952,0.8966743997447467,-0.32578089031007673,0.5195372007181333,0.24173055203241156,-0.11292975605205743,-0.8749329023594179,0.5059384894971418,0.4493696083410007,0.09788509803525317,-0.4949259257335285,-0.45088868228422063,0.394344259605389,0.34725340475982236,0.6063999716047777,-0.5551668767722422,-0.7594380568333396,0.8388597336417987,0.47014677040039965,0.2699808981145386,0.635469391900187,0.5647679318080362,-0.09958552293431827,0.6251789136735351,0.8211936291295395,-0.8099801663271314,-0.30723798112756806,0.03656010918892231,-0.29518140931044706,-0.2437448154755408,0.48899401445648544,-0.009159071844873459,-0.24922556022356684,-0.46638388645550927,-0.7986327740393161,-0.40762783737555547,0.27637120423679,0.6509765608549388,-0.2725464783767398,0.35350877975488026,-0.4818075428399111,-0.3194299410395738,-0.765368212710503,0.5677703635013658,-0.48735747558033404,0.6812804620949477,-0.6197450998950313,-0.5441675505106853,0.5094222535853428,-0.3251402165971804,0.03610842360081673,0.733143820485795,-0.4241621336571981,0.41657101982349576,0.7122749717729101,-0.9380087138568433,-0.890968498188098,-0.7858260133849652,0.15360358958219927,-0.5623437467347877,0.6453812281723514,0.06600968530416287,0.8193557341910493,0.8920791617088931,0.9550088137955204,0.9344064808598124,-0.7653437715383768,-0.15623516661211664,-0.5083135842563045,-0.22329516567381047,-0.34925244859516313,-0.580213064694612,0.5652171807927888,-0.7103398209966638,0.0862391947413319,0.32176852897678065,0.31197975272987877,0.1606138272144288,0.4706542942411734,0.09039774890637498,0.9045520486305262,-0.20059169172612867,0.9948948012409622,-0.9805668286038658,-0.42254013346208424,0.16212881800871193,0.9990200080596019,0.10160065023858349,-0.09354592209854727,0.5035387497099474,0.7749559027507248,-0.9063323829936814,0.5770140191014188,0.810333537219436,-0.4437413298529516,0.34375783385343106,-0.9003994692858628,-0.3474187969977094,0.31623076578538134,-0.0027672011898571824,0.8308520890072288,0.40722063359697724,0.49720308360299637,-0.17174020246612987,0.9721219576343147,0.5994280292001383,-0.06949188501159437,-0.08231382176605795,0.9146163210344413,-0.467556537932512,-0.6994035037604787,-0.5316586518632347,0.4803062654939508,0.7365453990154766,0.5214951735587016,0.6960818272963646,0.07997930389765043,-0.13677786617312138,-0.8454807355291706,-0.18988901282067816,-0.8509455859911341,-0.5717035958718503,0.43001781541383,0.28485896402110045,0.16628873927240218,-0.5474650777651404,0.18524127739492524,-0.13324958024650035,0.3839364725899066,0.1249824316854875,-0.4364672983267388,0.21732386579829255,-0.028701000114053053,0.9001555694356224,0.685029315925046,-0.4960076359400323,0.445574341532389,0.30978093429502307,-0.4399133733612574,-0.7659122625044834,0.4398840613376473,0.6382634232589361,-0.2388964905638307,-0.04202787177307613,